{"learner":{"attributes":{"scikit_learn":"{\"_estimator_type\": \"regressor\"}"},"feature_names":[],"feature_types":[],"gradient_booster":{"model":{"gbtree_model_param":{"num_parallel_tree":"1","num_trees":"200"},"iteration_indptr":[0,1,2,3,4,5,6,7,8,9,10,11,12,13,14,15,16,17,18,19,20,21,22,23,24,25,26,27,28,29,30,31,32,33,34,35,36,37,38,39,40,41,42,43,44,45,46,47,48,49,50,51,52,53,54,55,56,57,58,59,60,61,62,63,64,65,66,67,68,69,70,71,72,73,74,75,76,77,78,79,80,81,82,83,84,85,86,87,88,89,90,91,92,93,94,95,96,97,98,99,100,101,102,103,104,105,106,107,108,109,110,111,112,113,114,115,116,117,118,119,120,121,122,123,124,125,126,127,128,129,130,131,132,133,134,135,136,137,138,139,140,141,142,143,144,145,146,147,148,149,150,151,152,153,154,155,156,157,158,159,160,161,162,163,164,165,166,167,168,169,170,171,172,173,174,175,176,177,178,179,180,181,182,183,184,185,186,187,188,189,190,191,192,193,194,195,196,197,198,199,200],"tree_info":[0,0,0,0,0,0,0,0,0,0,0,0,0,0,0,0,0,0,0,0,0,0,0,0,0,0,0,0,0,0,0,0,0,0,0,0,0,0,0,0,0,0,0,0,0,0,0,0,0,0,0,0,0,0,0,0,0,0,0,0,0,0,0,0,0,0,0,0,0,0,0,0,0,0,0,0,0,0,0,0,0,0,0,0,0,0,0,0,0,0,0,0,0,0,0,0,0,0,0,0,0,0,0,0,0,0,0,0,0,0,0,0,0,0,0,0,0,0,0,0,0,0,0,0,0,0,0,0,0,0,0,0,0,0,0,0,0,0,0,0,0,0,0,0,0,0,0,0,0,0,0,0,0,0,0,0,0,0,0,0,0,0,0,0,0,0,0,0,0,0,0,0,0,0,0,0,0,0,0,0,0,0,0,0,0,0,0,0,0,0,0,0,0,0,0,0,0,0,0,0],"trees":[{"base_weights":[-2.3578439E-4,3.9435927E-2,-5.1027242E-2,7.852619E-2,-1.0803113E-2,-1.272524E-2,-1.0300829E-1,9.3317986E-2,6.357586E-2,3.634413E-3,-2.5930762E-2,2.1768338E-3,-2.7245859E-2,-8.661916E-2,-1.1925999E-1,1.0758513E-1,7.870728E-2,7.701803E-2,4.9396623E-2,1.875789E-2,-1.1388564E-2,-1.3599214E-2,-3.8123686E-2,1.5084523E-2,-1.0768046E-2,-1.2780404E-2,-4.230701E-2,-7.112801E-2,-1.0149828E-1,-1.0289345E-1,-1.3441397E-1,5.321438E-3,1.1529937E-2,3.886253E-3,8.436995E-3,3.8209097E-3,9.621703E-3,2.4198194E-3,6.982447E-3,8.996082E-4,5.6499927E-3,-6.103092E-4,5.8717043E-3,-7.492703E-4,4.6095015E-3,-1.9432601E-3,4.1456064E-3,7.0289685E-4,5.4200706E-3,-5.956126E-4,3.6083532E-3,-6.972536E-4,4.753753E-3,-2.1710296E-3,3.492624E-3,-3.6158264E-3,8.5262535E-4,-5.1322225E-3,-2.0481323E-4,-5.2020107E-3,-1.1910409E-3,-6.7767994E-3,-2.3431238E-3],"categories":[],"categories_nodes":[],"categories_segments":[],"categories_sizes":[],"default_left":[0,0,0,0,0,0,0,0,0,0,0,0,0,0,0,0,0,0,0,0,0,0,0,0,0,0,0,0,0,0,0,0,0,0,0,0,0,0,0,0,0,0,0,0,0,0,0,0,0,0,0,0,0,0,0,0,0,0,0,0,0,0,0],"id":0,"left_children":[1,3,5,7,9,11,13,15,17,19,21,23,25,27,29,31,33,35,37,39,41,43,45,47,49,51,53,55,57,59,61,-1,-1,-1,-1,-1,-1,-1,-1,-1,-1,-1,-1,-1,-1,-1,-1,-1,-1,-1,-1,-1,-1,-1,-1,-1,-1,-1,-1,-1,-1,-1,-1],"loss_changes":[8.05369E1,4.4071766E1,3.4896553E1,2.7851028E0,2.1450577E0,2.1840563E0,1.9702606E0,1.3135414E0,1.193161E0,1.142119E0,7.20597E-1,8.325973E-1,1.1131926E0,8.469944E-1,9.115257E-1,4.3151474E-1,2.6429367E-1,2.0835495E-1,2.6938915E-1,1.7873669E-1,2.6707065E-1,3.5127443E-1,2.196095E-1,2.3749155E-1,2.3695803E-1,3.2905746E-1,3.157792E-1,1.9187164E-1,2.1035385E-1,1.605587E-1,1.8363571E-1,0E0,0E0,0E0,0E0,0E0,0E0,0E0,0E0,0E0,0E0,0E0,0E0,0E0,0E0,0E0,0E0,0E0,0E0,0E0,0E0,0E0,0E0,0E0,0E0,0E0,0E0,0E0,0E0,0E0,0E0,0E0,0E0],"parents":[2147483647,0,0,1,1,2,2,3,3,4,4,5,5,6,6,7,7,8,8,9,9,10,10,11,11,12,12,13,13,14,14,15,15,16,16,17,17,18,18,19,19,20,20,21,21,22,22,23,23,24,24,25,25,26,26,27,27,28,28,29,29,30,30],"right_children":[2,4,6,8,10,12,14,16,18,20,22,24,26,28,30,32,34,36,38,40,42,44,46,48,50,52,54,56,58,60,62,-1,-1,-1,-1,-1,-1,-1,-1,-1,-1,-1,-1,-1,-1,-1,-1,-1,-1,-1,-1,-1,-1,-1,-1,-1,-1,-1,-1,-1,-1,-1,-1],"split_conditions":[1E0,1E0,1E0,1E0,1E0,1E0,1E0,1E0,1E0,1E0,1E0,1E0,1E0,1E0,1E0,1E0,1E0,1E0,1E0,1E0,1E0,1E0,1E0,1E0,1E0,1E0,1E0,1E0,1E0,1E0,1E0,5.321438E-3,1.1529937E-2,3.886253E-3,8.436995E-3,3.8209097E-3,9.621703E-3,2.4198194E-3,6.982447E-3,8.996082E-4,5.6499927E-3,-6.103092E-4,5.8717043E-3,-7.492703E-4,4.6095015E-3,-1.9432601E-3,4.1456064E-3,7.0289685E-4,5.4200706E-3,-5.956126E-4,3.6083532E-3,-6.972536E-4,4.753753E-3,-2.1710296E-3,3.492624E-3,-3.6158264E-3,8.5262535E-4,-5.1322225E-3,-2.0481323E-4,-5.2020107E-3,-1.1910409E-3,-6.7767994E-3,-2.3431238E-3],"split_indices":[5,6,6,7,4,4,4,4,4,7,7,7,7,7,7,45,34,45,34,35,34,35,40,34,45,34,35,35,35,34,35,0,0,0,0,0,0,0,0,0,0,0,0,0,0,0,0,0,0,0,0,0,0,0,0,0,0,0,0,0,0,0,0],"split_type":[0,0,0,0,0,0,0,0,0,0,0,0,0,0,0,0,0,0,0,0,0,0,0,0,0,0,0,0,0,0,0,0,0,0,0,0,0,0,0,0,0,0,0,0,0,0,0,0,0,0,0,0,0,0,0,0,0,0,0,0,0,0,0],"sum_hessian":[3.9967E4,2.244E4,1.7527E4,1.262E4,9.82E3,1.0092E4,7.435E3,6.341E3,6.279E3,5.025E3,4.795E3,4.981E3,5.111E3,3.705E3,3.73E3,3.205E3,3.136E3,3.221E3,3.058E3,2.504E3,2.521E3,2.385E3,2.41E3,2.494E3,2.487E3,2.608E3,2.503E3,1.818E3,1.887E3,1.797E3,1.933E3,3.177E3,2.8E1,3.104E3,3.2E1,3.206E3,1.5E1,3.026E3,3.2E1,2.485E3,1.9E1,2.506E3,1.5E1,2.355E3,3E1,2.396E3,1.4E1,2.468E3,2.6E1,2.454E3,3.3E1,2.581E3,2.7E1,2.479E3,2.4E1,1.794E3,2.4E1,1.865E3,2.2E1,1.771E3,2.6E1,1.908E3,2.5E1],"tree_param":{"num_deleted":"0","num_feature":"48","num_nodes":"63","size_leaf_vector":"1"}},{"base_weights":[8.612108E-6,3.7821576E-2,-4.857511E-2,7.4564874E-2,-1.0030007E-2,-1.2084979E-2,-9.824034E-2,7.0221394E-2,2.113162E-1,-1.4666311E-2,1.23354115E-1,-1.5599994E-2,1.22254506E-1,-1.0124383E-1,3.7134033E-2,8.423095E-2,5.6155037E-2,1.1232926E-2,9.76657E-3,-1.0744127E-3,-2.885991E-2,1.367611E-1,1.0868914E-1,-1.4389893E-3,-2.952987E-2,1.3897191E-1,1.0671059E-1,-8.540463E-2,-1.1678754E-1,5.2273076E-2,2.380946E-2,4.9044313E-3,3.5080563E-3,3.4685407E-3,2.0927705E-3,6.2532147E-4,-7.3555455E-4,-8.071934E-4,-2.058712E-3,7.36019E-3,6.15666E-3,6.0147746E-3,4.794942E-3,5.1783596E-4,-6.549899E-4,-7.533769E-4,-2.2353954E-3,7.5974497E-3,6.18583E-3,5.1305336E-3,8.438952E-3,-3.5399657E-3,-4.969187E-3,-5.059966E-3,-6.5611564E-3,2.3733852E-3,5.5027376E-3,1.882118E-3,2.3088456E-4],"categories":[],"categories_nodes":[],"categories_segments":[],"categories_sizes":[],"default_left":[0,0,0,0,0,0,0,0,0,0,0,0,0,0,0,0,0,0,0,0,0,0,0,0,0,0,0,0,0,0,0,0,0,0,0,0,0,0,0,0,0,0,0,0,0,0,0,0,0,0,0,0,0,0,0,0,0,0,0],"id":1,"left_children":[1,3,5,7,9,11,13,15,17,19,21,23,25,27,29,31,33,-1,-1,35,37,39,41,43,45,47,49,51,53,55,57,-1,-1,-1,-1,-1,-1,-1,-1,-1,-1,-1,-1,-1,-1,-1,-1,-1,-1,-1,-1,-1,-1,-1,-1,-1,-1,-1,-1],"loss_changes":[7.363626E1,3.9631138E1,3.1791832E1,7.5583725E0,6.0566554E0,4.777791E0,3.0247726E0,2.4307747E0,3.9720535E-2,1.8255513E0,4.9821377E-2,1.9443598E0,5.2212477E-2,1.7796478E0,3.1434253E-2,1.2000122E0,1.1631069E0,0E0,0E0,8.956143E-1,7.241883E-1,5.782604E-3,1.2512207E-2,6.726054E-1,1.0900702E0,5.155802E-3,1.7799139E-2,7.287922E-1,8.116646E-1,1.5600637E-2,2.3188226E-2,0E0,0E0,0E0,0E0,0E0,0E0,0E0,0E0,0E0,0E0,0E0,0E0,0E0,0E0,0E0,0E0,0E0,0E0,0E0,0E0,0E0,0E0,0E0,0E0,0E0,0E0,0E0,0E0],"parents":[2147483647,0,0,1,1,2,2,3,3,4,4,5,5,6,6,7,7,8,8,9,9,10,10,11,11,12,12,13,13,14,14,15,15,16,16,19,19,20,20,21,21,22,22,23,23,24,24,25,25,26,26,27,27,28,28,29,29,30,30],"right_children":[2,4,6,8,10,12,14,16,18,20,22,24,26,28,30,32,34,-1,-1,36,38,40,42,44,46,48,50,52,54,56,58,-1,-1,-1,-1,-1,-1,-1,-1,-1,-1,-1,-1,-1,-1,-1,-1,-1,-1,-1,-1,-1,-1,-1,-1,-1,-1,-1,-1],"split_conditions":[1E0,1E0,1E0,2.1334667E0,2.1334667E0,2.1334667E0,2.1334667E0,1E0,1E0,1E0,1E0,1E0,1E0,1E0,1E0,1E0,1E0,1.1232926E-2,9.76657E-3,1E0,1E0,1E0,1E0,1E0,1E0,1E0,1E0,1E0,1E0,1E0,1E0,4.9044313E-3,3.5080563E-3,3.4685407E-3,2.0927705E-3,6.2532147E-4,-7.3555455E-4,-8.071934E-4,-2.058712E-3,7.36019E-3,6.15666E-3,6.0147746E-3,4.794942E-3,5.1783596E-4,-6.549899E-4,-7.533769E-4,-2.2353954E-3,7.5974497E-3,6.18583E-3,5.1305336E-3,8.438952E-3,-3.5399657E-3,-4.969187E-3,-5.059966E-3,-6.5611564E-3,2.3733852E-3,5.5027376E-3,1.882118E-3,2.3088456E-4],"split_indices":[5,6,6,27,27,27,27,7,7,4,7,4,7,4,7,4,4,0,0,7,7,4,4,7,7,4,38,7,7,38,4,0,0,0,0,0,0,0,0,0,0,0,0,0,0,0,0,0,0,0,0,0,0,0,0,0,0,0,0],"split_type":[0,0,0,0,0,0,0,0,0,0,0,0,0,0,0,0,0,0,0,0,0,0,0,0,0,0,0,0,0,0,0,0,0,0,0,0,0,0,0,0,0,0,0,0,0,0,0,0,0,0,0,0,0,0,0,0,0,0,0],"sum_hessian":[4.0081E4,2.2539E4,1.7542E4,1.2749E4,9.79E3,1.0113E4,7.429E3,1.2358E4,3.91E2,9.462E3,3.28E2,9.856E3,2.57E2,7.268E3,1.61E2,6.189E3,6.169E3,2.06E2,1.85E2,4.834E3,4.628E3,1.67E2,1.61E2,4.888E3,4.968E3,1.2E2,1.37E2,3.603E3,3.665E3,7.4E1,8.7E1,3.115E3,3.074E3,3.204E3,2.965E3,2.422E3,2.412E3,2.278E3,2.35E3,8.9E1,7.8E1,8E1,8.1E1,2.43E3,2.458E3,2.545E3,2.423E3,6E1,6E1,1.31E2,6E0,1.765E3,1.838E3,1.766E3,1.899E3,7E1,4E0,5E1,3.7E1],"tree_param":{"num_deleted":"0","num_feature":"48","num_nodes":"59","size_leaf_vector":"1"}},{"base_weights":[-2.6501526E-5,1.3242504E-1,-1.4980767E-2,1.6688204E-1,8.768079E-2,2.0837743E-2,-6.0705576E-2,2.0324087E-1,1.2085657E-1,1.2098474E-1,3.960215E-2,5.562016E-2,-2.5255071E-2,-2.6404757E-2,-1.0761198E-1,2.1697435E-1,1.8847741E-1,1.339748E-1,1.0867186E-1,1.3459298E-1,1.0803447E-1,5.2772276E-2,2.6249858E-2,6.8735674E-2,4.233644E-2,-1.1493275E-2,-3.90047E-2,-1.314564E-2,-4.0258344E-2,-9.3692794E-2,-1.2067773E-1,1.0773606E-2,1.3981948E-2,9.361752E-3,1.2628418E-2,6.6188644E-3,9.822965E-3,5.3522787E-3,9.134865E-3,6.65632E-3,1.04532065E-2,5.308864E-3,9.045134E-3,2.5662144E-3,5.9643923E-3,1.2609082E-3,4.743465E-3,3.3735966E-3,8.012689E-3,2.06867E-3,6.617474E-3,-6.5560703E-4,3.969979E-3,-2.0042018E-3,2.7169567E-3,-7.094244E-4,3.891507E-3,-2.064607E-3,2.7823243E-3,-4.756206E-3,-2.1388743E-4,-6.1042565E-3,-1.2422047E-3],"categories":[],"categories_nodes":[],"categories_segments":[],"categories_sizes":[],"default_left":[0,0,0,0,0,0,0,0,0,0,0,0,0,0,0,0,0,0,0,0,0,0,0,0,0,0,0,0,0,0,0,0,0,0,0,0,0,0,0,0,0,0,0,0,0,0,0,0,0,0,0,0,0,0,0,0,0,0,0,0,0,0,0],"id":2,"left_children":[1,3,5,7,9,11,13,15,17,19,21,23,25,27,29,31,33,35,37,39,41,43,45,47,49,51,53,55,57,59,61,-1,-1,-1,-1,-1,-1,-1,-1,-1,-1,-1,-1,-1,-1,-1,-1,-1,-1,-1,-1,-1,-1,-1,-1,-1,-1,-1,-1,-1,-1,-1,-1],"loss_changes":[7.924843E1,6.243347E0,5.8881615E1,3.8109436E0,2.8261461E0,3.2322308E1,2.5405346E1,2.1842575E-1,1.4752007E-1,1.6944504E-1,1.261071E-1,1.998909E0,1.6402745E0,1.6752415E0,1.2017288E0,1.5010834E-3,2.3975372E-3,2.2306442E-2,4.4368744E-2,2.732277E-2,5.38702E-2,2.893591E-2,2.3235142E-2,6.576767E-1,4.8959064E-1,6.38907E-1,4.3912745E-1,4.4350123E-1,4.4458818E-1,4.1348648E-1,4.6053696E-1,0E0,0E0,0E0,0E0,0E0,0E0,0E0,0E0,0E0,0E0,0E0,0E0,0E0,0E0,0E0,0E0,0E0,0E0,0E0,0E0,0E0,0E0,0E0,0E0,0E0,0E0,0E0,0E0,0E0,0E0,0E0,0E0],"parents":[2147483647,0,0,1,1,2,2,3,3,4,4,5,5,6,6,7,7,8,8,9,9,10,10,11,11,12,12,13,13,14,14,15,15,16,16,17,17,18,18,19,19,20,20,21,21,22,22,23,23,24,24,25,25,26,26,27,27,28,28,29,29,30,30],"right_children":[2,4,6,8,10,12,14,16,18,20,22,24,26,28,30,32,34,36,38,40,42,44,46,48,50,52,54,56,58,60,62,-1,-1,-1,-1,-1,-1,-1,-1,-1,-1,-1,-1,-1,-1,-1,-1,-1,-1,-1,-1,-1,-1,-1,-1,-1,-1,-1,-1,-1,-1,-1,-1],"split_conditions":[3.4119618E-1,1E0,1E0,1E0,1E0,1E0,1E0,1E0,1E0,1E0,1E0,1E0,1E0,1E0,1E0,1E0,1E0,1E0,1E0,1E0,1E0,1E0,1E0,1E0,1E0,1E0,1E0,1E0,1E0,1E0,1E0,1.0773606E-2,1.3981948E-2,9.361752E-3,1.2628418E-2,6.6188644E-3,9.822965E-3,5.3522787E-3,9.134865E-3,6.65632E-3,1.04532065E-2,5.308864E-3,9.045134E-3,2.5662144E-3,5.9643923E-3,1.2609082E-3,4.743465E-3,3.3735966E-3,8.012689E-3,2.06867E-3,6.617474E-3,-6.5560703E-4,3.969979E-3,-2.0042018E-3,2.7169567E-3,-7.094244E-4,3.891507E-3,-2.064607E-3,2.7823243E-3,-4.756206E-3,-2.1388743E-4,-6.1042565E-3,-1.2422047E-3],"split_indices":[3,6,5,5,5,6,6,7,7,7,7,7,7,7,7,34,45,34,38,41,38,38,40,38,38,38,35,35,35,35,34,0,0,0,0,0,0,0,0,0,0,0,0,0,0,0,0,0,0,0,0,0,0,0,0,0,0,0,0,0,0,0,0],"split_type":[0,0,0,0,0,0,0,0,0,0,0,0,0,0,0,0,0,0,0,0,0,0,0,0,0,0,0,0,0,0,0,0,0,0,0,0,0,0,0,0,0,0,0,0,0,0,0,0,0,0,0,0,0,0,0,0,0,0,0,0,0,0,0],"sum_hessian":[4.0008E4,4.058E3,3.595E4,2.291E3,1.767E3,2.0159E4,1.5791E4,1.278E3,1.013E3,1.043E3,7.24E2,1.1489E4,8.67E3,9.122E3,6.669E3,6.55E2,6.23E2,4.83E2,5.3E2,5.04E2,5.39E2,3.63E2,3.61E2,5.779E3,5.71E3,4.334E3,4.336E3,4.662E3,4.46E3,3.233E3,3.436E3,6.44E2,1.1E1,6.15E2,8E0,4.74E2,9E0,5.21E2,9E0,4.97E2,7E0,5.28E2,1.1E1,3.57E2,6E0,3.57E2,4E0,5.702E3,7.7E1,5.651E3,5.9E1,4.259E3,7.5E1,4.287E3,4.9E1,4.61E3,5.2E1,4.413E3,4.7E1,3.182E3,5.1E1,3.386E3,5E1],"tree_param":{"num_deleted":"0","num_feature":"48","num_nodes":"63","size_leaf_vector":"1"}},{"base_weights":[-2.2056329E-4,1.2531993E-1,-1.4504173E-2,1.5738973E-1,8.251915E-2,1.9621411E-2,-5.778522E-2,1.9250894E-1,1.1525059E-1,1.1428565E-1,3.7512347E-2,5.283812E-2,-2.4231985E-2,-2.5077092E-2,-1.0223937E-1,1.0298128E-2,8.911468E-3,1.277194E-1,1.0148006E-1,1.2606673E-1,1.03322856E-1,5.2055262E-2,2.199801E-2,6.526231E-2,3.9968304E-2,-1.1167043E-2,-3.802407E-2,-1.10307215E-2,-3.8949534E-2,-8.853084E-2,-1.1551905E-1,6.3385116E-3,9.664077E-3,4.99299E-3,8.625348E-3,6.2548155E-3,8.757747E-3,5.095341E-3,8.753715E-3,2.5434108E-3,5.819136E-3,1.052346E-3,4.985952E-3,3.2061823E-3,7.6313443E-3,1.9517696E-3,6.5092766E-3,-6.1731186E-4,4.1567846E-3,-1.9591316E-3,2.6760069E-3,-6.0341007E-4,3.6810338E-3,-1.9919884E-3,2.4889333E-3,-4.487172E-3,-1.2954777E-4,-5.8450173E-3,-1.3002487E-3],"categories":[],"categories_nodes":[],"categories_segments":[],"categories_sizes":[],"default_left":[0,0,0,0,0,0,0,0,0,0,0,0,0,0,0,0,0,0,0,0,0,0,0,0,0,0,0,0,0,0,0,0,0,0,0,0,0,0,0,0,0,0,0,0,0,0,0,0,0,0,0,0,0,0,0,0,0,0,0],"id":3,"left_children":[1,3,5,7,9,11,13,15,17,19,21,23,25,27,29,-1,-1,31,33,35,37,39,41,43,45,47,49,51,53,55,57,-1,-1,-1,-1,-1,-1,-1,-1,-1,-1,-1,-1,-1,-1,-1,-1,-1,-1,-1,-1,-1,-1,-1,-1,-1,-1,-1,-1],"loss_changes":[7.1671295E1,5.591385E0,5.3004436E1,3.4304008E0,2.499133E0,2.923073E1,2.3001354E1,2.0746613E-1,1.6955853E-1,1.19485855E-1,1.6265762E-1,1.8230934E0,1.5580626E0,1.7758913E0,1.2105637E0,0E0,0E0,9.973526E-3,4.1465282E-2,1.4300346E-3,3.6718845E-2,2.263832E-2,2.3994923E-2,5.6798744E-1,4.671688E-1,4.9509352E-1,4.4828987E-1,3.988195E-1,3.6422586E-1,3.4407806E-1,4.1772842E-1,0E0,0E0,0E0,0E0,0E0,0E0,0E0,0E0,0E0,0E0,0E0,0E0,0E0,0E0,0E0,0E0,0E0,0E0,0E0,0E0,0E0,0E0,0E0,0E0,0E0,0E0,0E0,0E0],"parents":[2147483647,0,0,1,1,2,2,3,3,4,4,5,5,6,6,7,7,8,8,9,9,10,10,11,11,12,12,13,13,14,14,17,17,18,18,19,19,20,20,21,21,22,22,23,23,24,24,25,25,26,26,27,27,28,28,29,29,30,30],"right_children":[2,4,6,8,10,12,14,16,18,20,22,24,26,28,30,-1,-1,32,34,36,38,40,42,44,46,48,50,52,54,56,58,-1,-1,-1,-1,-1,-1,-1,-1,-1,-1,-1,-1,-1,-1,-1,-1,-1,-1,-1,-1,-1,-1,-1,-1,-1,-1,-1,-1],"split_conditions":[3.4119618E-1,1E0,1E0,1E0,1E0,1E0,1E0,1E0,1E0,1E0,1E0,1E0,1E0,1E0,1E0,1.0298128E-2,8.911468E-3,1E0,1E0,1E0,1E0,1E0,1E0,1E0,1E0,1E0,1E0,1E0,1E0,1E0,1E0,6.3385116E-3,9.664077E-3,4.99299E-3,8.625348E-3,6.2548155E-3,8.757747E-3,5.095341E-3,8.753715E-3,2.5434108E-3,5.819136E-3,1.052346E-3,4.985952E-3,3.2061823E-3,7.6313443E-3,1.9517696E-3,6.5092766E-3,-6.1731186E-4,4.1567846E-3,-1.9591316E-3,2.6760069E-3,-6.0341007E-4,3.6810338E-3,-1.9919884E-3,2.4889333E-3,-4.487172E-3,-1.2954777E-4,-5.8450173E-3,-1.3002487E-3],"split_indices":[3,5,5,6,6,6,6,4,4,4,4,4,4,4,4,0,0,41,35,38,45,35,37,38,35,38,38,35,35,35,35,0,0,0,0,0,0,0,0,0,0,0,0,0,0,0,0,0,0,0,0,0,0,0,0,0,0,0,0],"split_type":[0,0,0,0,0,0,0,0,0,0,0,0,0,0,0,0,0,0,0,0,0,0,0,0,0,0,0,0,0,0,0,0,0,0,0,0,0,0,0,0,0,0,0,0,0,0,0,0,0,0,0,0,0,0,0,0,0,0,0],"sum_hessian":[3.9967E4,4.082E3,3.5885E4,2.332E3,1.75E3,2.0065E4,1.582E4,1.27E3,1.062E3,1.025E3,7.25E2,1.1417E4,8.648E3,9.115E3,6.705E3,6.47E2,6.23E2,5.53E2,5.09E2,4.89E2,5.36E2,3.73E2,3.52E2,5.807E3,5.61E3,4.442E3,4.206E3,4.53E3,4.585E3,3.303E3,3.402E3,5.48E2,5E0,5E2,9E0,4.83E2,6E0,5.28E2,8E0,3.68E2,5E0,3.49E2,3E0,5.734E3,7.3E1,5.554E3,5.6E1,4.388E3,5.4E1,4.154E3,5.2E1,4.476E3,5.4E1,4.54E3,4.5E1,3.257E3,4.6E1,3.35E3,5.2E1],"tree_param":{"num_deleted":"0","num_feature":"48","num_nodes":"59","size_leaf_vector":"1"}},{"base_weights":[-8.202796E-5,3.2215644E-2,-4.1616295E-2,2.8450985E-2,1.4590341E-1,-4.4515215E-2,7.595736E-2,4.1054804E-2,1.5806358E-2,1.5955637E-1,1.307719E-1,-3.1362396E-2,-5.7635177E-2,9.1696285E-2,6.1769508E-2,5.3235892E-2,2.8503962E-2,2.741578E-2,3.4252626E-3,1.5672858E-1,1.16018355E-2,1.363605E-1,1.0529793E-1,-1.9365292E-2,-4.3044493E-2,-4.3458484E-2,-7.11926E-2,1.0620741E-1,7.728111E-2,5.8235142E-2,7.5179893E-3,2.175676E-3,3.1734128E-3,9.663833E-4,1.9537332E-3,9.1467716E-4,1.8708091E-3,-4.025422E-4,7.767679E-4,7.985942E-3,6.252363E-3,7.1849274E-3,5.533413E-3,6.099954E-3,4.4670906E-3,-1.425901E-3,-4.6193646E-4,-2.6758935E-3,-1.6314223E-3,-2.6420092E-3,-1.4391344E-3,-4.1408683E-3,-2.933435E-3,5.5720727E-3,3.210883E-3,3.6274479E-3,7.776074E-3,3.5302776E-3,2.2948515E-3],"categories":[],"categories_nodes":[],"categories_segments":[],"categories_sizes":[],"default_left":[0,0,0,0,0,0,0,0,0,0,0,0,0,0,0,0,0,0,0,0,0,0,0,0,0,0,0,0,0,0,0,0,0,0,0,0,0,0,0,0,0,0,0,0,0,0,0,0,0,0,0,0,0,0,0,0,0,0,0],"id":4,"left_children":[1,3,5,7,9,11,13,15,17,19,21,23,25,27,29,31,33,35,37,39,-1,41,43,45,47,49,51,53,55,57,-1,-1,-1,-1,-1,-1,-1,-1,-1,-1,-1,-1,-1,-1,-1,-1,-1,-1,-1,-1,-1,-1,-1,-1,-1,-1,-1,-1,-1],"loss_changes":[5.373218E1,9.639877E0,5.975527E0,3.475542E0,1.2829304E-1,2.949215E0,8.8569164E-2,1.6684227E0,1.5652056E0,4.0493965E-2,3.5183907E-2,1.1963396E0,1.6421337E0,3.321004E-2,6.169361E-2,5.4857254E-1,5.2129793E-1,5.120058E-1,7.326715E-1,1.4511108E-2,0E0,3.726244E-2,6.9549084E-3,3.9049935E-1,4.7029114E-1,5.749612E-1,6.3194084E-1,1.3941884E-2,2.685231E-2,3.0032218E-2,0E0,0E0,0E0,0E0,0E0,0E0,0E0,0E0,0E0,0E0,0E0,0E0,0E0,0E0,0E0,0E0,0E0,0E0,0E0,0E0,0E0,0E0,0E0,0E0,0E0,0E0,0E0,0E0,0E0],"parents":[2147483647,0,0,1,1,2,2,3,3,4,4,5,5,6,6,7,7,8,8,9,9,10,10,11,11,12,12,13,13,14,14,15,15,16,16,17,17,18,18,19,19,21,21,22,22,23,23,24,24,25,25,26,26,27,27,28,28,29,29],"right_children":[2,4,6,8,10,12,14,16,18,20,22,24,26,28,30,32,34,36,38,40,-1,42,44,46,48,50,52,54,56,58,-1,-1,-1,-1,-1,-1,-1,-1,-1,-1,-1,-1,-1,-1,-1,-1,-1,-1,-1,-1,-1,-1,-1,-1,-1,-1,-1,-1,-1],"split_conditions":[1E0,2.1334667E0,2.1334667E0,1E0,1E0,1E0,1E0,1E0,1E0,1E0,1E0,1E0,1E0,1E0,1E0,9.188075E-3,9.188075E-3,9.188075E-3,9.188075E-3,1E0,1.16018355E-2,1E0,1E0,9.188075E-3,9.188075E-3,1.9101325E-1,9.188075E-3,1E0,1E0,1E0,7.5179893E-3,2.175676E-3,3.1734128E-3,9.663833E-4,1.9537332E-3,9.1467716E-4,1.8708091E-3,-4.025422E-4,7.767679E-4,7.985942E-3,6.252363E-3,7.1849274E-3,5.533413E-3,6.099954E-3,4.4670906E-3,-1.425901E-3,-4.6193646E-4,-2.6758935E-3,-1.6314223E-3,-2.6420092E-3,-1.4391344E-3,-4.1408683E-3,-2.933435E-3,5.5720727E-3,3.210883E-3,3.6274479E-3,7.776074E-3,3.5302776E-3,2.2948515E-3],"split_indices":[5,27,27,7,7,7,7,4,4,34,11,4,4,4,38,27,27,27,27,18,0,12,4,27,27,27,27,20,45,4,0,0,0,0,0,0,0,0,0,0,0,0,0,0,0,0,0,0,0,0,0,0,0,0,0,0,0,0,0],"split_type":[0,0,0,0,0,0,0,0,0,0,0,0,0,0,0,0,0,0,0,0,0,0,0,0,0,0,0,0,0,0,0,0,0,0,0,0,0,0,0,0,0,0,0,0,0,0,0,0,0,0,0,0,0,0,0,0,0,0,0],"sum_hessian":[4.0053E4,2.2532E4,1.7521E4,2.1811E4,7.21E2,1.71E4,4.21E2,1.0922E4,1.0889E4,3.74E2,3.47E2,8.541E3,8.559E3,1.97E2,2.24E2,5.541E3,5.381E3,5.619E3,5.27E3,3.63E2,1.1E1,2.81E2,6.6E1,4.215E3,4.326E3,4.186E3,4.373E3,9.5E1,1.02E2,2.17E2,7E0,2.844E3,2.697E3,2.882E3,2.499E3,2.94E3,2.679E3,2.706E3,2.564E3,3.28E2,3.5E1,2.15E2,6.6E1,2.9E1,3.7E1,2.213E3,2.002E3,2.155E3,2.171E3,2.552E3,1.634E3,2.265E3,2.108E3,8.3E1,1.2E1,9.8E1,4E0,1.06E2,1.11E2],"tree_param":{"num_deleted":"0","num_feature":"48","num_nodes":"59","size_leaf_vector":"1"}},{"base_weights":[-3.4810818E-4,1.1754531E-1,-1.3779575E-2,1.4897726E-1,7.691147E-2,1.7457616E-2,-5.51282E-2,1.6325158E-1,1.3567236E-1,8.851242E-2,6.602848E-2,2.9350216E-2,5.341827E-3,-4.217652E-2,-6.7809425E-2,1.5815026E-1,1.8421286E-1,1.3483538E-1,1.0368352E-2,8.296739E-2,1.0557503E-1,6.456708E-2,8.190483E-3,2.8360566E-2,1.2371235E-1,4.462578E-3,1.0140861E-1,-4.327953E-2,6.1550416E-2,-6.8774395E-2,1.3974655E-2,7.853996E-3,1.187979E-2,9.472419E-3,7.854742E-3,6.587464E-3,7.357185E-3,4.109542E-3,7.161205E-3,5.1372834E-3,9.185307E-3,2.9681725E-3,4.1320235E-3,1.2033744E-3,2.264339E-3,6.5017403E-3,4.4853995E-3,-2.0036207E-6,1.0887405E-3,2.8428272E-3,5.220435E-3,-2.4179781E-3,-1.2760966E-3,2.687128E-3,3.758783E-3,-3.4810447E-3,8.679802E-4,2.6160136E-5,1.958989E-3],"categories":[],"categories_nodes":[],"categories_segments":[],"categories_sizes":[],"default_left":[0,0,0,0,0,0,0,0,0,0,0,0,0,0,0,0,0,0,0,0,0,0,0,0,0,0,0,0,0,0,0,0,0,0,0,0,0,0,0,0,0,0,0,0,0,0,0,0,0,0,0,0,0,0,0,0,0,0,0],"id":5,"left_children":[1,3,5,7,9,11,13,15,17,19,21,23,25,27,29,31,33,35,-1,37,39,41,-1,43,45,47,49,51,53,55,57,-1,-1,-1,-1,-1,-1,-1,-1,-1,-1,-1,-1,-1,-1,-1,-1,-1,-1,-1,-1,-1,-1,-1,-1,-1,-1,-1,-1],"loss_changes":[6.343114E1,5.2212334E0,4.6448727E1,4.163742E-1,2.200222E-1,2.951635E0,2.5389671E0,8.945465E-2,4.410553E-2,7.289219E-2,1.2188959E-1,9.6191025E-1,8.567991E-1,8.7894344E-1,6.1795044E-1,3.9123535E-2,1.9550323E-4,2.5817871E-2,0E0,1.8924236E-2,2.7105808E-2,8.1147194E-2,0E0,7.42424E-1,1.133883E-2,7.8403133E-1,6.3604712E-3,6.8246174E-1,4.576981E-3,5.646019E-1,3.1171689E-2,0E0,0E0,0E0,0E0,0E0,0E0,0E0,0E0,0E0,0E0,0E0,0E0,0E0,0E0,0E0,0E0,0E0,0E0,0E0,0E0,0E0,0E0,0E0,0E0,0E0,0E0,0E0,0E0],"parents":[2147483647,0,0,1,1,2,2,3,3,4,4,5,5,6,6,7,7,8,8,9,9,10,10,11,11,12,12,13,13,14,14,15,15,16,16,17,17,19,19,20,20,21,21,23,23,24,24,25,25,26,26,27,27,28,28,29,29,30,30],"right_children":[2,4,6,8,10,12,14,16,18,20,22,24,26,28,30,32,34,36,-1,38,40,42,-1,44,46,48,50,52,54,56,58,-1,-1,-1,-1,-1,-1,-1,-1,-1,-1,-1,-1,-1,-1,-1,-1,-1,-1,-1,-1,-1,-1,-1,-1,-1,-1,-1,-1],"split_conditions":[3.4119618E-1,1E0,1E0,1E0,1E0,1E0,1E0,1E0,1E0,1E0,1E0,1E0,1E0,1E0,1E0,1E0,1E0,1E0,1.0368352E-2,1E0,1E0,1E0,8.190483E-3,1E0,7.442757E-1,1E0,3.638069E-2,1E0,1E0,1E0,1.7059809E0,7.853996E-3,1.187979E-2,9.472419E-3,7.854742E-3,6.587464E-3,7.357185E-3,4.109542E-3,7.161205E-3,5.1372834E-3,9.185307E-3,2.9681725E-3,4.1320235E-3,1.2033744E-3,2.264339E-3,6.5017403E-3,4.4853995E-3,-2.0036207E-6,1.0887405E-3,2.8428272E-3,5.220435E-3,-2.4179781E-3,-1.2760966E-3,2.687128E-3,3.758783E-3,-3.4810447E-3,8.679802E-4,2.6160136E-5,1.958989E-3],"split_indices":[3,6,6,7,7,7,7,28,45,28,38,38,38,38,35,46,12,28,0,38,41,28,0,28,27,28,2,28,28,38,3,0,0,0,0,0,0,0,0,0,0,0,0,0,0,0,0,0,0,0,0,0,0,0,0,0,0,0,0],"split_type":[0,0,0,0,0,0,0,0,0,0,0,0,0,0,0,0,0,0,0,0,0,0,0,0,0,0,0,0,0,0,0,0,0,0,0,0,0,0,0,0,0,0,0,0,0,0,0,0,0,0,0,0,0,0,0,0,0,0,0],"sum_hessian":[4.0056E4,4.096E3,3.596E4,2.308E3,1.788E3,2.0485E4,1.5475E4,1.108E3,1.2E3,8.62E2,9.26E2,1.0337E4,1.0148E4,7.658E3,7.817E3,8.98E2,2.1E2,1.189E3,1.1E1,6.55E2,2.07E2,9.14E2,1.2E1,1.0231E4,1.06E2,1.0057E4,9.1E1,7.578E3,8E1,7.726E3,9.1E1,8.89E2,9E0,1.71E2,3.9E1,9.6E2,2.29E2,6.49E2,6E0,2.02E2,5E0,7.13E2,2.01E2,8.163E3,2.068E3,8.7E1,1.9E1,7.982E3,2.075E3,7E0,8.4E1,5.891E3,1.687E3,5.4E1,2.6E1,7.651E3,7.5E1,6E1,3.1E1],"tree_param":{"num_deleted":"0","num_feature":"48","num_nodes":"59","size_leaf_vector":"1"}},{"base_weights":[1.4510466E-5,1.118981E-1,-1.2793986E-2,1.4088427E-1,7.330713E-2,1.7756073E-2,-5.190605E-2,1.7199191E-1,1.0242925E-1,1.0204896E-1,3.2270808E-2,4.779608E-2,-2.1822272E-2,-2.238096E-2,-9.208541E-2,1.8410663E-1,1.5941988E-1,1.1331027E-1,9.112024E-2,1.1290358E-1,9.190991E-2,4.5098957E-2,1.820719E-2,5.894083E-2,3.6350243E-2,-1.019542E-2,-3.3914644E-2,-9.762521E-3,-3.4814462E-2,-7.9865E-2,-1.039484E-1,9.848576E-3,8.55761E-3,8.5162595E-3,7.357582E-3,6.161944E-3,5.130258E-3,4.4891923E-3,8.263011E-3,6.207639E-3,5.1495526E-3,5.1229596E-3,4.0369914E-3,2.8528683E-3,1.6451592E-3,1.5682466E-3,2.585139E-4,3.540576E-3,2.3614552E-3,2.3545471E-3,1.2604264E-3,5.191865E-5,-1.0732658E-3,-1.0965393E-3,-2.2924389E-3,5.839241E-5,-1.0644222E-3,-1.1418154E-3,-2.3654501E-3,-3.3780492E-3,-4.59012E-3,-4.609346E-3,-5.7349796E-3],"categories":[],"categories_nodes":[],"categories_segments":[],"categories_sizes":[],"default_left":[0,0,0,0,0,0,0,0,0,0,0,0,0,0,0,0,0,0,0,0,0,0,0,0,0,0,0,0,0,0,0,0,0,0,0,0,0,0,0,0,0,0,0,0,0,0,0,0,0,0,0,0,0,0,0,0,0,0,0,0,0,0,0],"id":6,"left_children":[1,3,5,7,9,11,13,15,17,19,21,23,25,27,29,31,33,35,37,39,41,43,45,47,49,51,53,55,57,59,61,-1,-1,-1,-1,-1,-1,-1,-1,-1,-1,-1,-1,-1,-1,-1,-1,-1,-1,-1,-1,-1,-1,-1,-1,-1,-1,-1,-1,-1,-1,-1,-1],"loss_changes":[5.7143295E1,4.571476E0,4.275238E1,2.7792015E0,2.071375E0,2.3885534E1,1.8612164E1,1.6727829E-1,1.1863518E-1,1.0342026E-1,1.3015664E-1,1.4547329E0,1.2184825E0,1.4188995E0,9.551697E-1,7.4783325E-2,6.069565E-2,4.3687344E-2,3.6585808E-2,4.2410374E-2,5.5359364E-2,5.339676E-2,5.953247E-2,8.009224E-1,6.733918E-1,5.597372E-1,6.066742E-1,5.658126E-1,6.8077755E-1,4.752655E-1,4.154358E-1,0E0,0E0,0E0,0E0,0E0,0E0,0E0,0E0,0E0,0E0,0E0,0E0,0E0,0E0,0E0,0E0,0E0,0E0,0E0,0E0,0E0,0E0,0E0,0E0,0E0,0E0,0E0,0E0,0E0,0E0,0E0,0E0],"parents":[2147483647,0,0,1,1,2,2,3,3,4,4,5,5,6,6,7,7,8,8,9,9,10,10,11,11,12,12,13,13,14,14,15,15,16,16,17,17,18,18,19,19,20,20,21,21,22,22,23,23,24,24,25,25,26,26,27,27,28,28,29,29,30,30],"right_children":[2,4,6,8,10,12,14,16,18,20,22,24,26,28,30,32,34,36,38,40,42,44,46,48,50,52,54,56,58,60,62,-1,-1,-1,-1,-1,-1,-1,-1,-1,-1,-1,-1,-1,-1,-1,-1,-1,-1,-1,-1,-1,-1,-1,-1,-1,-1,-1,-1,-1,-1,-1,-1],"split_conditions":[3.4119618E-1,1E0,1E0,1E0,1E0,1E0,1E0,1E0,1E0,1E0,1E0,1E0,1E0,1E0,1E0,1E0,1E0,1E0,1E0,1E0,1E0,1E0,1E0,1E0,1E0,1E0,1E0,1E0,1E0,1E0,1E0,9.848576E-3,8.55761E-3,8.5162595E-3,7.357582E-3,6.161944E-3,5.130258E-3,4.4891923E-3,8.263011E-3,6.207639E-3,5.1495526E-3,5.1229596E-3,4.0369914E-3,2.8528683E-3,1.6451592E-3,1.5682466E-3,2.585139E-4,3.540576E-3,2.3614552E-3,2.3545471E-3,1.2604264E-3,5.191865E-5,-1.0732658E-3,-1.0965393E-3,-2.2924389E-3,5.839241E-5,-1.0644222E-3,-1.1418154E-3,-2.3654501E-3,-3.3780492E-3,-4.59012E-3,-4.609346E-3,-5.7349796E-3],"split_indices":[3,5,5,6,6,6,6,7,4,7,4,4,4,4,4,4,4,7,46,4,4,7,7,7,7,7,7,7,7,7,7,0,0,0,0,0,0,0,0,0,0,0,0,0,0,0,0,0,0,0,0,0,0,0,0,0,0,0,0,0,0,0,0],"split_type":[0,0,0,0,0,0,0,0,0,0,0,0,0,0,0,0,0,0,0,0,0,0,0,0,0,0,0,0,0,0,0,0,0,0,0,0,0,0,0,0,0,0,0,0,0,0,0,0,0,0,0,0,0,0,0,0,0,0,0,0,0,0,0],"sum_hessian":[3.9873E4,4.095E3,3.5778E4,2.337E3,1.758E3,2.0088E4,1.569E4,1.29E3,1.047E3,1.033E3,7.25E2,1.142E4,8.668E3,9.045E3,6.645E3,6.5E2,6.4E2,5.29E2,5.18E2,4.94E2,5.39E2,3.78E2,3.47E2,5.784E3,5.636E3,4.42E3,4.248E3,4.49E3,4.555E3,3.277E3,3.368E3,3.19E2,3.31E2,3.32E2,3.08E2,2.69E2,2.6E2,5.11E2,7E0,2.26E2,2.68E2,2.73E2,2.66E2,1.89E2,1.89E2,1.72E2,1.75E2,2.87E3,2.914E3,2.868E3,2.768E3,2.214E3,2.206E3,2.121E3,2.127E3,2.305E3,2.185E3,2.327E3,2.228E3,1.617E3,1.66E3,1.613E3,1.755E3],"tree_param":{"num_deleted":"0","num_feature":"48","num_nodes":"63","size_leaf_vector":"1"}},{"base_weights":[1.9157081E-4,2.9295133E-2,-3.719811E-2,5.7695232E-2,-7.670396E-3,-8.839433E-3,-7.610945E-2,5.4638043E-2,1.5714774E-1,-1.1191251E-2,8.980025E-2,-1.1285429E-2,8.750566E-2,-7.817873E-2,2.3528608E-2,6.560008E-2,4.3576196E-2,1.6712534E-1,7.253296E-3,-4.0248322E-4,-2.2562219E-2,8.700669E-2,7.957007E-3,1.7994628E-4,-2.2660708E-2,1.0051503E-1,7.647313E-2,-6.6190764E-2,-8.982174E-2,3.7968725E-2,8.778905E-3,3.831297E-3,2.7108497E-3,2.6843753E-3,1.6374685E-3,8.991794E-3,7.737367E-3,5.193245E-4,-5.606791E-4,-1.1857422E-3,3.1749376E-3,4.9504107E-3,3.7202553E-3,4.7423292E-4,-4.5473265E-4,-5.747432E-4,-1.7208991E-3,5.462819E-3,4.491134E-3,3.702387E-3,6.357465E-3,-2.7374048E-3,-3.8618583E-3,-3.9054982E-3,-5.025377E-3,2.5626686E-3,1.2689045E-3,1.1273829E-3,-1.7624258E-4],"categories":[],"categories_nodes":[],"categories_segments":[],"categories_sizes":[],"default_left":[0,0,0,0,0,0,0,0,0,0,0,0,0,0,0,0,0,0,0,0,0,0,0,0,0,0,0,0,0,0,0,0,0,0,0,0,0,0,0,0,0,0,0,0,0,0,0,0,0,0,0,0,0,0,0,0,0,0,0],"id":7,"left_children":[1,3,5,7,9,11,13,15,17,19,21,23,25,27,29,31,33,35,-1,37,39,41,-1,43,45,47,49,51,53,55,57,-1,-1,-1,-1,-1,-1,-1,-1,-1,-1,-1,-1,-1,-1,-1,-1,-1,-1,-1,-1,-1,-1,-1,-1,-1,-1,-1,-1],"loss_changes":[4.3547596E1,2.3624643E1,1.932778E1,3.8606987E0,3.356619E0,2.3889277E0,1.5242729E0,1.4944649E0,2.1443367E-2,1.1578325E0,5.220723E-2,1.2889632E0,2.8338432E-2,1.003746E0,3.1827785E-2,7.7399635E-1,6.713934E-1,3.79467E-3,0E0,5.6512374E-1,4.5731187E-1,4.254198E-2,0E0,4.249287E-1,6.5088415E-1,6.54459E-4,7.792175E-3,4.467678E-1,4.510727E-1,1.1411205E-2,1.2954436E-2,0E0,0E0,0E0,0E0,0E0,0E0,0E0,0E0,0E0,0E0,0E0,0E0,0E0,0E0,0E0,0E0,0E0,0E0,0E0,0E0,0E0,0E0,0E0,0E0,0E0,0E0,0E0,0E0],"parents":[2147483647,0,0,1,1,2,2,3,3,4,4,5,5,6,6,7,7,8,8,9,9,10,10,11,11,12,12,13,13,14,14,15,15,16,16,17,17,19,19,20,20,21,21,23,23,24,24,25,25,26,26,27,27,28,28,29,29,30,30],"right_children":[2,4,6,8,10,12,14,16,18,20,22,24,26,28,30,32,34,36,-1,38,40,42,-1,44,46,48,50,52,54,56,58,-1,-1,-1,-1,-1,-1,-1,-1,-1,-1,-1,-1,-1,-1,-1,-1,-1,-1,-1,-1,-1,-1,-1,-1,-1,-1,-1,-1],"split_conditions":[1E0,1E0,1E0,2.1334667E0,2.1334667E0,2.1334667E0,2.1334667E0,1E0,1E0,1E0,1E0,1E0,1E0,1E0,1E0,1E0,1E0,1E0,7.253296E-3,1E0,1E0,1E0,7.957007E-3,1E0,1E0,1E0,1E0,1E0,1E0,1E0,1E0,3.831297E-3,2.7108497E-3,2.6843753E-3,1.6374685E-3,8.991794E-3,7.737367E-3,5.193245E-4,-5.606791E-4,-1.1857422E-3,3.1749376E-3,4.9504107E-3,3.7202553E-3,4.7423292E-4,-4.5473265E-4,-5.747432E-4,-1.7208991E-3,5.462819E-3,4.491134E-3,3.702387E-3,6.357465E-3,-2.7374048E-3,-3.8618583E-3,-3.9054982E-3,-5.025377E-3,2.5626686E-3,1.2689045E-3,1.1273829E-3,-1.7624258E-4],"split_indices":[5,6,6,27,27,27,27,7,7,4,34,4,7,4,4,4,4,4,0,7,38,7,0,7,7,4,42,7,7,7,7,0,0,0,0,0,0,0,0,0,0,0,0,0,0,0,0,0,0,0,0,0,0,0,0,0,0,0,0],"split_type":[0,0,0,0,0,0,0,0,0,0,0,0,0,0,0,0,0,0,0,0,0,0,0,0,0,0,0,0,0,0,0,0,0,0,0,0,0,0,0,0,0,0,0,0,0,0,0,0,0,0,0,0,0,0,0,0,0,0,0],"sum_hessian":[4.0017E4,2.2502E4,1.7515E4,1.2725E4,9.777E3,1.0132E4,7.383E3,1.2347E4,3.78E2,9.437E3,3.4E2,9.882E3,2.5E2,7.233E3,1.5E2,6.199E3,6.148E3,2E2,1.78E2,4.843E3,4.594E3,3.29E2,1.1E1,4.922E3,4.96E3,1.11E2,1.39E2,3.567E3,3.666E3,7.5E1,7.5E1,3.146E3,3.053E3,3.177E3,2.971E3,9.2E1,1.08E2,2.424E3,2.419E3,4.534E3,6E1,1.65E2,1.64E2,2.457E3,2.465E3,2.545E3,2.415E3,5.6E1,5.5E1,1.35E2,4E0,1.755E3,1.812E3,1.753E3,1.913E3,3.5E1,4E1,3.5E1,4E1],"tree_param":{"num_deleted":"0","num_feature":"48","num_nodes":"59","size_leaf_vector":"1"}},{"base_weights":[2.6193625E-4,2.7893048E-2,-3.539322E-2,2.4827551E-2,1.1923357E-1,-3.769013E-2,5.843077E-2,3.4876317E-2,1.4259702E-2,1.1711294E-1,9.443618E-3,-2.6587147E-2,-4.8620798E-2,7.095941E-2,4.6722274E-2,4.4731E-2,2.503125E-2,2.4700362E-2,3.6939313E-3,1.2788655E-1,1.0625367E-1,-1.6738942E-2,-3.6447693E-2,-3.6873043E-2,-6.009252E-2,8.349996E-2,5.758387E-2,5.5503435E-2,3.3760823E-2,2.17945E-3,6.0917386E-3,8.484086E-4,1.69131E-3,8.215202E-4,1.7110587E-3,-2.8704075E-4,6.681024E-4,6.317851E-3,1.0453527E-2,5.8186613E-3,4.741652E-3,-8.9382567E-4,3.5855882E-3,-1.8749841E-3,3.1098556E-3,-1.8852785E-3,3.222034E-3,-3.4948904E-3,-2.4666272E-3,4.324055E-3,1.5556583E-3,2.7066977E-3,6.342416E-3,3.0628608E-3,1.3161328E-3,6.9084484E-4,1.8915652E-3],"categories":[],"categories_nodes":[],"categories_segments":[],"categories_sizes":[],"default_left":[0,0,0,0,0,0,0,0,0,0,0,0,0,0,0,0,0,0,0,0,0,0,0,0,0,0,0,0,0,0,0,0,0,0,0,0,0,0,0,0,0,0,0,0,0,0,0,0,0,0,0,0,0,0,0,0,0],"id":8,"left_children":[1,3,5,7,9,11,13,15,17,19,-1,21,23,25,27,29,31,33,35,37,39,41,43,45,47,49,51,53,55,-1,-1,-1,-1,-1,-1,-1,-1,-1,-1,-1,-1,-1,-1,-1,-1,-1,-1,-1,-1,-1,-1,-1,-1,-1,-1,-1,-1],"loss_changes":[3.9434265E1,6.311413E0,3.7683754E0,2.3166513E0,8.5980415E-2,2.0690384E0,5.8001637E-2,1.083952E0,1.1733148E0,6.982803E-2,0E0,8.2141495E-1,1.156107E0,2.8738976E-2,2.3052007E-2,4.867258E-1,3.9633393E-1,4.2067885E-1,4.824281E-1,1.7415524E-2,3.0685425E-2,4.2760456E-1,4.411893E-1,3.608179E-1,4.5518208E-1,1.3082743E-2,1.7028838E-2,2.0046622E-2,6.864786E-3,0E0,0E0,0E0,0E0,0E0,0E0,0E0,0E0,0E0,0E0,0E0,0E0,0E0,0E0,0E0,0E0,0E0,0E0,0E0,0E0,0E0,0E0,0E0,0E0,0E0,0E0,0E0,0E0],"parents":[2147483647,0,0,1,1,2,2,3,3,4,4,5,5,6,6,7,7,8,8,9,9,11,11,12,12,13,13,14,14,15,15,16,16,17,17,18,18,19,19,20,20,21,21,22,22,23,23,24,24,25,25,26,26,27,27,28,28],"right_children":[2,4,6,8,10,12,14,16,18,20,-1,22,24,26,28,30,32,34,36,38,40,42,44,46,48,50,52,54,56,-1,-1,-1,-1,-1,-1,-1,-1,-1,-1,-1,-1,-1,-1,-1,-1,-1,-1,-1,-1,-1,-1,-1,-1,-1,-1,-1,-1],"split_conditions":[1E0,2.1334667E0,2.1334667E0,1E0,1E0,1E0,1E0,1E0,1E0,1E0,9.443618E-3,1E0,1E0,1E0,1.8809363E-2,1E0,9.188075E-3,9.188075E-3,9.188075E-3,1E0,1E0,1E0,1E0,1E0,9.188075E-3,1E0,1E0,1E0,4.5590315E-2,2.17945E-3,6.0917386E-3,8.484086E-4,1.69131E-3,8.215202E-4,1.7110587E-3,-2.8704075E-4,6.681024E-4,6.317851E-3,1.0453527E-2,5.8186613E-3,4.741652E-3,-8.9382567E-4,3.5855882E-3,-1.8749841E-3,3.1098556E-3,-1.8852785E-3,3.222034E-3,-3.4948904E-3,-2.4666272E-3,4.324055E-3,1.5556583E-3,2.7066977E-3,6.342416E-3,3.0628608E-3,1.3161328E-3,6.9084484E-4,1.8915652E-3],"split_indices":[5,27,27,4,34,4,7,7,7,7,0,7,7,4,26,38,27,27,27,42,4,34,45,45,27,11,45,11,26,0,0,0,0,0,0,0,0,0,0,0,0,0,0,0,0,0,0,0,0,0,0,0,0,0,0,0,0],"split_type":[0,0,0,0,0,0,0,0,0,0,0,0,0,0,0,0,0,0,0,0,0,0,0,0,0,0,0,0,0,0,0,0,0,0,0,0,0,0,0,0,0,0,0,0,0,0,0,0,0,0,0,0,0,0,0,0,0],"sum_hessian":[4.0025E4,2.255E4,1.7475E4,2.1819E4,7.31E2,1.7058E4,4.17E2,1.1183E4,1.0636E4,7.12E2,1.9E1,8.464E3,8.594E3,1.99E2,2.18E2,5.587E3,5.596E3,5.349E3,5.287E3,3.52E2,3.6E2,4.236E3,4.228E3,4.248E3,4.346E3,1E2,9.9E1,1.28E2,9E1,5.507E3,8E1,2.921E3,2.675E3,2.864E3,2.485E3,2.676E3,2.611E3,3.48E2,4E0,1.86E2,1.74E2,4.183E3,5.3E1,4.184E3,4.4E1,4.214E3,3.4E1,2.271E3,2.075E3,9.4E1,6E0,9.6E1,3E0,1.06E2,2.2E1,1.6E1,7.4E1],"tree_param":{"num_deleted":"0","num_feature":"48","num_nodes":"57","size_leaf_vector":"1"}},{"base_weights":[-6.594448E-5,1.04303844E-1,-1.1850845E-2,1.3088557E-1,6.925167E-2,1.46947075E-2,-4.7159325E-2,1.5721232E-1,9.675035E-2,9.3384616E-2,3.4546096E-2,4.1453462E-2,-1.8858133E-2,-2.1136487E-2,-8.147675E-2,1.6754892E-1,1.462586E-1,1.016404E-1,8.059096E-2,1.0015428E-1,7.9148404E-2,4.489606E-2,2.4157885E-2,5.106748E-2,3.1788323E-2,-8.945186E-3,-2.9060513E-2,-1.07480595E-2,-3.151301E-2,-8.266882E-2,5.9057757E-6,8.636623E-3,7.6817535E-3,7.551133E-3,6.672004E-3,5.527527E-3,4.687605E-3,4.5748693E-3,3.5209116E-3,5.536634E-3,4.5596263E-3,4.4365297E-3,3.4748216E-3,2.162445E-3,6.089082E-3,1.1562831E-3,4.661673E-3,2.5036002E-3,6.4272187E-3,1.5428986E-3,5.5369474E-3,-4.932021E-4,3.681051E-3,-1.5004635E-3,2.6244542E-3,-5.9319497E-4,3.1268054E-3,-1.6199633E-3,2.5563452E-3,-3.6350843E-3,-4.6026735E-3,4.6359032E-4,-5.0243543E-4],"categories":[],"categories_nodes":[],"categories_segments":[],"categories_sizes":[],"default_left":[0,0,0,0,0,0,0,0,0,0,0,0,0,0,0,0,0,0,0,0,0,0,0,0,0,0,0,0,0,0,0,0,0,0,0,0,0,0,0,0,0,0,0,0,0,0,0,0,0,0,0,0,0,0,0,0,0,0,0,0,0,0,0],"id":9,"left_children":[1,3,5,7,9,11,13,15,17,19,21,23,25,27,29,31,33,35,37,39,41,43,45,47,49,51,53,55,57,59,61,-1,-1,-1,-1,-1,-1,-1,-1,-1,-1,-1,-1,-1,-1,-1,-1,-1,-1,-1,-1,-1,-1,-1,-1,-1,-1,-1,-1,-1,-1,-1,-1],"loss_changes":[4.924379E1,3.7756958E0,3.3718513E1,2.0598145E0,1.4658327E0,1.8438663E1,1.3785873E1,1.2291336E-1,7.146168E-2,9.1724396E-2,7.6435626E-2,1.0599976E0,9.212885E-1,9.4632316E-1,6.4671326E-1,2.1278381E-2,1.8931389E-2,4.3755054E-2,2.0073533E-2,5.59783E-2,2.5094032E-2,4.032457E-2,2.3655027E-2,4.351883E-1,4.152584E-1,3.5145706E-1,3.4896827E-1,3.5972714E-1,3.2340145E-1,6.070976E-1,9.130179E-3,0E0,0E0,0E0,0E0,0E0,0E0,0E0,0E0,0E0,0E0,0E0,0E0,0E0,0E0,0E0,0E0,0E0,0E0,0E0,0E0,0E0,0E0,0E0,0E0,0E0,0E0,0E0,0E0,0E0,0E0,0E0,0E0],"parents":[2147483647,0,0,1,1,2,2,3,3,4,4,5,5,6,6,7,7,8,8,9,9,10,10,11,11,12,12,13,13,14,14,15,15,16,16,17,17,18,18,19,19,20,20,21,21,22,22,23,23,24,24,25,25,26,26,27,27,28,28,29,29,30,30],"right_children":[2,4,6,8,10,12,14,16,18,20,22,24,26,28,30,32,34,36,38,40,42,44,46,48,50,52,54,56,58,60,62,-1,-1,-1,-1,-1,-1,-1,-1,-1,-1,-1,-1,-1,-1,-1,-1,-1,-1,-1,-1,-1,-1,-1,-1,-1,-1,-1,-1,-1,-1,-1,-1],"split_conditions":[3.4119618E-1,1E0,1E0,1E0,1E0,1E0,1E0,1E0,1.6351022E0,1.6351022E0,1E0,1E0,1E0,1E0,1E0,1.6351022E0,1.6351022E0,1E0,1E0,1E0,1E0,1E0,1E0,1E0,1E0,1E0,1E0,1E0,1E0,1E0,1E0,8.636623E-3,7.6817535E-3,7.551133E-3,6.672004E-3,5.527527E-3,4.687605E-3,4.5748693E-3,3.5209116E-3,5.536634E-3,4.5596263E-3,4.4365297E-3,3.4748216E-3,2.162445E-3,6.089082E-3,1.1562831E-3,4.661673E-3,2.5036002E-3,6.4272187E-3,1.5428986E-3,5.5369474E-3,-4.932021E-4,3.681051E-3,-1.5004635E-3,2.6244542E-3,-5.9319497E-4,3.1268054E-3,-1.6199633E-3,2.5563452E-3,-3.6350843E-3,-4.6026735E-3,4.6359032E-4,-5.0243543E-4],"split_indices":[3,6,6,5,5,5,5,7,27,27,7,7,7,7,35,27,27,7,7,7,7,37,36,38,38,35,35,38,35,7,7,0,0,0,0,0,0,0,0,0,0,0,0,0,0,0,0,0,0,0,0,0,0,0,0,0,0,0,0,0,0,0,0],"split_type":[0,0,0,0,0,0,0,0,0,0,0,0,0,0,0,0,0,0,0,0,0,0,0,0,0,0,0,0,0,0,0,0,0,0,0,0,0,0,0,0,0,0,0,0,0,0,0,0,0,0,0,0,0,0,0,0,0,0,0,0,0,0,0],"sum_hessian":[4.0034E4,4.061E3,3.5973E4,2.308E3,1.753E3,2.0535E4,1.5438E4,1.301E3,1.007E3,1.033E3,7.2E2,1.1424E4,9.111E3,8.781E3,6.657E3,6.62E2,6.39E2,7.69E2,2.38E2,6.96E2,3.37E2,3.59E2,3.61E2,5.725E3,5.699E3,4.622E3,4.489E3,4.389E3,4.392E3,6.561E3,9.6E1,4.74E2,1.88E2,4.58E2,1.81E2,3.55E2,4.14E2,1.11E2,1.27E2,3.14E2,3.82E2,1.65E2,1.72E2,3.53E2,6E0,3.57E2,4E0,5.654E3,7.1E1,5.634E3,6.5E1,4.572E3,5E1,4.438E3,5.1E1,4.324E3,6.5E1,4.346E3,4.6E1,3.186E3,3.375E3,5E1,4.6E1],"tree_param":{"num_deleted":"0","num_feature":"48","num_nodes":"63","size_leaf_vector":"1"}},{"base_weights":[-5.0231218E-5,9.860745E-2,-1.1398108E-2,1.235278E-1,6.554958E-2,1.40958205E-2,-4.5105547E-2,1.4871614E-1,9.154069E-2,8.7898836E-2,3.2970585E-2,3.94858E-2,-1.7711919E-2,-2.0246811E-2,-7.738074E-2,1.5939738E-1,1.3711251E-1,9.6882015E-2,7.53712E-2,9.7426474E-2,7.712331E-2,4.5012407E-2,2.0150904E-2,4.8850346E-2,2.9752301E-2,-6.924376E-3,-2.8169423E-2,-1.0191953E-2,-3.0706562E-2,-7.857411E-2,1.1285258E-2,8.524519E-3,7.408174E-3,7.2614634E-3,6.3588293E-3,4.782944E-3,8.339184E-3,3.6749807E-3,6.2803254E-3,5.359422E-3,4.4085057E-3,4.181219E-3,3.1748076E-3,2.1765863E-3,5.800029E-3,1.4985914E-3,5.135809E-4,2.9306947E-3,1.955856E-3,1.9401159E-3,1.0238779E-3,8.906336E-5,-8.0070144E-4,-9.338745E-4,-1.9104921E-3,-4.765065E-5,-9.780116E-4,-1.0201761E-3,-2.0609682E-3,-3.4183476E-3,-4.4261604E-3,9.3667017E-4,1.5364011E-4],"categories":[],"categories_nodes":[],"categories_segments":[],"categories_sizes":[],"default_left":[0,0,0,0,0,0,0,0,0,0,0,0,0,0,0,0,0,0,0,0,0,0,0,0,0,0,0,0,0,0,0,0,0,0,0,0,0,0,0,0,0,0,0,0,0,0,0,0,0,0,0,0,0,0,0,0,0,0,0,0,0,0,0],"id":10,"left_children":[1,3,5,7,9,11,13,15,17,19,21,23,25,27,29,31,33,35,37,39,41,43,45,47,49,51,53,55,57,59,61,-1,-1,-1,-1,-1,-1,-1,-1,-1,-1,-1,-1,-1,-1,-1,-1,-1,-1,-1,-1,-1,-1,-1,-1,-1,-1,-1,-1,-1,-1,-1,-1],"loss_changes":[4.471392E1,3.386013E0,3.0781158E1,1.8781738E0,1.2880526E0,1.6471659E1,1.2374226E1,1.407566E-1,8.226013E-2,1.0038662E-1,1.1070418E-1,1.0323677E0,1.0211942E0,9.1625476E-1,7.109909E-1,5.9106827E-2,3.282261E-2,5.039358E-2,1.5401006E-2,4.0608883E-2,3.8808584E-2,3.4051478E-2,3.384447E-2,5.4689026E-1,4.6622896E-1,3.5279572E-1,4.3739367E-1,3.8470933E-1,4.6176767E-1,6.664276E-1,5.4475144E-3,0E0,0E0,0E0,0E0,0E0,0E0,0E0,0E0,0E0,0E0,0E0,0E0,0E0,0E0,0E0,0E0,0E0,0E0,0E0,0E0,0E0,0E0,0E0,0E0,0E0,0E0,0E0,0E0,0E0,0E0,0E0,0E0],"parents":[2147483647,0,0,1,1,2,2,3,3,4,4,5,5,6,6,7,7,8,8,9,9,10,10,11,11,12,12,13,13,14,14,15,15,16,16,17,17,18,18,19,19,20,20,21,21,22,22,23,23,24,24,25,25,26,26,27,27,28,28,29,29,30,30],"right_children":[2,4,6,8,10,12,14,16,18,20,22,24,26,28,30,32,34,36,38,40,42,44,46,48,50,52,54,56,58,60,62,-1,-1,-1,-1,-1,-1,-1,-1,-1,-1,-1,-1,-1,-1,-1,-1,-1,-1,-1,-1,-1,-1,-1,-1,-1,-1,-1,-1,-1,-1,-1,-1],"split_conditions":[3.4119618E-1,1E0,1E0,1E0,1E0,1E0,1E0,1E0,1.6351022E0,1E0,1E0,1E0,1E0,1E0,1E0,1E0,1E0,1E0,1E0,1E0,1.6351022E0,1E0,1E0,1E0,1E0,1E0,1E0,1E0,1E0,1E0,1E0,8.524519E-3,7.408174E-3,7.2614634E-3,6.3588293E-3,4.782944E-3,8.339184E-3,3.6749807E-3,6.2803254E-3,5.359422E-3,4.4085057E-3,4.181219E-3,3.1748076E-3,2.1765863E-3,5.800029E-3,1.4985914E-3,5.135809E-4,2.9306947E-3,1.955856E-3,1.9401159E-3,1.0238779E-3,8.906336E-5,-8.0070144E-4,-9.338745E-4,-1.9104921E-3,-4.765065E-5,-9.780116E-4,-1.0201761E-3,-2.0609682E-3,-3.4183476E-3,-4.4261604E-3,9.3667017E-4,1.5364011E-4],"split_indices":[3,6,6,5,5,5,5,4,27,4,4,4,4,4,34,7,7,34,38,7,27,44,7,7,7,7,7,7,7,4,4,0,0,0,0,0,0,0,0,0,0,0,0,0,0,0,0,0,0,0,0,0,0,0,0,0,0,0,0,0,0,0,0],"split_type":[0,0,0,0,0,0,0,0,0,0,0,0,0,0,0,0,0,0,0,0,0,0,0,0,0,0,0,0,0,0,0,0,0,0,0,0,0,0,0,0,0,0,0,0,0,0,0,0,0,0,0,0,0,0,0,0,0,0,0,0,0,0,0],"sum_hessian":[3.9937E4,4.119E3,3.5818E4,2.347E3,1.772E3,2.0394E4,1.5424E4,1.311E3,1.036E3,1.05E3,7.22E2,1.1341E4,9.053E3,8.714E3,6.71E3,6.76E2,6.35E2,7.75E2,2.61E2,5.53E2,4.97E2,3.71E2,3.51E2,5.778E3,5.563E3,4.457E3,4.596E3,4.444E3,4.27E3,6.621E3,8.9E1,3.33E2,3.43E2,3.42E2,2.93E2,7.64E2,1.1E1,2.54E2,7E0,2.64E2,2.89E2,3.33E2,1.64E2,3.65E2,6E0,1.75E2,1.76E2,2.882E3,2.896E3,2.814E3,2.749E3,2.277E3,2.18E3,2.364E3,2.232E3,2.238E3,2.206E3,2.158E3,2.112E3,3.272E3,3.349E3,4.6E1,4.3E1],"tree_param":{"num_deleted":"0","num_feature":"48","num_nodes":"63","size_leaf_vector":"1"}},{"base_weights":[-6.1542334E-5,9.3542546E-2,-1.0771426E-2,1.1750182E-1,6.2067665E-2,1.3430139E-2,-4.278199E-2,1.4100702E-1,8.802923E-2,8.38089E-2,3.1153088E-2,3.7669852E-2,-1.680807E-2,-1.915458E-2,-7.3594555E-2,1.5155731E-1,1.3010508E-1,9.769821E-2,7.924383E-2,9.246906E-2,7.423268E-2,4.149138E-2,1.9563073E-2,4.6635564E-2,2.8329566E-2,-6.5215123E-3,-2.6904086E-2,-9.502467E-3,-2.9342199E-2,-7.483024E-2,1.0111336E-2,7.486435E-3,1.119016E-2,6.914723E-3,6.054071E-3,4.796838E-3,7.971376E-3,4.4415533E-3,3.444651E-3,5.0201914E-3,4.194419E-3,3.6533643E-3,7.276941E-3,2.5617792E-3,1.6273437E-3,1.4651142E-3,4.8557177E-4,2.8037326E-3,1.8629332E-3,1.3671896E-3,5.675077E-3,1.0133371E-4,-7.6786825E-4,-8.8979857E-4,-1.8292109E-3,-3.5278405E-5,-9.259037E-4,-9.755334E-4,-1.9485782E-3,-3.230199E-3,-4.2418484E-3,9.367439E-4,1.0612659E-4],"categories":[],"categories_nodes":[],"categories_segments":[],"categories_sizes":[],"default_left":[0,0,0,0,0,0,0,0,0,0,0,0,0,0,0,0,0,0,0,0,0,0,0,0,0,0,0,0,0,0,0,0,0,0,0,0,0,0,0,0,0,0,0,0,0,0,0,0,0,0,0,0,0,0,0,0,0,0,0,0,0,0,0],"id":11,"left_children":[1,3,5,7,9,11,13,15,17,19,21,23,25,27,29,31,33,35,37,39,41,43,45,47,49,51,53,55,57,59,61,-1,-1,-1,-1,-1,-1,-1,-1,-1,-1,-1,-1,-1,-1,-1,-1,-1,-1,-1,-1,-1,-1,-1,-1,-1,-1,-1,-1,-1,-1,-1,-1],"loss_changes":[3.9916103E1,3.0755348E0,2.7680033E1,1.5947838E0,1.1863708E0,1.4914284E1,1.1197737E1,1.2854385E-1,7.99222E-2,7.9218864E-2,8.6897194E-2,9.4446564E-1,9.401121E-1,8.559964E-1,6.91288E-1,5.2228928E-2,3.0623436E-2,3.765726E-2,4.80628E-2,2.8411865E-2,3.074956E-2,3.197503E-2,3.3009082E-2,5.0781345E-1,4.6153307E-1,3.3886105E-1,4.0218735E-1,3.5473776E-1,4.002676E-1,6.677551E-1,6.71163E-3,0E0,0E0,0E0,0E0,0E0,0E0,0E0,0E0,0E0,0E0,0E0,0E0,0E0,0E0,0E0,0E0,0E0,0E0,0E0,0E0,0E0,0E0,0E0,0E0,0E0,0E0,0E0,0E0,0E0,0E0,0E0,0E0],"parents":[2147483647,0,0,1,1,2,2,3,3,4,4,5,5,6,6,7,7,8,8,9,9,10,10,11,11,12,12,13,13,14,14,15,15,16,16,17,17,18,18,19,19,20,20,21,21,22,22,23,23,24,24,25,25,26,26,27,27,28,28,29,29,30,30],"right_children":[2,4,6,8,10,12,14,16,18,20,22,24,26,28,30,32,34,36,38,40,42,44,46,48,50,52,54,56,58,60,62,-1,-1,-1,-1,-1,-1,-1,-1,-1,-1,-1,-1,-1,-1,-1,-1,-1,-1,-1,-1,-1,-1,-1,-1,-1,-1,-1,-1,-1,-1,-1,-1],"split_conditions":[3.4119618E-1,1E0,1E0,1E0,1E0,1E0,1E0,1E0,1E0,1E0,1E0,1E0,1E0,1E0,1E0,1E0,1E0,1E0,1E0,1E0,1E0,1E0,1E0,1E0,1E0,1E0,1E0,1E0,1E0,1E0,1E0,7.486435E-3,1.119016E-2,6.914723E-3,6.054071E-3,4.796838E-3,7.971376E-3,4.4415533E-3,3.444651E-3,5.0201914E-3,4.194419E-3,3.6533643E-3,7.276941E-3,2.5617792E-3,1.6273437E-3,1.4651142E-3,4.8557177E-4,2.8037326E-3,1.8629332E-3,1.3671896E-3,5.675077E-3,1.0133371E-4,-7.6786825E-4,-8.8979857E-4,-1.8292109E-3,-3.5278405E-5,-9.259037E-4,-9.755334E-4,-1.9485782E-3,-3.230199E-3,-4.2418484E-3,9.367439E-4,1.0612659E-4],"split_indices":[3,6,6,5,5,5,5,4,7,4,4,4,4,4,34,45,7,34,4,7,39,7,7,7,34,7,7,7,7,4,7,0,0,0,0,0,0,0,0,0,0,0,0,0,0,0,0,0,0,0,0,0,0,0,0,0,0,0,0,0,0,0,0],"split_type":[0,0,0,0,0,0,0,0,0,0,0,0,0,0,0,0,0,0,0,0,0,0,0,0,0,0,0,0,0,0,0,0,0,0,0,0,0,0,0,0,0,0,0,0,0,0,0,0,0,0,0,0,0,0,0,0,0,0,0,0,0,0,0],"sum_hessian":[3.9815E4,4.087E3,3.5728E4,2.319E3,1.768E3,2.0346E4,1.5382E4,1.288E3,1.031E3,1.037E3,7.31E2,1.1293E4,9.053E3,8.707E3,6.675E3,6.48E2,6.4E2,4.86E2,5.45E2,5.4E2,4.97E2,3.85E2,3.46E2,5.76E3,5.533E3,4.485E3,4.568E3,4.472E3,4.235E3,6.578E3,9.7E1,6.35E2,1.3E1,3.28E2,3.12E2,4.75E2,1.1E1,2.79E2,2.66E2,2.75E2,2.65E2,4.91E2,6E0,1.82E2,2.03E2,1.73E2,1.73E2,2.868E3,2.892E3,5.471E3,6.2E1,2.28E3,2.205E3,2.355E3,2.213E3,2.264E3,2.208E3,2.097E3,2.138E3,3.257E3,3.321E3,4.6E1,5.1E1],"tree_param":{"num_deleted":"0","num_feature":"48","num_nodes":"63","size_leaf_vector":"1"}},{"base_weights":[-3.065143E-5,8.8755496E-2,-1.011993E-2,1.11335516E-1,5.870117E-2,1.2817452E-2,-4.0548597E-2,1.3375227E-1,8.257099E-2,7.9483256E-2,2.9480457E-2,3.5633907E-2,-1.5941598E-2,-1.8022183E-2,-6.9927305E-2,1.3265264E-1,1.0716257E-2,8.159E-2,7.629317E-3,8.8351905E-2,7.125931E-2,3.855387E-2,2.0474685E-2,4.4120334E-2,2.7126387E-2,-1.6922612E-2,6.268183E-2,-9.21612E-3,-2.6812064E-2,-5.9966113E-2,-7.930266E-2,7.049054E-3,6.2000672E-3,4.5146565E-3,3.6938207E-3,4.341825E-3,7.6128277E-3,3.487387E-3,6.859973E-3,1.8607386E-3,5.601385E-3,9.747566E-4,4.394363E-3,2.1576665E-3,5.867146E-3,1.3164271E-3,5.4354817E-3,-4.2010852E-4,-1.2895248E-3,3.535748E-3,2.699175E-3,-5.181158E-4,3.0181746E-3,-1.3866647E-3,2.5945927E-3,-3.0619537E-3,8.324816E-4,-4.0210835E-3,8.6465916E-5],"categories":[],"categories_nodes":[],"categories_segments":[],"categories_sizes":[],"default_left":[0,0,0,0,0,0,0,0,0,0,0,0,0,0,0,0,0,0,0,0,0,0,0,0,0,0,0,0,0,0,0,0,0,0,0,0,0,0,0,0,0,0,0,0,0,0,0,0,0,0,0,0,0,0,0,0,0,0,0],"id":12,"left_children":[1,3,5,7,9,11,13,15,17,19,21,23,25,27,29,31,-1,33,-1,35,37,39,41,43,45,47,49,51,53,55,57,-1,-1,-1,-1,-1,-1,-1,-1,-1,-1,-1,-1,-1,-1,-1,-1,-1,-1,-1,-1,-1,-1,-1,-1,-1,-1,-1,-1],"loss_changes":[3.587005E1,2.7663345E0,2.5096848E1,1.4926472E0,1.0634112E0,1.3454218E1,1.022681E1,8.75473E-2,5.7884216E-2,6.846285E-2,5.8942914E-2,8.2424736E-1,7.0071316E-1,6.769626E-1,6.2160873E-1,7.5754166E-2,0E0,6.1267376E-2,0E0,3.4134388E-2,4.3955326E-2,3.1545997E-2,2.2653297E-2,4.0008926E-1,3.6893606E-1,6.7678547E-1,4.0085316E-3,3.493008E-1,3.1886387E-1,3.1857395E-1,3.131504E-1,0E0,0E0,0E0,0E0,0E0,0E0,0E0,0E0,0E0,0E0,0E0,0E0,0E0,0E0,0E0,0E0,0E0,0E0,0E0,0E0,0E0,0E0,0E0,0E0,0E0,0E0,0E0,0E0],"parents":[2147483647,0,0,1,1,2,2,3,3,4,4,5,5,6,6,7,7,8,8,9,9,10,10,11,11,12,12,13,13,14,14,15,15,17,17,19,19,20,20,21,21,22,22,23,23,24,24,25,25,26,26,27,27,28,28,29,29,30,30],"right_children":[2,4,6,8,10,12,14,16,18,20,22,24,26,28,30,32,-1,34,-1,36,38,40,42,44,46,48,50,52,54,56,58,-1,-1,-1,-1,-1,-1,-1,-1,-1,-1,-1,-1,-1,-1,-1,-1,-1,-1,-1,-1,-1,-1,-1,-1,-1,-1,-1,-1],"split_conditions":[3.4119618E-1,1E0,1E0,1E0,1E0,1E0,1E0,1E0,1E0,1E0,1E0,1E0,1E0,1E0,1E0,1E0,1.0716257E-2,1E0,7.629317E-3,1E0,1E0,1E0,1E0,1E0,1E0,1E0,1E0,1E0,1E0,1E0,1E0,7.049054E-3,6.2000672E-3,4.5146565E-3,3.6938207E-3,4.341825E-3,7.6128277E-3,3.487387E-3,6.859973E-3,1.8607386E-3,5.601385E-3,9.747566E-4,4.394363E-3,2.1576665E-3,5.867146E-3,1.3164271E-3,5.4354817E-3,-4.2010852E-4,-1.2895248E-3,3.535748E-3,2.699175E-3,-5.181158E-4,3.0181746E-3,-1.3866647E-3,2.5945927E-3,-3.0619537E-3,8.324816E-4,-4.0210835E-3,8.6465916E-5],"split_indices":[3,6,6,5,5,5,5,45,35,7,7,7,35,7,7,7,0,7,0,35,38,37,40,38,34,7,7,38,35,35,34,0,0,0,0,0,0,0,0,0,0,0,0,0,0,0,0,0,0,0,0,0,0,0,0,0,0,0,0],"split_type":[0,0,0,0,0,0,0,0,0,0,0,0,0,0,0,0,0,0,0,0,0,0,0,0,0,0,0,0,0,0,0,0,0,0,0,0,0,0,0,0,0,0,0,0,0,0,0,0,0,0,0,0,0,0,0,0,0,0,0],"sum_hessian":[4.0041E4,4.085E3,3.5956E4,2.331E3,1.754E3,2.0502E4,1.5454E4,1.308E3,1.023E3,1.024E3,7.3E2,1.1432E4,9.07E3,8.748E3,6.706E3,1.293E3,1.5E1,1.011E3,1.2E1,4.88E2,5.36E2,3.62E2,3.68E2,5.721E3,5.711E3,8.959E3,1.11E2,4.371E3,4.377E3,3.255E3,3.451E3,6.51E2,6.42E2,4.7E2,5.41E2,4.79E2,9E0,5.26E2,1E1,3.57E2,5E0,3.64E2,4E0,5.648E3,7.3E1,5.657E3,5.4E1,4.57E3,4.389E3,5.4E1,5.7E1,4.301E3,7E1,4.327E3,5E1,3.202E3,5.3E1,3.404E3,4.7E1],"tree_param":{"num_deleted":"0","num_feature":"48","num_nodes":"59","size_leaf_vector":"1"}},{"base_weights":[-2.290633E-5,2.1765832E-2,-2.8984152E-2,4.3614883E-2,-5.6320718E-3,-7.5493734E-3,-5.7134934E-2,4.1404217E-2,1.15890466E-1,-7.43293E-3,6.386784E-2,-1.0035271E-2,6.274489E-2,-5.884628E-2,1.3005098E-2,5.008798E-2,3.242462E-2,1.2455838E-1,1.0641308E-1,1.7889619E-3,-1.6521182E-2,6.200553E-2,5.6807916E-3,-6.524277E-4,-1.9988688E-2,7.1375616E-2,5.3134765E-2,-4.8646823E-2,-6.890602E-2,1.0263917E-2,4.4709058E-3,2.1365709E-3,2.9290656E-3,1.5849819E-3,5.6861127E-3,5.8365767E-3,7.1054385E-3,5.200954E-3,8.04482E-3,5.2304775E-5,4.3702973E-3,-1.2242112E-3,-4.2693023E-4,3.576011E-3,2.6188602E-3,-8.2674174E-5,3.6976032E-3,-1.0450376E-3,3.8089633E-3,3.4871504E-3,6.1254813E-3,2.3190628E-3,3.2653667E-3,-2.804012E-3,-2.0559814E-3,-3.4697563E-3,9.262925E-4,4.0442776E-4,4.0651658E-3],"categories":[],"categories_nodes":[],"categories_segments":[],"categories_sizes":[],"default_left":[0,0,0,0,0,0,0,0,0,0,0,0,0,0,0,0,0,0,0,0,0,0,0,0,0,0,0,0,0,0,0,0,0,0,0,0,0,0,0,0,0,0,0,0,0,0,0,0,0,0,0,0,0,0,0,0,0,0,0],"id":13,"left_children":[1,3,5,7,9,11,13,15,17,19,21,23,25,27,29,31,33,35,37,39,41,43,-1,45,47,49,51,53,55,57,-1,-1,-1,-1,-1,-1,-1,-1,-1,-1,-1,-1,-1,-1,-1,-1,-1,-1,-1,-1,-1,-1,-1,-1,-1,-1,-1,-1,-1],"loss_changes":[2.5150923E1,1.3615816E1,1.0325048E1,2.0170193E0,1.2635843E0,1.6984457E0,8.886566E-1,9.559288E-1,1.7551422E-2,8.24561E-1,1.6579986E-2,8.764649E-1,2.3744345E-2,7.375488E-1,3.6156975E-2,3.874464E-1,3.5238934E-1,9.510756E-3,7.524252E-3,3.1054062E-1,3.1475842E-1,1.897335E-2,0E0,3.6099175E-1,4.010297E-1,5.814731E-3,1.0206372E-2,1.9850922E-1,1.5664864E-1,2.5922637E-2,0E0,0E0,0E0,0E0,0E0,0E0,0E0,0E0,0E0,0E0,0E0,0E0,0E0,0E0,0E0,0E0,0E0,0E0,0E0,0E0,0E0,0E0,0E0,0E0,0E0,0E0,0E0,0E0,0E0],"parents":[2147483647,0,0,1,1,2,2,3,3,4,4,5,5,6,6,7,7,8,8,9,9,10,10,11,11,12,12,13,13,14,14,15,15,16,16,17,17,18,18,19,19,20,20,21,21,23,23,24,24,25,25,26,26,27,27,28,28,29,29],"right_children":[2,4,6,8,10,12,14,16,18,20,22,24,26,28,30,32,34,36,38,40,42,44,-1,46,48,50,52,54,56,58,-1,-1,-1,-1,-1,-1,-1,-1,-1,-1,-1,-1,-1,-1,-1,-1,-1,-1,-1,-1,-1,-1,-1,-1,-1,-1,-1,-1,-1],"split_conditions":[1E0,1E0,1E0,2.1334667E0,2.1334667E0,2.1334667E0,2.1334667E0,1E0,1E0,1E0,1E0,1E0,1E0,1E0,1E0,9.188075E-3,1E0,1E0,1E0,1E0,9.188075E-3,1E0,5.6807916E-3,1E0,1E0,1E0,1E0,9.188075E-3,1E0,1E0,4.4709058E-3,2.1365709E-3,2.9290656E-3,1.5849819E-3,5.6861127E-3,5.8365767E-3,7.1054385E-3,5.200954E-3,8.04482E-3,5.2304775E-5,4.3702973E-3,-1.2242112E-3,-4.2693023E-4,3.576011E-3,2.6188602E-3,-8.2674174E-5,3.6976032E-3,-1.0450376E-3,3.8089633E-3,3.4871504E-3,6.1254813E-3,2.3190628E-3,3.2653667E-3,-2.804012E-3,-2.0559814E-3,-3.4697563E-3,9.262925E-4,4.0442776E-4,4.0651658E-3],"split_indices":[6,5,5,27,27,27,27,4,4,4,38,4,4,4,38,27,36,31,37,36,27,4,0,38,39,38,31,27,36,36,0,0,0,0,0,0,0,0,0,0,0,0,0,0,0,0,0,0,0,0,0,0,0,0,0,0,0,0,0],"split_type":[0,0,0,0,0,0,0,0,0,0,0,0,0,0,0,0,0,0,0,0,0,0,0,0,0,0,0,0,0,0,0,0,0,0,0,0,0,0,0,0,0,0,0,0,0,0,0,0,0,0,0,0,0,0,0,0,0,0,0],"sum_hessian":[3.9855E4,2.2744E4,1.7111E4,1.2653E4,1.0091E4,9.715E3,7.396E3,1.2279E4,3.74E2,9.837E3,2.54E2,9.384E3,3.31E2,7.22E3,1.76E2,6.24E3,6.039E3,1.89E2,1.85E2,4.883E3,4.954E3,2.47E2,7E0,4.831E3,4.553E3,1.71E2,1.6E2,3.588E3,3.632E3,1.71E2,5E0,3.347E3,2.893E3,5.987E3,5.2E1,1.36E2,5.3E1,1.8E2,5E0,4.842E3,4.1E1,2.479E3,2.475E3,1.21E2,1.26E2,4.768E3,6.3E1,4.511E3,4.2E1,1.68E2,3E0,1.06E2,5.4E1,1.802E3,1.786E3,3.612E3,2E1,1.67E2,4E0],"tree_param":{"num_deleted":"0","num_feature":"48","num_nodes":"59","size_leaf_vector":"1"}},{"base_weights":[1.6967297E-4,8.352579E-2,-9.449327E-3,1.02711335E-1,5.75567E-2,1.092348E-2,-3.552261E-2,1.1005276E-1,8.604551E-2,6.286463E-2,4.07502E-2,1.9393086E-2,2.29419E-3,-2.6455756E-2,-4.435206E-2,1.1994054E-1,1.00650884E-1,9.432926E-2,7.7572964E-2,7.046651E-2,5.5065338E-2,3.9470877E-2,6.18622E-3,2.7297653E-2,1.1246506E-2,1.1050532E-2,-6.9122193E-3,-1.7838597E-2,-3.5242952E-2,-3.5593558E-2,-5.3130213E-2,6.345605E-3,5.601847E-3,5.4168785E-3,4.6010218E-3,5.085725E-3,4.3476433E-3,4.0189736E-3,2.6614459E-3,3.4850843E-3,7.1999975E-3,3.17795E-3,2.320316E-3,1.8935275E-3,5.0728708E-3,1.3165746E-3,4.457055E-3,5.1520753E-4,3.8814798E-3,5.187471E-4,5.178164E-3,-3.8859734E-4,4.1698636E-3,-9.2191185E-4,3.0334645E-3,-1.8033199E-3,3.0522684E-3,-1.8133393E-3,3.2369562E-3,-2.6922778E-3,1.230755E-3],"categories":[],"categories_nodes":[],"categories_segments":[],"categories_sizes":[],"default_left":[0,0,0,0,0,0,0,0,0,0,0,0,0,0,0,0,0,0,0,0,0,0,0,0,0,0,0,0,0,0,0,0,0,0,0,0,0,0,0,0,0,0,0,0,0,0,0,0,0,0,0,0,0,0,0,0,0,0,0,0,0],"id":14,"left_children":[1,3,5,7,9,11,13,15,17,19,21,23,25,27,29,31,33,35,37,39,41,43,-1,45,47,49,51,53,55,57,59,-1,-1,-1,-1,-1,-1,-1,-1,-1,-1,-1,-1,-1,-1,-1,-1,-1,-1,-1,-1,-1,-1,-1,-1,-1,-1,-1,-1,-1,-1],"loss_changes":[3.2116188E1,2.0587578E0,1.9075806E1,2.8197098E-1,1.5471125E-1,1.473383E0,1.2598591E0,1.4131737E-1,4.4127464E-2,7.544899E-2,4.0336788E-2,6.5484977E-1,8.05173E-1,5.8802366E-1,6.115618E-1,2.9806137E-2,4.6551704E-2,1.1094093E-2,2.086401E-2,2.7868748E-2,4.5959234E-2,3.7920475E-2,0E0,3.0614614E-1,3.127331E-1,3.1886643E-1,3.7868476E-1,1.8598795E-1,3.0730343E-1,2.723322E-1,2.228365E-1,0E0,0E0,0E0,0E0,0E0,0E0,0E0,0E0,0E0,0E0,0E0,0E0,0E0,0E0,0E0,0E0,0E0,0E0,0E0,0E0,0E0,0E0,0E0,0E0,0E0,0E0,0E0,0E0,0E0,0E0],"parents":[2147483647,0,0,1,1,2,2,3,3,4,4,5,5,6,6,7,7,8,8,9,9,10,10,11,11,12,12,13,13,14,14,15,15,16,16,17,17,18,18,19,19,20,20,21,21,23,23,24,24,25,25,26,26,27,27,28,28,29,29,30,30],"right_children":[2,4,6,8,10,12,14,16,18,20,22,24,26,28,30,32,34,36,38,40,42,44,-1,46,48,50,52,54,56,58,60,-1,-1,-1,-1,-1,-1,-1,-1,-1,-1,-1,-1,-1,-1,-1,-1,-1,-1,-1,-1,-1,-1,-1,-1,-1,-1,-1,-1,-1,-1],"split_conditions":[3.4119618E-1,1E0,1E0,1.6351022E0,1.6351022E0,1E0,1E0,1E0,1E0,1E0,1E0,1E0,1E0,1E0,1E0,1E0,1E0,1E0,1E0,1E0,1E0,1E0,6.18622E-3,1E0,1E0,1E0,1E0,1E0,1E0,1E0,1E0,6.345605E-3,5.601847E-3,5.4168785E-3,4.6010218E-3,5.085725E-3,4.3476433E-3,4.0189736E-3,2.6614459E-3,3.4850843E-3,7.1999975E-3,3.17795E-3,2.320316E-3,1.8935275E-3,5.0728708E-3,1.3165746E-3,4.457055E-3,5.1520753E-4,3.8814798E-3,5.187471E-4,5.178164E-3,-3.8859734E-4,4.1698636E-3,-9.2191185E-4,3.0334645E-3,-1.8033199E-3,3.0522684E-3,-1.8133393E-3,3.2369562E-3,-2.6922778E-3,1.230755E-3],"split_indices":[3,5,5,27,27,7,4,7,7,4,45,4,4,7,7,4,4,4,20,38,7,38,0,38,38,39,39,45,45,38,38,0,0,0,0,0,0,0,0,0,0,0,0,0,0,0,0,0,0,0,0,0,0,0,0,0,0,0,0,0,0],"split_type":[0,0,0,0,0,0,0,0,0,0,0,0,0,0,0,0,0,0,0,0,0,0,0,0,0,0,0,0,0,0,0,0,0,0,0,0,0,0,0,0,0,0,0,0,0,0,0,0,0,0,0,0,0,0,0,0,0,0,0,0,0],"sum_hessian":[4.0053E4,4.143E3,3.591E4,2.381E3,1.762E3,2.0159E4,1.5751E4,1.649E3,7.32E2,1.337E3,4.25E2,1.0173E4,9.986E3,7.773E3,7.978E3,7.98E2,8.51E2,3.65E2,3.67E2,6.73E2,6.64E2,4.2E2,5E0,5.162E3,5.011E3,5.118E3,4.868E3,3.926E3,3.847E3,3.996E3,3.982E3,4.16E2,3.82E2,4.44E2,4.07E2,1.76E2,1.89E2,3.27E2,4E1,6.68E2,5E0,3.32E2,3.32E2,4.11E2,9E0,5.084E3,7.8E1,4.942E3,6.9E1,5.082E3,3.6E1,4.823E3,4.5E1,3.897E3,2.9E1,3.815E3,3.2E1,3.97E3,2.6E1,3.946E3,3.6E1],"tree_param":{"num_deleted":"0","num_feature":"48","num_nodes":"61","size_leaf_vector":"1"}},{"base_weights":[-3.24853E-5,7.923022E-2,-9.129688E-3,1.0013591E-1,5.2388627E-2,1.1517554E-2,-3.6288533E-2,1.19089685E-1,7.561431E-2,7.015441E-2,2.7166225E-2,3.1373836E-2,-1.3360551E-2,-1.6943263E-2,-6.15266E-2,1.2684089E-1,1.1054406E-1,8.393338E-2,6.830317E-2,6.9125354E-2,7.101436E-3,3.5006784E-2,1.9147255E-2,3.0465875E-2,5.1903026E-3,-1.4212698E-2,6.0823176E-2,-8.979627E-3,-2.5029184E-2,-6.267702E-2,1.6126556E-2,6.2803254E-3,9.507894E-3,5.492929E-3,8.164852E-3,4.142501E-3,6.80031E-3,3.3559692E-3,6.5607466E-3,3.4015835E-3,6.763971E-3,1.6877827E-3,5.33713E-3,9.149282E-4,4.6326066E-3,1.4854235E-3,5.935689E-3,-3.3086978E-4,-1.1024808E-3,3.4617668E-3,2.5620672E-3,-4.884839E-4,3.7858535E-3,-1.2937394E-3,2.49042E-3,-3.1907938E-3,6.935463E-4,1.255079E-3,3.414501E-4],"categories":[],"categories_nodes":[],"categories_segments":[],"categories_sizes":[],"default_left":[0,0,0,0,0,0,0,0,0,0,0,0,0,0,0,0,0,0,0,0,0,0,0,0,0,0,0,0,0,0,0,0,0,0,0,0,0,0,0,0,0,0,0,0,0,0,0,0,0,0,0,0,0,0,0,0,0,0,0],"id":15,"left_children":[1,3,5,7,9,11,13,15,17,19,21,23,25,27,29,31,33,35,37,39,-1,41,43,45,-1,47,49,51,53,55,57,-1,-1,-1,-1,-1,-1,-1,-1,-1,-1,-1,-1,-1,-1,-1,-1,-1,-1,-1,-1,-1,-1,-1,-1,-1,-1,-1,-1],"loss_changes":[2.8855017E1,2.3066578E0,2.0129848E1,1.0669537E0,8.073554E-1,1.0074783E1,7.5685883E0,7.235527E-2,5.5818558E-2,6.85091E-2,4.6358824E-2,7.4275017E-1,5.731536E-1,5.650201E-1,6.019573E-1,2.9026985E-2,4.769802E-3,1.51901245E-2,3.170705E-2,6.647682E-2,0E0,3.0233026E-2,2.1511018E-2,7.452755E-1,0E0,5.326513E-1,4.7544837E-3,2.9677054E-1,2.7688575E-1,5.7878494E-1,8.089714E-3,0E0,0E0,0E0,0E0,0E0,0E0,0E0,0E0,0E0,0E0,0E0,0E0,0E0,0E0,0E0,0E0,0E0,0E0,0E0,0E0,0E0,0E0,0E0,0E0,0E0,0E0,0E0,0E0],"parents":[2147483647,0,0,1,1,2,2,3,3,4,4,5,5,6,6,7,7,8,8,9,9,10,10,11,11,12,12,13,13,14,14,15,15,16,16,17,17,18,18,19,19,21,21,22,22,23,23,25,25,26,26,27,27,28,28,29,29,30,30],"right_children":[2,4,6,8,10,12,14,16,18,20,22,24,26,28,30,32,34,36,38,40,-1,42,44,46,-1,48,50,52,54,56,58,-1,-1,-1,-1,-1,-1,-1,-1,-1,-1,-1,-1,-1,-1,-1,-1,-1,-1,-1,-1,-1,-1,-1,-1,-1,-1,-1,-1],"split_conditions":[3.4119618E-1,1E0,1E0,1E0,1E0,1E0,1E0,1E0,1E0,1E0,1E0,1E0,1E0,1E0,1E0,1E0,1E0,1E0,1E0,1E0,7.101436E-3,1E0,1E0,1E0,5.1903026E-3,1E0,1E0,1E0,1E0,1E0,1E0,6.2803254E-3,9.507894E-3,5.492929E-3,8.164852E-3,4.142501E-3,6.80031E-3,3.3559692E-3,6.5607466E-3,3.4015835E-3,6.763971E-3,1.6877827E-3,5.33713E-3,9.149282E-4,4.6326066E-3,1.4854235E-3,5.935689E-3,-3.3086978E-4,-1.1024808E-3,3.4617668E-3,2.5620672E-3,-4.884839E-4,3.7858535E-3,-1.2937394E-3,2.49042E-3,-3.1907938E-3,6.935463E-4,1.255079E-3,3.414501E-4],"split_indices":[3,6,6,5,5,5,5,7,7,35,7,38,35,7,34,45,45,34,35,38,0,37,44,35,0,7,7,35,35,35,7,0,0,0,0,0,0,0,0,0,0,0,0,0,0,0,0,0,0,0,0,0,0,0,0,0,0,0,0],"split_type":[0,0,0,0,0,0,0,0,0,0,0,0,0,0,0,0,0,0,0,0,0,0,0,0,0,0,0,0,0,0,0,0,0,0,0,0,0,0,0,0,0,0,0,0,0,0,0,0,0,0,0,0,0,0,0,0,0,0,0],"sum_hessian":[4.0015E4,4.119E3,3.5896E4,2.314E3,1.805E3,2.0393E4,1.5503E4,1.303E3,1.011E3,1.058E3,7.47E2,1.1341E4,9.052E3,8.777E3,6.726E3,6.76E2,6.27E2,4.68E2,5.43E2,1.045E3,1.3E1,3.76E2,3.71E2,1.1202E4,1.39E2,8.95E3,1.02E2,4.423E3,4.354E3,6.628E3,9.8E1,6.66E2,1E1,6.22E2,5E0,4.61E2,7E0,5.35E2,8E0,1.03E3,1.5E1,3.71E2,5E0,3.68E2,3E0,1.1108E4,9.4E1,4.546E3,4.404E3,5.1E1,5.1E1,4.383E3,4E1,4.306E3,4.8E1,6.531E3,9.7E1,4.9E1,4.9E1],"tree_param":{"num_deleted":"0","num_feature":"48","num_nodes":"59","size_leaf_vector":"1"}},{"base_weights":[-8.944389E-5,7.503621E-2,-8.636108E-3,9.4788805E-2,4.948866E-2,1.1036924E-2,-3.46997E-2,1.0412659E-1,8.5736156E-2,5.770978E-2,4.001093E-2,1.92862E-2,2.6425044E-3,-2.5941422E-2,-4.3601077E-2,1.0020087E-1,1.2643124E-1,9.035454E-2,7.354863E-2,6.203727E-2,4.6885792E-2,3.8967725E-2,6.088057E-3,1.8574724E-2,5.2852225E-3,1.763354E-3,4.54282E-3,-2.6600149E-2,7.24924E-2,-4.4345148E-2,5.292118E-2,4.96767E-3,8.555705E-3,6.1653047E-3,8.617461E-3,4.4712643E-3,8.831593E-3,3.5846967E-3,6.9387243E-3,3.0584265E-3,6.351979E-3,2.2462658E-3,5.790316E-3,1.9013447E-3,6.497182E-3,8.980771E-4,5.7095266E-3,5.4633718E-5,4.931822E-3,-1.3714909E-3,2.1293776E-3,3.6609103E-3,8.869067E-4,-2.263523E-3,1.3823506E-3,2.7399322E-3,1.0842425E-3],"categories":[],"categories_nodes":[],"categories_segments":[],"categories_sizes":[],"default_left":[0,0,0,0,0,0,0,0,0,0,0,0,0,0,0,0,0,0,0,0,0,0,0,0,0,0,0,0,0,0,0,0,0,0,0,0,0,0,0,0,0,0,0,0,0,0,0,0,0,0,0,0,0,0,0,0,0],"id":16,"left_children":[1,3,5,7,9,11,13,15,17,19,21,23,25,27,29,31,33,35,37,39,41,43,-1,45,-1,47,-1,49,51,53,55,-1,-1,-1,-1,-1,-1,-1,-1,-1,-1,-1,-1,-1,-1,-1,-1,-1,-1,-1,-1,-1,-1,-1,-1,-1,-1],"loss_changes":[2.5659199E1,2.05521E0,1.8398363E1,1.855812E-1,1.3653994E-1,1.4159298E0,1.2021141E0,8.610058E-2,5.943489E-2,4.1683912E-2,6.612468E-2,6.3212824E-1,7.8591996E-1,5.0652075E-1,5.5197906E-1,4.0932655E-2,2.4256706E-3,5.2111626E-2,2.97302E-2,3.0459404E-2,3.208971E-2,6.541586E-2,0E0,5.977323E-1,0E0,6.520043E-1,0E0,4.4494963E-1,7.6776743E-4,5.071926E-1,2.2717714E-3,0E0,0E0,0E0,0E0,0E0,0E0,0E0,0E0,0E0,0E0,0E0,0E0,0E0,0E0,0E0,0E0,0E0,0E0,0E0,0E0,0E0,0E0,0E0,0E0,0E0,0E0],"parents":[2147483647,0,0,1,1,2,2,3,3,4,4,5,5,6,6,7,7,8,8,9,9,10,10,11,11,12,12,13,13,14,14,15,15,16,16,17,17,18,18,19,19,20,20,21,21,23,23,25,25,27,27,28,28,29,29,30,30],"right_children":[2,4,6,8,10,12,14,16,18,20,22,24,26,28,30,32,34,36,38,40,42,44,-1,46,-1,48,-1,50,52,54,56,-1,-1,-1,-1,-1,-1,-1,-1,-1,-1,-1,-1,-1,-1,-1,-1,-1,-1,-1,-1,-1,-1,-1,-1,-1,-1],"split_conditions":[3.4119618E-1,1E0,1E0,1E0,1E0,1E0,1E0,1E0,1.6351022E0,1.6351022E0,1E0,1E0,1E0,1E0,1E0,1E0,1E0,1E0,1E0,1E0,1E0,1E0,6.088057E-3,1E0,5.2852225E-3,1E0,4.54282E-3,1E0,5.0569158E0,1E0,2.3883731E0,4.96767E-3,8.555705E-3,6.1653047E-3,8.617461E-3,4.4712643E-3,8.831593E-3,3.5846967E-3,6.9387243E-3,3.0584265E-3,6.351979E-3,2.2462658E-3,5.790316E-3,1.9013447E-3,6.497182E-3,8.980771E-4,5.7095266E-3,5.4633718E-5,4.931822E-3,-1.3714909E-3,2.1293776E-3,3.6609103E-3,8.869067E-4,-2.263523E-3,1.3823506E-3,2.7399322E-3,1.0842425E-3],"split_indices":[3,6,6,4,4,4,4,29,27,27,35,34,34,36,39,34,45,44,34,35,34,39,0,39,0,36,0,35,2,35,3,0,0,0,0,0,0,0,0,0,0,0,0,0,0,0,0,0,0,0,0,0,0,0,0,0,0],"split_type":[0,0,0,0,0,0,0,0,0,0,0,0,0,0,0,0,0,0,0,0,0,0,0,0,0,0,0,0,0,0,0,0,0,0,0,0,0,0,0,0,0,0,0,0,0,0,0,0,0,0,0,0,0,0,0,0,0],"sum_hessian":[3.9961E4,4.081E3,3.588E4,2.3E3,1.781E3,2.0447E4,1.5433E4,1.127E3,1.173E3,9.51E2,8.3E2,1.0312E4,1.0135E4,7.781E3,7.652E3,9.63E2,1.64E2,8.46E2,3.27E2,6.76E2,2.75E2,8.21E2,9E0,1.0229E4,8.3E1,1.0036E4,9.9E1,7.73E3,5.1E1,7.594E3,5.8E1,9.54E2,9E0,1.57E2,7E0,8.39E2,7E0,3.2E2,7E0,6.69E2,7E0,2.69E2,6E0,8.14E2,7E0,1.0165E4,6.4E1,9.968E3,6.8E1,7.639E3,9.1E1,5E1,1E0,7.498E3,9.6E1,5.4E1,4E0],"tree_param":{"num_deleted":"0","num_feature":"48","num_nodes":"57","size_leaf_vector":"1"}},{"base_weights":[3.751291E-5,7.158919E-2,-8.091405E-3,9.057339E-2,4.6596512E-2,1.0662125E-2,-3.3008482E-2,9.933994E-2,8.1976555E-2,5.4590467E-2,3.7992142E-2,1.8645234E-2,2.6174944E-3,-2.4516465E-2,-4.1413687E-2,1.0893012E-1,9.0055875E-2,8.0884494E-2,7.371782E-3,6.2567964E-2,4.682198E-2,3.689812E-2,5.8991173E-3,1.7875446E-2,4.8269285E-3,1.7942976E-3,4.111831E-3,-1.6430896E-2,-3.2842558E-2,-3.299166E-2,-4.9816262E-2,5.3877155E-3,9.279294E-3,4.301048E-3,5.5910326E-3,4.003452E-3,8.308281E-3,3.0816896E-3,6.622424E-3,2.5768513E-3,1.7350024E-3,1.8095815E-3,6.4475173E-3,1.270735E-3,5.1139336E-4,5.1062932E-5,4.3717828E-3,-8.6802867E-4,2.8294993E-3,-1.6739074E-3,2.9911783E-3,-1.684131E-3,3.1350085E-3,-2.535525E-3,1.3571023E-3],"categories":[],"categories_nodes":[],"categories_segments":[],"categories_sizes":[],"default_left":[0,0,0,0,0,0,0,0,0,0,0,0,0,0,0,0,0,0,0,0,0,0,0,0,0,0,0,0,0,0,0,0,0,0,0,0,0,0,0,0,0,0,0,0,0,0,0,0,0,0,0,0,0,0,0],"id":17,"left_children":[1,3,5,7,9,11,13,15,17,19,21,23,25,27,29,31,33,35,-1,37,39,41,-1,43,-1,45,-1,47,49,51,53,-1,-1,-1,-1,-1,-1,-1,-1,-1,-1,-1,-1,-1,-1,-1,-1,-1,-1,-1,-1,-1,-1,-1,-1],"loss_changes":[2.31643E1,1.9235344E0,1.67118E1,1.6579819E-1,1.1870885E-1,1.3104486E0,1.0951958E0,9.1513634E-2,7.178402E-2,5.3342104E-2,6.994355E-2,6.123998E-1,6.6608906E-1,5.139289E-1,5.444622E-1,3.0025959E-2,4.1666985E-2,6.6948414E-2,0E0,2.088654E-2,2.4731755E-2,4.989636E-2,0E0,5.845556E-1,0E0,6.660564E-1,0E0,2.6431143E-1,2.2369432E-1,2.5713396E-1,2.6708603E-1,0E0,0E0,0E0,0E0,0E0,0E0,0E0,0E0,0E0,0E0,0E0,0E0,0E0,0E0,0E0,0E0,0E0,0E0,0E0,0E0,0E0,0E0,0E0,0E0],"parents":[2147483647,0,0,1,1,2,2,3,3,4,4,5,5,6,6,7,7,8,8,9,9,10,10,11,11,12,12,13,13,14,14,15,15,16,16,17,17,19,19,20,20,21,21,23,23,25,25,27,27,28,28,29,29,30,30],"right_children":[2,4,6,8,10,12,14,16,18,20,22,24,26,28,30,32,34,36,-1,38,40,42,-1,44,-1,46,-1,48,50,52,54,-1,-1,-1,-1,-1,-1,-1,-1,-1,-1,-1,-1,-1,-1,-1,-1,-1,-1,-1,-1,-1,-1,-1,-1],"split_conditions":[3.4119618E-1,1E0,1E0,1E0,1E0,1E0,1E0,1E0,1E0,1E0,1E0,1E0,1E0,1E0,1E0,1E0,1E0,1E0,7.371782E-3,1E0,1.6351022E0,1E0,5.8991173E-3,1E0,4.8269285E-3,1E0,4.111831E-3,1E0,1E0,1E0,1E0,5.3877155E-3,9.279294E-3,4.301048E-3,5.5910326E-3,4.003452E-3,8.308281E-3,3.0816896E-3,6.622424E-3,2.5768513E-3,1.7350024E-3,1.8095815E-3,6.4475173E-3,1.270735E-3,5.1139336E-4,5.1062932E-5,4.3717828E-3,-8.6802867E-4,2.8294993E-3,-1.6739074E-3,2.9911783E-3,-1.684131E-3,3.1350085E-3,-2.535525E-3,1.3571023E-3],"split_indices":[3,6,6,4,4,4,7,7,34,7,35,38,38,4,4,38,29,46,0,41,27,46,0,7,0,34,0,38,39,45,38,0,0,0,0,0,0,0,0,0,0,0,0,0,0,0,0,0,0,0,0,0,0,0,0],"split_type":[0,0,0,0,0,0,0,0,0,0,0,0,0,0,0,0,0,0,0,0,0,0,0,0,0,0,0,0,0,0,0,0,0,0,0,0,0,0,0,0,0,0,0,0,0,0,0,0,0,0,0,0,0,0,0],"sum_hessian":[3.9824E4,4.062E3,3.5762E4,2.307E3,1.755E3,2.0405E4,1.5357E4,1.137E3,1.17E3,9.07E2,8.48E2,1.0241E4,1.0164E4,7.641E3,7.716E3,5.54E2,5.83E2,1.153E3,1.7E1,4.44E2,4.63E2,8.38E2,1E1,1.0142E4,9.9E1,1.0061E4,1.03E2,3.878E3,3.763E3,3.856E3,3.86E3,5.48E2,6E0,4.96E2,8.7E1,1.144E3,9E0,4.4E2,4E0,3.31E2,1.32E2,8.33E2,5E0,5.106E3,5.036E3,9.972E3,8.9E1,3.83E3,4.8E1,3.738E3,2.5E1,3.829E3,2.7E1,3.816E3,4.4E1],"tree_param":{"num_deleted":"0","num_feature":"48","num_nodes":"55","size_leaf_vector":"1"}},{"base_weights":[-5.334978E-5,1.8312287E-2,-2.3602866E-2,1.65544E-2,7.163219E-2,-2.4959762E-2,3.0175911E-2,1.6002612E-2,1.1296605E-1,7.053826E-2,7.106919E-3,-1.706495E-2,-3.278473E-2,2.8160436E-2,4.656254E-3,1.53119415E-2,9.247422E-2,4.716567E-3,1.1790978E-1,6.953575E-2,7.490819E-3,-1.770301E-2,6.9030195E-2,-3.373616E-2,3.9047778E-2,2.717084E-2,5.2530295E-3,7.25605E-4,4.081949E-3,5.27651E-3,3.9439905E-3,6.0542007E-3,3.95689E-3,3.4311635E-3,7.52298E-3,-9.253343E-4,2.1786918E-3,3.4803692E-3,8.3112123E-4,-1.7241308E-3,2.766819E-3,1.6180534E-3,3.0645283E-3,1.7824908E-3,9.114219E-4],"categories":[],"categories_nodes":[],"categories_segments":[],"categories_sizes":[],"default_left":[0,0,0,0,0,0,0,0,0,0,0,0,0,0,0,0,0,0,0,0,0,0,0,0,0,0,0,0,0,0,0,0,0,0,0,0,0,0,0,0,0,0,0,0,0],"id":18,"left_children":[1,3,5,7,9,11,13,15,17,19,-1,21,23,25,-1,27,29,-1,31,33,-1,35,37,39,41,43,-1,-1,-1,-1,-1,-1,-1,-1,-1,-1,-1,-1,-1,-1,-1,-1,-1,-1,-1],"loss_changes":[1.7348946E1,2.111215E0,1.2833118E0,1.1589375E0,4.5429707E-2,1.0585394E0,5.2313358E-2,1.1444955E0,3.0088425E-4,4.6010733E-2,0E0,4.7013807E-1,5.896864E-1,2.9183507E-2,0E0,1.1395736E0,2.6108623E-2,0E0,1.9863844E-3,4.1585684E-2,0E0,4.1812348E-1,7.4866414E-4,5.6686497E-1,1.4823198E-2,3.09681E-2,0E0,0E0,0E0,0E0,0E0,0E0,0E0,0E0,0E0,0E0,0E0,0E0,0E0,0E0,0E0,0E0,0E0,0E0,0E0],"parents":[2147483647,0,0,1,1,2,2,3,3,4,4,5,5,6,6,7,7,8,8,9,9,11,11,12,12,13,13,15,15,16,16,18,18,19,19,21,21,22,22,23,23,24,24,25,25],"right_children":[2,4,6,8,10,12,14,16,18,20,-1,22,24,26,-1,28,30,-1,32,34,-1,36,38,40,42,44,-1,-1,-1,-1,-1,-1,-1,-1,-1,-1,-1,-1,-1,-1,-1,-1,-1,-1,-1],"split_conditions":[1E0,2.1334667E0,2.1334667E0,1E0,1E0,1E0,1E0,1E0,-4.0546674E-1,1E0,7.106919E-3,1E0,1E0,1E0,4.656254E-3,1E0,1E0,4.716567E-3,8.6069053E-1,1E0,7.490819E-3,1E0,2.876857E-1,1E0,1.2531525E0,1E0,5.2530295E-3,7.25605E-4,4.081949E-3,5.27651E-3,3.9439905E-3,6.0542007E-3,3.95689E-3,3.4311635E-3,7.52298E-3,-9.253343E-4,2.1786918E-3,3.4803692E-3,8.3112123E-4,-1.7241308E-3,2.766819E-3,1.6180534E-3,3.0645283E-3,1.7824908E-3,9.114219E-4],"split_indices":[5,27,27,45,36,7,38,35,27,37,0,45,35,45,0,38,7,0,27,40,0,35,26,45,27,4,0,0,0,0,0,0,0,0,0,0,0,0,0,0,0,0,0,0,0],"split_type":[0,0,0,0,0,0,0,0,0,0,0,0,0,0,0,0,0,0,0,0,0,0,0,0,0,0,0,0,0,0,0,0,0,0,0,0,0,0,0,0,0,0,0,0,0],"sum_hessian":[4.0111E4,2.2536E4,1.7575E4,2.1818E4,7.18E2,1.7143E4,4.32E2,2.1695E4,1.23E2,7.09E2,9E0,8.535E3,8.608E3,4.2E2,1.2E1,2.1502E4,1.93E2,3E1,9.3E1,7.02E2,7E0,8.473E3,6.2E1,8.496E3,1.12E2,4.16E2,4E0,2.1247E4,2.55E2,9.5E1,9.8E1,8.4E1,9E0,6.96E2,6E0,8.364E3,1.09E2,6.1E1,1E0,8.426E3,7E1,8.8E1,2.4E1,2.12E2,2.04E2],"tree_param":{"num_deleted":"0","num_feature":"48","num_nodes":"45","size_leaf_vector":"1"}},{"base_weights":[4.4320375E-5,1.7894596E-2,-2.3621347E-2,3.5554674E-2,-4.4841133E-3,-6.159772E-3,-4.6694234E-2,3.3968218E-2,8.717766E-2,-5.750699E-3,4.5594744E-2,-7.897521E-3,4.34818E-2,-4.7643326E-2,2.3085006E-2,4.1514445E-2,2.6384652E-2,8.528644E-2,7.421755E-3,2.019174E-3,-1.3426439E-2,4.396612E-2,5.1977453E-3,-4.3256563E-4,-1.578468E-2,4.089968E-2,5.4357476E-3,-3.9530247E-2,-5.5391565E-2,1.3886483E-2,3.2005798E-2,2.0396647E-3,5.989555E-3,1.6753335E-3,9.4517815E-4,4.688307E-3,3.846834E-3,6.767033E-5,4.44911E-3,-7.046027E-4,3.7497748E-3,2.5804841E-3,1.8107279E-3,-5.523326E-5,4.1312957E-3,-8.335394E-4,3.2556772E-3,2.4338278E-3,1.5823925E-3,-1.5761023E-3,-2.3812253E-3,-2.8116396E-3,1.0865738E-3,9.232688E-4,2.932966E-4,2.2017586E-3,1.0490733E-3],"categories":[],"categories_nodes":[],"categories_segments":[],"categories_sizes":[],"default_left":[0,0,0,0,0,0,0,0,0,0,0,0,0,0,0,0,0,0,0,0,0,0,0,0,0,0,0,0,0,0,0,0,0,0,0,0,0,0,0,0,0,0,0,0,0,0,0,0,0,0,0,0,0,0,0,0,0],"id":19,"left_children":[1,3,5,7,9,11,13,15,17,19,21,23,25,27,29,31,33,35,-1,37,39,41,-1,43,45,47,-1,49,51,53,55,-1,-1,-1,-1,-1,-1,-1,-1,-1,-1,-1,-1,-1,-1,-1,-1,-1,-1,-1,-1,-1,-1,-1,-1,-1,-1],"loss_changes":[1.688234E1,9.003433E0,6.922554E0,1.0398407E0,6.376618E-1,8.4418344E-1,4.9131203E-1,7.059479E-1,3.1248331E-2,5.846137E-1,1.9001067E-2,5.565015E-1,5.130726E-2,4.56892E-1,7.761363E-3,3.44594E-1,3.2784033E-1,1.8983126E-2,0E0,2.8195447E-1,2.912706E-1,1.2528658E-2,0E0,2.7122635E-1,3.305472E-1,2.14836E-2,0E0,2.2997284E-1,2.4341106E-1,1.764671E-3,5.7068653E-3,0E0,0E0,0E0,0E0,0E0,0E0,0E0,0E0,0E0,0E0,0E0,0E0,0E0,0E0,0E0,0E0,0E0,0E0,0E0,0E0,0E0,0E0,0E0,0E0,0E0,0E0],"parents":[2147483647,0,0,1,1,2,2,3,3,4,4,5,5,6,6,7,7,8,8,9,9,10,10,11,11,12,12,13,13,14,14,15,15,16,16,17,17,19,19,20,20,21,21,23,23,24,24,25,25,27,27,28,28,29,29,30,30],"right_children":[2,4,6,8,10,12,14,16,18,20,22,24,26,28,30,32,34,36,-1,38,40,42,-1,44,46,48,-1,50,52,54,56,-1,-1,-1,-1,-1,-1,-1,-1,-1,-1,-1,-1,-1,-1,-1,-1,-1,-1,-1,-1,-1,-1,-1,-1,-1,-1],"split_conditions":[1E0,1E0,1E0,2.1334667E0,2.1334667E0,2.1334667E0,1E0,1E0,1E0,1E0,1E0,1E0,1E0,1E0,1E0,1E0,1E0,1E0,7.421755E-3,1E0,1E0,1E0,5.1977453E-3,1E0,1E0,1E0,5.4357476E-3,1E0,1E0,1E0,1E0,2.0396647E-3,5.989555E-3,1.6753335E-3,9.4517815E-4,4.688307E-3,3.846834E-3,6.767033E-5,4.44911E-3,-7.046027E-4,3.7497748E-3,2.5804841E-3,1.8107279E-3,-5.523326E-5,4.1312957E-3,-8.335394E-4,3.2556772E-3,2.4338278E-3,1.5823925E-3,-1.5761023E-3,-2.3812253E-3,-2.8116396E-3,1.0865738E-3,9.232688E-4,2.932966E-4,2.2017586E-3,1.0490733E-3],"split_indices":[6,5,5,27,27,27,34,7,34,4,45,4,34,7,31,35,4,4,0,36,45,4,0,36,39,4,0,4,38,4,4,0,0,0,0,0,0,0,0,0,0,0,0,0,0,0,0,0,0,0,0,0,0,0,0,0,0],"split_type":[0,0,0,0,0,0,0,0,0,0,0,0,0,0,0,0,0,0,0,0,0,0,0,0,0,0,0,0,0,0,0,0,0,0,0,0,0,0,0,0,0,0,0,0,0,0,0,0,0,0,0,0,0,0,0,0,0],"sum_hessian":[3.9962E4,2.278E4,1.7182E4,1.2732E4,1.0048E4,9.781E3,7.401E3,1.2354E4,3.78E2,9.801E3,2.47E2,9.451E3,3.3E2,7.302E3,9.9E1,6.19E3,6.164E3,3.69E2,9E0,4.871E3,4.93E3,2.42E2,5E0,4.856E3,4.595E3,3.19E2,1.1E1,3.57E3,3.732E3,5E1,4.9E1,6.135E3,5.5E1,3.156E3,3.008E3,1.78E2,1.91E2,4.835E3,3.6E1,4.894E3,3.6E1,1.19E2,1.23E2,4.818E3,3.8E1,4.546E3,4.9E1,1.71E2,1.48E2,1.797E3,1.773E3,3.692E3,4E1,3.1E1,1.9E1,2.2E1,2.7E1],"tree_param":{"num_deleted":"0","num_feature":"48","num_nodes":"57","size_leaf_vector":"1"}},{"base_weights":[-1.3637783E-4,6.685695E-2,-7.6623936E-3,7.303857E-2,5.0533175E-2,-1.5878976E-4,-1.5228956E-2,7.013049E-2,9.23152E-2,4.8632115E-2,6.3997726E-3,-7.316026E-4,9.577547E-2,-1.5875058E-2,7.664458E-2,6.959965E-2,7.7494546E-3,9.049682E-2,7.860882E-3,5.6368362E-2,4.0618025E-2,-1.4068997E-3,7.423516E-2,1.9172927E-3,4.8252083E-3,-1.6584625E-2,5.985243E-2,7.841554E-2,1.4225568E-3,3.8071151E-3,3.1519122E-3,4.4518434E-3,7.6951734E-3,2.611431E-3,3.4353677E-3,1.9840905E-3,5.8429646E-3,-9.829929E-5,4.296345E-3,3.7842696E-3,7.070512E-4,-8.687742E-4,2.5954545E-3,2.736588E-3,4.1998825E-3,3.9380686E-3,9.31567E-4],"categories":[],"categories_nodes":[],"categories_segments":[],"categories_sizes":[],"default_left":[0,0,0,0,0,0,0,0,0,0,0,0,0,0,0,0,0,0,0,0,0,0,0,0,0,0,0,0,0,0,0,0,0,0,0,0,0,0,0,0,0,0,0,0,0,0,0],"id":20,"left_children":[1,3,5,7,9,11,13,15,17,19,-1,21,23,25,27,29,-1,31,-1,33,35,37,39,-1,-1,41,43,45,-1,-1,-1,-1,-1,-1,-1,-1,-1,-1,-1,-1,-1,-1,-1,-1,-1,-1,-1],"loss_changes":[2.0133944E1,4.032688E-1,2.0382736E0,1.5738392E-1,1.5738153E-1,9.906416E-1,1.0622711E0,1.038084E-1,3.0618906E-2,6.504154E-2,0E0,9.073014E-1,7.773638E-4,9.5482063E-1,8.4376335E-3,1.0381031E-1,0E0,2.0733118E-2,0E0,2.4505734E-2,3.3692896E-2,8.6738765E-1,1.2873888E-2,0E0,0E0,9.5356846E-1,1.5803218E-2,1.013577E-3,0E0,0E0,0E0,0E0,0E0,0E0,0E0,0E0,0E0,0E0,0E0,0E0,0E0,0E0,0E0,0E0,0E0,0E0,0E0],"parents":[2147483647,0,0,1,1,2,2,3,3,4,4,5,5,6,6,7,7,8,8,9,9,11,11,12,12,13,13,14,14,15,15,17,17,19,19,20,20,21,21,22,22,25,25,26,26,27,27],"right_children":[2,4,6,8,10,12,14,16,18,20,-1,22,24,26,28,30,-1,32,-1,34,36,38,40,-1,-1,42,44,46,-1,-1,-1,-1,-1,-1,-1,-1,-1,-1,-1,-1,-1,-1,-1,-1,-1,-1,-1],"split_conditions":[3.4119618E-1,1.6351022E0,1E0,1E0,1E0,1E0,1E0,1E0,1E0,1E0,6.3997726E-3,1E0,-1.8024447E0,1E0,6E0,1E0,7.7494546E-3,1E0,7.860882E-3,1E0,1E0,1E0,2.66E2,1.9172927E-3,4.8252083E-3,1E0,1E0,1.14E2,1.4225568E-3,3.8071151E-3,3.1519122E-3,4.4518434E-3,7.6951734E-3,2.611431E-3,3.4353677E-3,1.9840905E-3,5.8429646E-3,-9.829929E-5,4.296345E-3,3.7842696E-3,7.070512E-4,-8.687742E-4,2.5954545E-3,2.736588E-3,4.1998825E-3,3.9380686E-3,9.31567E-4],"split_indices":[3,27,4,29,34,39,36,46,45,4,0,34,27,34,33,4,0,35,0,31,36,36,32,0,0,35,29,32,0,0,0,0,0,0,0,0,0,0,0,0,0,0,0,0,0,0,0],"split_type":[0,0,0,0,0,0,0,0,0,0,0,0,0,0,0,0,0,0,0,0,0,0,0,0,0,0,0,0,0,0,0,0,0,0,0,0,0,0,0,0,0,0,0,0,0,0,0],"sum_hessian":[3.9931E4,4.032E3,3.5899E4,2.922E3,1.11E3,1.8025E4,1.7874E4,2.543E3,3.79E2,1.085E3,2.5E1,1.7919E4,1.06E2,1.775E4,1.24E2,2.529E3,1.4E1,3.71E2,8E0,5.49E2,5.36E2,1.776E4,1.59E2,2E0,1.04E2,1.7586E4,1.64E2,1.19E2,5E0,1.261E3,1.268E3,3.65E2,6E0,4.15E2,1.34E2,5.31E2,5E0,1.7648E4,1.12E2,1.55E2,4E0,1.7386E4,2E2,1.38E2,2.6E1,1.18E2,1E0],"tree_param":{"num_deleted":"0","num_feature":"48","num_nodes":"47","size_leaf_vector":"1"}},{"base_weights":[7.417987E-5,6.368191E-2,-7.181497E-3,8.0515526E-2,4.1618913E-2,9.772415E-3,-2.9651806E-2,9.6458375E-2,5.970528E-2,5.6012478E-2,2.0588927E-2,2.6551733E-2,-1.1555026E-2,-1.32213915E-2,-5.130686E-2,1.02745995E-1,8.110843E-2,6.593499E-2,4.0009625E-2,6.418077E-2,3.8718347E-2,2.5334695E-2,3.7610747E-3,3.383471E-2,1.9198898E-2,-1.21975755E-2,3.473016E-3,-1.4029964E-2,2.5588875E-3,-5.2313764E-2,1.5901113E-2,5.501665E-3,4.752171E-3,3.94848E-3,6.8200896E-3,3.2473821E-3,6.3854614E-3,2.4787209E-3,1.6301576E-3,3.6277901E-3,2.8568776E-3,1.8070115E-3,5.039392E-3,1.6199179E-3,8.5770496E-4,5.4974116E-5,3.5946015E-3,1.6542597E-3,5.4043867E-3,9.244489E-4,5.0325426E-3,-6.4823864E-4,2.8199947E-3,-7.359777E-4,3.1536445E-3,-2.6620175E-3,5.980041E-4,1.1455806E-3,3.9875676E-4],"categories":[],"categories_nodes":[],"categories_segments":[],"categories_sizes":[],"default_left":[0,0,0,0,0,0,0,0,0,0,0,0,0,0,0,0,0,0,0,0,0,0,0,0,0,0,0,0,0,0,0,0,0,0,0,0,0,0,0,0,0,0,0,0,0,0,0,0,0,0,0,0,0,0,0,0,0,0,0],"id":21,"left_children":[1,3,5,7,9,11,13,15,17,19,21,23,25,27,29,31,33,35,37,39,41,43,45,47,49,51,-1,53,-1,55,57,-1,-1,-1,-1,-1,-1,-1,-1,-1,-1,-1,-1,-1,-1,-1,-1,-1,-1,-1,-1,-1,-1,-1,-1,-1,-1,-1,-1],"loss_changes":[1.8444527E1,1.5164185E0,1.3666455E1,7.63958E-1,5.3552747E-1,7.317468E0,5.48827E0,1.1829376E-1,1.2116456E-1,1.4612389E-1,5.7564408E-2,6.121836E-1,4.6956253E-1,4.575405E-1,4.5119095E-1,4.157448E-2,3.4878254E-2,3.8365364E-2,1.5739858E-2,3.791237E-2,5.0765097E-2,3.1977147E-2,2.893485E-2,3.1632233E-1,3.2756495E-1,4.709078E-1,0E0,4.6164095E-1,0E0,3.9113998E-1,5.318215E-3,0E0,0E0,0E0,0E0,0E0,0E0,0E0,0E0,0E0,0E0,0E0,0E0,0E0,0E0,0E0,0E0,0E0,0E0,0E0,0E0,0E0,0E0,0E0,0E0,0E0,0E0,0E0,0E0],"parents":[2147483647,0,0,1,1,2,2,3,3,4,4,5,5,6,6,7,7,8,8,9,9,10,10,11,11,12,12,13,13,14,14,15,15,16,16,17,17,18,18,19,19,20,20,21,21,22,22,23,23,24,24,25,25,27,27,29,29,30,30],"right_children":[2,4,6,8,10,12,14,16,18,20,22,24,26,28,30,32,34,36,38,40,42,44,46,48,50,52,-1,54,-1,56,58,-1,-1,-1,-1,-1,-1,-1,-1,-1,-1,-1,-1,-1,-1,-1,-1,-1,-1,-1,-1,-1,-1,-1,-1,-1,-1,-1,-1],"split_conditions":[3.4119618E-1,1E0,1E0,1E0,1E0,1E0,1E0,1.6351022E0,1.6351022E0,1.6351022E0,1.6351022E0,1E0,1E0,1E0,1E0,1E0,1E0,1E0,1E0,1E0,1E0,1E0,1E0,1E0,1E0,1E0,3.473016E-3,1E0,2.5588875E-3,1E0,1E0,5.501665E-3,4.752171E-3,3.94848E-3,6.8200896E-3,3.2473821E-3,6.3854614E-3,2.4787209E-3,1.6301576E-3,3.6277901E-3,2.8568776E-3,1.8070115E-3,5.039392E-3,1.6199179E-3,8.5770496E-4,5.4974116E-5,3.5946015E-3,1.6542597E-3,5.4043867E-3,9.244489E-4,5.0325426E-3,-6.4823864E-4,2.8199947E-3,-7.359777E-4,3.1536445E-3,-2.6620175E-3,5.980041E-4,1.1455806E-3,3.9875676E-4],"split_indices":[3,6,6,5,5,5,5,27,27,27,27,7,34,38,34,7,34,34,7,7,34,4,38,34,39,35,0,39,0,35,7,0,0,0,0,0,0,0,0,0,0,0,0,0,0,0,0,0,0,0,0,0,0,0,0,0,0,0,0],"split_type":[0,0,0,0,0,0,0,0,0,0,0,0,0,0,0,0,0,0,0,0,0,0,0,0,0,0,0,0,0,0,0,0,0,0,0,0,0,0,0,0,0,0,0,0,0,0,0,0,0,0,0,0,0,0,0,0,0,0,0],"sum_hessian":[3.9963E4,4.091E3,3.5872E4,2.319E3,1.772E3,2.0446E4,1.5426E4,1.311E3,1.008E3,1.051E3,7.21E2,1.1443E4,9.003E3,8.772E3,6.654E3,9.26E2,3.85E2,7.64E2,2.44E2,7.12E2,3.39E2,5.62E2,1.59E2,5.747E3,5.696E3,8.933E3,7E1,8.664E3,1.08E2,6.556E3,9.8E1,4.69E2,4.57E2,3.73E2,1.2E1,7.54E2,1E1,1.04E2,1.4E2,3.21E2,3.91E2,3.27E2,1.2E1,3E2,2.62E2,1.54E2,5E0,5.691E3,5.6E1,5.648E3,4.8E1,8.835E3,9.8E1,8.588E3,7.6E1,6.463E3,9.3E1,5.1E1,4.7E1],"tree_param":{"num_deleted":"0","num_feature":"48","num_nodes":"59","size_leaf_vector":"1"}},{"base_weights":[-1.21083816E-4,6.0649067E-2,-6.9570257E-3,7.6670356E-2,3.9597355E-2,9.204024E-3,-2.8363677E-2,9.195407E-2,5.706939E-2,5.337706E-2,1.9509215E-2,2.5205102E-2,-1.0917261E-2,-1.2665524E-2,-4.860984E-2,9.8004505E-2,7.642796E-2,6.2423214E-2,3.917033E-2,6.0732048E-2,3.782964E-2,2.4347967E-2,4.4667297E-3,2.4549069E-2,1.0074667E-1,-1.1520194E-2,3.5190296E-3,-1.3322837E-2,3.5577044E-3,-4.953216E-2,1.1472671E-2,4.8540053E-3,8.295202E-3,3.7120413E-3,6.5053166E-3,3.0743165E-3,6.0952143E-3,1.8761366E-3,4.7899922E-3,3.4601686E-3,2.6897665E-3,1.7686713E-3,4.806805E-3,1.1718856E-3,4.5154556E-3,1.2873385E-4,3.4140788E-3,1.1976894E-3,5.2437144E-3,5.6157983E-3,4.5773755E-3,-6.0771505E-4,3.3709388E-3,-3.072192E-4,-1.030511E-3,-2.5207538E-3,7.725657E-4,9.104006E-4,2.3875145E-4],"categories":[],"categories_nodes":[],"categories_segments":[],"categories_sizes":[],"default_left":[0,0,0,0,0,0,0,0,0,0,0,0,0,0,0,0,0,0,0,0,0,0,0,0,0,0,0,0,0,0,0,0,0,0,0,0,0,0,0,0,0,0,0,0,0,0,0,0,0,0,0,0,0,0,0,0,0,0,0],"id":22,"left_children":[1,3,5,7,9,11,13,15,17,19,21,23,25,27,29,31,33,35,37,39,41,43,45,47,49,51,-1,53,-1,55,57,-1,-1,-1,-1,-1,-1,-1,-1,-1,-1,-1,-1,-1,-1,-1,-1,-1,-1,-1,-1,-1,-1,-1,-1,-1,-1,-1,-1],"loss_changes":[1.6626825E1,1.3619194E0,1.2446647E1,6.8287754E-1,4.8365045E-1,6.6008234E0,4.918398E0,1.1359787E-1,9.424567E-2,1.1639905E-1,5.1861078E-2,5.63478E-1,4.4598424E-1,4.813273E-1,3.7512016E-1,4.1890144E-2,3.3309937E-2,3.569269E-2,1.8331409E-2,3.7587643E-2,4.471895E-2,3.0305684E-2,2.0953879E-2,5.389085E-1,1.476407E-4,4.5212185E-1,0E0,4.5247793E-1,0E0,3.8272285E-1,4.559478E-3,0E0,0E0,0E0,0E0,0E0,0E0,0E0,0E0,0E0,0E0,0E0,0E0,0E0,0E0,0E0,0E0,0E0,0E0,0E0,0E0,0E0,0E0,0E0,0E0,0E0,0E0,0E0,0E0],"parents":[2147483647,0,0,1,1,2,2,3,3,4,4,5,5,6,6,7,7,8,8,9,9,10,10,11,11,12,12,13,13,14,14,15,15,16,16,17,17,18,18,19,19,20,20,21,21,22,22,23,23,24,24,25,25,27,27,29,29,30,30],"right_children":[2,4,6,8,10,12,14,16,18,20,22,24,26,28,30,32,34,36,38,40,42,44,46,48,50,52,-1,54,-1,56,58,-1,-1,-1,-1,-1,-1,-1,-1,-1,-1,-1,-1,-1,-1,-1,-1,-1,-1,-1,-1,-1,-1,-1,-1,-1,-1,-1,-1],"split_conditions":[3.4119618E-1,1E0,1E0,1E0,1E0,1E0,1E0,1.6351022E0,1.6351022E0,1.6351022E0,1.6351022E0,1E0,1E0,1E0,1E0,1E0,1E0,1E0,1E0,1E0,1E0,1E0,1E0,1E0,1E0,1E0,3.5190296E-3,1E0,3.5577044E-3,1E0,1E0,4.8540053E-3,8.295202E-3,3.7120413E-3,6.5053166E-3,3.0743165E-3,6.0952143E-3,1.8761366E-3,4.7899922E-3,3.4601686E-3,2.6897665E-3,1.7686713E-3,4.806805E-3,1.1718856E-3,4.5154556E-3,1.2873385E-4,3.4140788E-3,1.1976894E-3,5.2437144E-3,5.6157983E-3,4.5773755E-3,-6.0771505E-4,3.3709388E-3,-3.072192E-4,-1.030511E-3,-2.5207538E-3,7.725657E-4,9.104006E-4,2.3875145E-4],"split_indices":[3,6,6,5,5,5,5,27,27,27,27,35,38,36,35,46,34,34,45,7,34,35,38,39,4,45,0,7,0,34,4,0,0,0,0,0,0,0,0,0,0,0,0,0,0,0,0,0,0,0,0,0,0,0,0,0,0,0,0],"split_type":[0,0,0,0,0,0,0,0,0,0,0,0,0,0,0,0,0,0,0,0,0,0,0,0,0,0,0,0,0,0,0,0,0,0,0,0,0,0,0,0,0,0,0,0,0,0,0,0,0,0,0,0,0,0,0,0,0,0,0],"sum_hessian":[4.0022E4,4.046E3,3.5976E4,2.296E3,1.75E3,2.05E4,1.5476E4,1.288E3,1.008E3,1.037E3,7.13E2,1.1419E4,9.081E3,8.718E3,6.758E3,9.23E2,3.65E2,7.74E2,2.34E2,7.02E2,3.35E2,5.39E2,1.74E2,1.1322E4,9.7E1,9.015E3,6.6E1,8.651E3,6.7E1,6.656E3,1.02E2,9.13E2,1E1,3.53E2,1.2E1,7.64E2,1E1,2.29E2,5E0,3.12E2,3.9E2,3.23E2,1.2E1,5.33E2,6E0,1.7E2,4E0,1.124E4,8.2E1,3.8E1,5.9E1,8.944E3,7.1E1,4.359E3,4.292E3,6.567E3,8.9E1,5E1,5.2E1],"tree_param":{"num_deleted":"0","num_feature":"48","num_nodes":"59","size_leaf_vector":"1"}},{"base_weights":[1.4220846E-4,5.699539E-2,-6.396157E-3,7.195923E-2,3.7421178E-2,8.816219E-3,-2.6760822E-2,8.6640574E-2,5.353836E-2,5.064791E-2,1.9079132E-2,2.38095E-2,-1.031738E-2,-1.1768348E-2,-4.628435E-2,9.401128E-2,7.889264E-2,6.0201705E-2,4.7111668E-2,4.9585804E-2,5.5822376E-3,2.6697299E-2,1.0575284E-2,2.3041684E-2,4.281338E-3,-1.1094254E-2,5.3366967E-2,-1.2503484E-2,5.5551548E-2,-4.7184248E-2,1.4526794E-2,5.0895903E-3,4.3020947E-3,3.8973794E-3,7.66088E-3,2.967015E-3,5.662683E-3,2.2845387E-3,5.5257506E-3,2.8540588E-3,2.1549321E-3,1.2818371E-3,4.5680357E-3,2.6771252E-4,1.1612484E-3,1.4947497E-3,8.087343E-4,-5.859335E-4,3.3455824E-3,3.0341134E-3,2.1403115E-3,-6.58639E-4,2.9893084E-3,3.3133873E-3,2.217887E-3,-1.9807394E-3,-2.7133352E-3,1.0835789E-3,3.6171844E-4],"categories":[],"categories_nodes":[],"categories_segments":[],"categories_sizes":[],"default_left":[0,0,0,0,0,0,0,0,0,0,0,0,0,0,0,0,0,0,0,0,0,0,0,0,0,0,0,0,0,0,0,0,0,0,0,0,0,0,0,0,0,0,0,0,0,0,0,0,0,0,0,0,0,0,0,0,0,0,0],"id":23,"left_children":[1,3,5,7,9,11,13,15,17,19,21,23,25,27,29,31,33,35,37,39,-1,41,43,45,-1,47,49,51,53,55,57,-1,-1,-1,-1,-1,-1,-1,-1,-1,-1,-1,-1,-1,-1,-1,-1,-1,-1,-1,-1,-1,-1,-1,-1,-1,-1,-1,-1],"loss_changes":[1.4880963E1,1.2067137E0,1.1122804E1,6.2792873E-1,4.3353987E-1,5.896109E0,4.493078E0,6.6823006E-2,4.1699886E-2,6.1840296E-2,4.8435032E-2,5.4495716E-1,4.4734925E-1,4.305098E-1,3.6558247E-1,3.2227516E-2,3.3011198E-2,1.6449094E-2,4.3058157E-2,4.733038E-2,0E0,2.4815202E-2,2.3453504E-2,5.3522015E-1,0E0,4.3535757E-1,5.823225E-3,4.1649532E-1,8.336276E-3,3.501234E-1,4.9492978E-3,0E0,0E0,0E0,0E0,0E0,0E0,0E0,0E0,0E0,0E0,0E0,0E0,0E0,0E0,0E0,0E0,0E0,0E0,0E0,0E0,0E0,0E0,0E0,0E0,0E0,0E0,0E0,0E0],"parents":[2147483647,0,0,1,1,2,2,3,3,4,4,5,5,6,6,7,7,8,8,9,9,10,10,11,11,12,12,13,13,14,14,15,15,16,16,17,17,18,18,19,19,21,21,22,22,23,23,25,25,26,26,27,27,28,28,29,29,30,30],"right_children":[2,4,6,8,10,12,14,16,18,20,22,24,26,28,30,32,34,36,38,40,-1,42,44,46,-1,48,50,52,54,56,58,-1,-1,-1,-1,-1,-1,-1,-1,-1,-1,-1,-1,-1,-1,-1,-1,-1,-1,-1,-1,-1,-1,-1,-1,-1,-1,-1,-1],"split_conditions":[3.4119618E-1,1E0,1E0,1E0,1E0,1E0,1E0,1E0,1E0,1E0,1E0,1E0,1E0,1E0,1E0,1E0,1E0,1E0,1E0,1E0,5.5822376E-3,1E0,1E0,1E0,4.281338E-3,1E0,1E0,1E0,1E0,1E0,1E0,5.0895903E-3,4.3020947E-3,3.8973794E-3,7.66088E-3,2.967015E-3,5.662683E-3,2.2845387E-3,5.5257506E-3,2.8540588E-3,2.1549321E-3,1.2818371E-3,4.5680357E-3,2.6771252E-4,1.1612484E-3,1.4947497E-3,8.087343E-4,-5.859335E-4,3.3455824E-3,3.0341134E-3,2.1403115E-3,-6.58639E-4,2.9893084E-3,3.3133873E-3,2.217887E-3,-1.9807394E-3,-2.7133352E-3,1.0835789E-3,3.6171844E-4],"split_indices":[3,6,6,5,5,5,5,4,4,38,4,38,35,35,34,7,44,38,34,7,0,44,31,7,0,38,4,39,7,7,7,0,0,0,0,0,0,0,0,0,0,0,0,0,0,0,0,0,0,0,0,0,0,0,0,0,0,0,0],"split_type":[0,0,0,0,0,0,0,0,0,0,0,0,0,0,0,0,0,0,0,0,0,0,0,0,0,0,0,0,0,0,0,0,0,0,0,0,0,0,0,0,0,0,0,0,0,0,0,0,0,0,0,0,0,0,0,0,0,0,0],"sum_hessian":[4.003E4,4.128E3,3.5902E4,2.338E3,1.79E3,2.0551E4,1.5351E4,1.299E3,1.039E3,1.039E3,7.51E2,1.1522E4,9.029E3,8.684E3,6.667E3,6.6E2,6.39E2,5.06E2,5.33E2,1.023E3,1.6E1,3.95E2,3.56E2,1.1382E4,1.4E2,8.921E3,1.08E2,8.591E3,9.3E1,6.57E3,9.7E1,3.28E2,3.32E2,6.33E2,6E0,5E2,6E0,5.23E2,1E1,4.71E2,5.52E2,3.9E2,5E0,2.53E2,1.03E2,5.695E3,5.687E3,8.851E3,7E1,6.1E1,4.7E1,8.513E3,7.8E1,4.5E1,4.8E1,3.179E3,3.391E3,4.8E1,4.9E1],"tree_param":{"num_deleted":"0","num_feature":"48","num_nodes":"59","size_leaf_vector":"1"}},{"base_weights":[8.8981884E-5,1.4451337E-2,-1.891642E-2,2.8896568E-2,-3.813458E-3,-4.7053443E-3,-3.7743784E-2,2.7701173E-2,6.855938E-2,-4.4731586E-3,7.47049E-2,-5.505139E-3,5.8425635E-2,-3.0226145E-2,-4.4860523E-2,2.707849E-2,4.8105125E-3,6.696637E-2,6.268505E-3,-4.9695875E-3,4.525837E-3,3.462818E-3,4.7575547E-3,-6.8290373E-3,3.153698E-2,2.5327262E-3,7.0769906E-2,-3.1089945E-2,2.4147669E-2,-4.5558188E-2,2.948537E-2,1.3264836E-3,5.222039E-3,3.280143E-3,6.35667E-3,-2.755392E-4,3.5712763E-3,-3.7360302E-4,3.349825E-3,1.47528E-3,4.4343984E-3,5.1975357E-3,2.8488783E-3,-1.6055646E-3,6.542836E-4,2.2665132E-3,1.0137751E-3,-2.3055053E-3,2.3204738E-3,1.2554511E-3,1.8574487E-3],"categories":[],"categories_nodes":[],"categories_segments":[],"categories_sizes":[],"default_left":[0,0,0,0,0,0,0,0,0,0,0,0,0,0,0,0,0,0,0,0,0,0,0,0,0,0,0,0,0,0,0,0,0,0,0,0,0,0,0,0,0,0,0,0,0,0,0,0,0,0,0],"id":24,"left_children":[1,3,5,7,9,11,13,15,17,19,21,23,25,27,29,31,-1,33,-1,35,-1,-1,-1,37,39,-1,41,43,45,47,49,-1,-1,-1,-1,-1,-1,-1,-1,-1,-1,-1,-1,-1,-1,-1,-1,-1,-1,-1,-1],"loss_changes":[1.0932414E1,6.0188093E0,4.612241E0,6.0204506E-1,5.222051E-1,4.9640357E-1,3.9535332E-1,5.249634E-1,2.5270581E-2,4.716301E-1,2.7679205E-3,4.7605056E-1,8.214444E-3,1.7025852E-1,1.9880676E-1,5.176363E-1,0E0,2.1521568E-2,0E0,4.114017E-1,0E0,0E0,0E0,4.4526115E-1,3.627515E-2,0E0,1.4670983E-2,1.6072655E-1,3.7561916E-3,1.9360209E-1,2.7461722E-4,0E0,0E0,0E0,0E0,0E0,0E0,0E0,0E0,0E0,0E0,0E0,0E0,0E0,0E0,0E0,0E0,0E0,0E0,0E0,0E0],"parents":[2147483647,0,0,1,1,2,2,3,3,4,4,5,5,6,6,7,7,8,8,9,9,10,10,11,11,12,12,13,13,14,14,15,15,17,17,19,19,23,23,24,24,26,26,27,27,28,28,29,29,30,30],"right_children":[2,4,6,8,10,12,14,16,18,20,22,24,26,28,30,32,-1,34,-1,36,-1,-1,-1,38,40,-1,42,44,46,48,50,-1,-1,-1,-1,-1,-1,-1,-1,-1,-1,-1,-1,-1,-1,-1,-1,-1,-1,-1,-1],"split_conditions":[1E0,1E0,1E0,2.1334667E0,1E0,1E0,1E0,1E0,1E0,1E0,1.1772299E0,2.1334667E0,4.8925322E-1,1E0,1E0,1E0,4.8105125E-3,1E0,6.268505E-3,1E0,4.525837E-3,3.462818E-3,4.7575547E-3,1E0,1E0,2.5327262E-3,6.3837326E-1,2.1334667E0,1.1E1,1E0,1E0,1.3264836E-3,5.222039E-3,3.280143E-3,6.35667E-3,-2.755392E-4,3.5712763E-3,-3.7360302E-4,3.349825E-3,1.47528E-3,4.4343984E-3,5.1975357E-3,2.8488783E-3,-1.6055646E-3,6.542836E-4,2.2665132E-3,1.0137751E-3,-2.3055053E-3,2.3204738E-3,1.2554511E-3,1.8574487E-3],"split_indices":[6,5,5,27,34,38,7,34,34,46,27,27,27,34,38,36,0,36,0,38,0,0,0,39,34,0,27,27,32,36,28,0,0,0,0,0,0,0,0,0,0,0,0,0,0,0,0,0,0,0,0],"split_type":[0,0,0,0,0,0,0,0,0,0,0,0,0,0,0,0,0,0,0,0,0,0,0,0,0,0,0,0,0,0,0,0,0,0,0,0,0,0,0,0,0,0,0,0,0,0,0,0,0,0,0],"sum_hessian":[4.0049E4,2.2811E4,1.7238E4,1.2737E4,1.0074E4,9.824E3,7.414E3,1.2366E4,3.71E2,9.991E3,8.3E1,9.702E3,1.22E2,3.608E3,3.806E3,1.2256E4,1.1E2,3.63E2,8E0,9.94E3,5.1E1,6.9E1,1.4E1,9.368E3,3.34E2,7.8E1,4.4E1,3.552E3,5.6E1,3.771E3,3.5E1,1.2171E4,8.5E1,3.57E2,6E0,9.871E3,6.9E1,9.288E3,8E1,3.24E2,1E1,1.1E1,3.3E1,3.472E3,8E1,7E0,4.9E1,3.749E3,2.2E1,2.5E1,1E1],"tree_param":{"num_deleted":"0","num_feature":"48","num_nodes":"51","size_leaf_vector":"1"}},{"base_weights":[1.413193E-4,5.411015E-2,-6.0940194E-3,6.790768E-2,3.6077265E-2,7.6281745E-3,-2.4318315E-2,8.057834E-2,5.121288E-2,4.8016354E-2,1.90601E-2,2.1499481E-2,-9.789032E-3,-1.0989178E-2,-4.1861013E-2,7.954391E-2,7.393813E-3,5.0392352E-2,5.5290307E-3,5.4786168E-2,4.0493093E-2,2.674396E-2,1.0677147E-2,2.0953432E-2,5.292496E-3,-2.7293905E-3,-1.672463E-2,-4.1917153E-3,-1.8136125E-2,-4.253928E-2,4.3366473E-2,4.317096E-3,3.6348782E-3,2.8700845E-3,2.2150227E-3,2.6964408E-3,6.197999E-3,1.9683868E-3,4.900673E-3,1.2861931E-3,4.361645E-3,3.1257485E-4,1.069164E-3,1.0093971E-3,3.9894357E-3,-1.6949319E-4,3.455966E-3,-5.037685E-4,-1.1801539E-3,-2.3568375E-4,4.4588554E-3,-5.342478E-4,-1.2747756E-3,-2.1696524E-3,7.26544E-4,2.5345704E-3,1.6201684E-3],"categories":[],"categories_nodes":[],"categories_segments":[],"categories_sizes":[],"default_left":[0,0,0,0,0,0,0,0,0,0,0,0,0,0,0,0,0,0,0,0,0,0,0,0,0,0,0,0,0,0,0,0,0,0,0,0,0,0,0,0,0,0,0,0,0,0,0,0,0,0,0,0,0,0,0,0,0],"id":25,"left_children":[1,3,5,7,9,11,13,15,17,19,21,23,25,27,29,31,-1,33,-1,35,37,39,41,43,-1,45,47,49,51,53,55,-1,-1,-1,-1,-1,-1,-1,-1,-1,-1,-1,-1,-1,-1,-1,-1,-1,-1,-1,-1,-1,-1,-1,-1,-1,-1],"loss_changes":[1.3461224E1,1.028367E0,8.967709E0,4.9213314E-1,3.6438346E-1,4.9426093E0,3.6012077E0,8.096409E-2,4.3871164E-2,5.1564693E-2,4.7573656E-2,5.2230644E-1,4.4404727E-1,4.2520297E-1,3.8626003E-1,5.4878235E-2,0E0,4.028535E-2,0E0,2.6111364E-2,2.8765738E-2,2.1635711E-2,1.6781554E-2,5.080385E-1,0E0,2.1358809E-1,2.0900702E-1,2.1914202E-1,2.3371315E-1,3.2211685E-1,2.613552E-3,0E0,0E0,0E0,0E0,0E0,0E0,0E0,0E0,0E0,0E0,0E0,0E0,0E0,0E0,0E0,0E0,0E0,0E0,0E0,0E0,0E0,0E0,0E0,0E0,0E0,0E0],"parents":[2147483647,0,0,1,1,2,2,3,3,4,4,5,5,6,6,7,7,8,8,9,9,10,10,11,11,12,12,13,13,14,14,15,15,17,17,19,19,20,20,21,21,22,22,23,23,25,25,26,26,27,27,28,28,29,29,30,30],"right_children":[2,4,6,8,10,12,14,16,18,20,22,24,26,28,30,32,-1,34,-1,36,38,40,42,44,-1,46,48,50,52,54,56,-1,-1,-1,-1,-1,-1,-1,-1,-1,-1,-1,-1,-1,-1,-1,-1,-1,-1,-1,-1,-1,-1,-1,-1,-1,-1],"split_conditions":[3.4119618E-1,1E0,1E0,1E0,1E0,1E0,1E0,1E0,1E0,1E0,1E0,1E0,1E0,1E0,1E0,1E0,7.393813E-3,1E0,5.5290307E-3,1E0,1E0,1E0,1E0,1E0,5.292496E-3,1E0,1E0,1E0,1E0,1E0,1E0,4.317096E-3,3.6348782E-3,2.8700845E-3,2.2150227E-3,2.6964408E-3,6.197999E-3,1.9683868E-3,4.900673E-3,1.2861931E-3,4.361645E-3,3.1257485E-4,1.069164E-3,1.0093971E-3,3.9894357E-3,-1.6949319E-4,3.455966E-3,-5.037685E-4,-1.1801539E-3,-2.3568375E-4,4.4588554E-3,-5.342478E-4,-1.2747756E-3,-2.1696524E-3,7.26544E-4,2.5345704E-3,1.6201684E-3],"split_indices":[3,6,6,5,5,5,5,45,45,4,4,45,4,4,45,4,0,7,0,41,35,35,31,38,0,34,7,47,7,35,7,0,0,0,0,0,0,0,0,0,0,0,0,0,0,0,0,0,0,0,0,0,0,0,0,0,0],"split_type":[0,0,0,0,0,0,0,0,0,0,0,0,0,0,0,0,0,0,0,0,0,0,0,0,0,0,0,0,0,0,0,0,0,0,0,0,0,0,0,0,0,0,0,0,0,0,0,0,0,0,0,0,0,0,0,0,0],"sum_hessian":[4E4,4.142E3,3.5858E4,2.345E3,1.797E3,2.0456E4,1.5402E4,1.331E3,1.014E3,1.055E3,7.42E2,1.1387E4,9.069E3,8.753E3,6.649E3,1.313E3,1.8E1,1.002E3,1.2E1,5.52E2,5.03E2,3.86E2,3.56E2,1.1315E4,7.2E1,4.495E3,4.574E3,4.487E3,4.266E3,6.597E3,5.2E1,6.53E2,6.6E2,4.62E2,5.4E2,5.47E2,5E0,4.95E2,8E0,3.81E2,5E0,2.53E2,1.03E2,1.1171E4,1.44E2,4.455E3,4E1,2.327E3,2.247E3,4.463E3,2.4E1,2.121E3,2.145E3,6.5E3,9.7E1,2.9E1,2.3E1],"tree_param":{"num_deleted":"0","num_feature":"48","num_nodes":"57","size_leaf_vector":"1"}},{"base_weights":[-4.844728E-5,5.138177E-2,-5.9448127E-3,6.459152E-2,3.430495E-2,7.0411754E-3,-2.3178916E-2,7.689769E-2,4.9067892E-2,4.5191742E-2,1.9139534E-2,2.025715E-2,-9.359585E-3,-1.0497669E-2,-3.9883893E-2,8.408536E-2,6.9269195E-2,4.831666E-2,5.69969E-3,4.432519E-2,5.0812154E-3,1.8392261E-2,4.796823E-3,1.976087E-2,5.427459E-3,-9.960609E-3,3.2610719E-3,-1.1211368E-2,5.3956155E-2,-4.051427E-2,4.077191E-2,4.1517555E-3,7.5355633E-3,3.5703504E-3,2.9834243E-3,2.3744449E-3,5.2084425E-3,2.17382E-3,5.137869E-3,8.7837875E-4,4.1940645E-3,9.5529214E-4,4.3895463E-3,-1.6996756E-4,-8.368971E-4,-5.886016E-4,3.4649868E-3,3.2452045E-3,2.1511796E-3,-2.0581165E-3,1.7917532E-3,2.4377916E-3,1.545638E-3],"categories":[],"categories_nodes":[],"categories_segments":[],"categories_sizes":[],"default_left":[0,0,0,0,0,0,0,0,0,0,0,0,0,0,0,0,0,0,0,0,0,0,0,0,0,0,0,0,0,0,0,0,0,0,0,0,0,0,0,0,0,0,0,0,0,0,0,0,0,0,0,0,0],"id":26,"left_children":[1,3,5,7,9,11,13,15,17,19,21,23,25,27,29,31,33,35,-1,37,-1,39,-1,41,-1,43,-1,45,47,49,51,-1,-1,-1,-1,-1,-1,-1,-1,-1,-1,-1,-1,-1,-1,-1,-1,-1,-1,-1,-1,-1,-1],"loss_changes":[1.2105797E1,9.240179E-1,8.015404E0,4.3828487E-1,2.951641E-1,4.4273496E0,3.259797E0,6.485224E-2,4.453492E-2,4.6500206E-2,4.1334093E-2,4.934759E-1,4.0922898E-1,4.0311074E-1,3.3930683E-1,3.35989E-2,8.690357E-3,4.202509E-2,0E0,4.656744E-2,0E0,3.87623E-2,0E0,4.9959612E-1,0E0,4.020657E-1,0E0,3.9149868E-1,8.697718E-3,3.275404E-1,2.5859848E-3,0E0,0E0,0E0,0E0,0E0,0E0,0E0,0E0,0E0,0E0,0E0,0E0,0E0,0E0,0E0,0E0,0E0,0E0,0E0,0E0,0E0,0E0],"parents":[2147483647,0,0,1,1,2,2,3,3,4,4,5,5,6,6,7,7,8,8,9,9,10,10,11,11,12,12,13,13,14,14,15,15,16,16,17,17,19,19,21,21,23,23,25,25,27,27,28,28,29,29,30,30],"right_children":[2,4,6,8,10,12,14,16,18,20,22,24,26,28,30,32,34,36,-1,38,-1,40,-1,42,-1,44,-1,46,48,50,52,-1,-1,-1,-1,-1,-1,-1,-1,-1,-1,-1,-1,-1,-1,-1,-1,-1,-1,-1,-1,-1,-1],"split_conditions":[3.4119618E-1,1E0,1E0,1E0,1E0,1E0,1E0,1E0,1E0,1E0,1E0,1E0,1E0,1E0,1E0,1E0,1E0,1E0,5.69969E-3,1E0,5.0812154E-3,1E0,4.796823E-3,1E0,5.427459E-3,1E0,3.2610719E-3,1E0,1E0,1E0,1E0,4.1517555E-3,7.5355633E-3,3.5703504E-3,2.9834243E-3,2.3744449E-3,5.2084425E-3,2.17382E-3,5.137869E-3,8.7837875E-4,4.1940645E-3,9.5529214E-4,4.3895463E-3,-1.6996756E-4,-8.368971E-4,-5.886016E-4,3.4649868E-3,3.2452045E-3,2.1511796E-3,-2.0581165E-3,1.7917532E-3,2.4377916E-3,1.545638E-3],"split_indices":[3,6,6,5,5,5,5,7,35,38,37,41,45,35,45,38,10,34,0,35,0,40,0,34,0,7,0,36,7,38,7,0,0,0,0,0,0,0,0,0,0,0,0,0,0,0,0,0,0,0,0,0,0],"split_type":[0,0,0,0,0,0,0,0,0,0,0,0,0,0,0,0,0,0,0,0,0,0,0,0,0,0,0,0,0,0,0,0,0,0,0,0,0,0,0,0,0,0,0,0,0,0,0,0,0,0,0,0,0],"sum_hessian":[3.9918E4,4.105E3,3.5813E4,2.313E3,1.792E3,2.0424E4,1.5389E4,1.288E3,1.025E3,1.042E3,7.5E2,1.131E4,9.114E3,8.749E3,6.64E3,6.58E2,6.3E2,1.015E3,1E1,1.028E3,1.4E1,7.44E2,6E0,1.1248E4,6.2E1,9.042E3,7.2E1,8.654E3,9.5E1,6.589E3,5.1E1,6.5E2,8E0,5.1E2,1.2E2,1.002E3,1.3E1,1.015E3,1.3E1,7.36E2,8E0,1.1142E4,1.06E2,4.595E3,4.447E3,8.595E3,5.9E1,4.5E1,5E1,6.534E3,5.5E1,2.6E1,2.5E1],"tree_param":{"num_deleted":"0","num_feature":"48","num_nodes":"53","size_leaf_vector":"1"}},{"base_weights":[8.2300445E-5,4.91086E-2,-5.485426E-3,5.981289E-2,3.436706E-2,6.621213E-3,-2.1083837E-2,6.713579E-2,4.2938873E-2,4.0051203E-2,1.7419044E-2,1.3158045E-2,7.271903E-5,-1.4216949E-2,-2.7849821E-2,7.473122E-2,5.99005E-2,4.132469E-2,4.723489E-3,3.9377045E-2,5.4143183E-3,2.4265984E-2,1.080206E-2,1.2641943E-2,4.9710055E-3,-5.204969E-4,3.7174933E-3,-1.4860725E-2,5.6957804E-2,-2.0977255E-2,-3.454361E-2,3.696004E-3,6.881412E-3,3.349894E-3,2.6245387E-3,2.0185967E-3,5.916722E-3,1.9320687E-3,5.1413695E-3,1.6215642E-3,8.2720624E-4,4.7564256E-4,3.934289E-3,6.027207E-4,4.4809855E-3,3.0161926E-4,-3.671486E-4,-7.83035E-4,2.109048E-3,2.8666633E-3,7.76276E-4,-1.0822383E-3,2.7779657E-3,-1.7516995E-3,3.001973E-3],"categories":[],"categories_nodes":[],"categories_segments":[],"categories_sizes":[],"default_left":[0,0,0,0,0,0,0,0,0,0,0,0,0,0,0,0,0,0,0,0,0,0,0,0,0,0,0,0,0,0,0,0,0,0,0,0,0,0,0,0,0,0,0,0,0,0,0,0,0,0,0,0,0,0,0],"id":27,"left_children":[1,3,5,7,9,11,13,15,17,19,21,23,25,27,29,31,33,35,-1,37,-1,39,41,43,-1,45,-1,47,49,51,53,-1,-1,-1,-1,-1,-1,-1,-1,-1,-1,-1,-1,-1,-1,-1,-1,-1,-1,-1,-1,-1,-1,-1,-1],"loss_changes":[1.090959E1,6.4112854E-1,6.7779517E0,2.8873444E-1,1.6470957E-1,8.650309E-1,7.283025E-1,8.586979E-2,5.5736423E-2,5.484724E-2,1.9355416E-2,4.489733E-1,4.448926E-1,3.5760534E-1,3.6265755E-1,3.0539513E-2,4.102683E-2,4.636264E-2,0E0,5.5495143E-2,0E0,1.2830317E-2,1.86801E-2,4.5362878E-1,0E0,4.478731E-1,0E0,3.5280144E-1,1.9881129E-4,2.004497E-1,1.8762875E-1,0E0,0E0,0E0,0E0,0E0,0E0,0E0,0E0,0E0,0E0,0E0,0E0,0E0,0E0,0E0,0E0,0E0,0E0,0E0,0E0,0E0,0E0,0E0,0E0],"parents":[2147483647,0,0,1,1,2,2,3,3,4,4,5,5,6,6,7,7,8,8,9,9,10,10,11,11,12,12,13,13,14,14,15,15,16,16,17,17,19,19,21,21,22,22,23,23,25,25,27,27,28,28,29,29,30,30],"right_children":[2,4,6,8,10,12,14,16,18,20,22,24,26,28,30,32,34,36,-1,38,-1,40,42,44,-1,46,-1,48,50,52,54,-1,-1,-1,-1,-1,-1,-1,-1,-1,-1,-1,-1,-1,-1,-1,-1,-1,-1,-1,-1,-1,-1,-1,-1],"split_conditions":[3.4119618E-1,1E0,1E0,1.6351022E0,1.6351022E0,1E0,1E0,1E0,1E0,1E0,1E0,1E0,1E0,1E0,1E0,1E0,1E0,1E0,4.723489E-3,1E0,5.4143183E-3,1E0,1E0,1E0,4.9710055E-3,1E0,3.7174933E-3,1E0,2.876857E-1,1E0,1E0,3.696004E-3,6.881412E-3,3.349894E-3,2.6245387E-3,2.0185967E-3,5.916722E-3,1.9320687E-3,5.1413695E-3,1.6215642E-3,8.2720624E-4,4.7564256E-4,3.934289E-3,6.027207E-4,4.4809855E-3,3.0161926E-4,-3.671486E-4,-7.83035E-4,2.109048E-3,2.8666633E-3,7.76276E-4,-1.0822383E-3,2.7779657E-3,-1.7516995E-3,3.001973E-3],"split_indices":[3,5,5,27,27,7,4,7,34,45,4,45,36,45,7,46,4,37,0,34,0,7,42,34,0,4,0,35,26,45,43,0,0,0,0,0,0,0,0,0,0,0,0,0,0,0,0,0,0,0,0,0,0,0,0],"split_type":[0,0,0,0,0,0,0,0,0,0,0,0,0,0,0,0,0,0,0,0,0,0,0,0,0,0,0,0,0,0,0,0,0,0,0,0,0,0,0,0,0,0,0,0,0,0,0,0,0,0,0,0,0,0,0],"sum_hessian":[3.9965E4,4.075E3,3.589E4,2.359E3,1.716E3,2.0207E4,1.5683E4,1.643E3,7.16E2,1.284E3,4.32E2,1.0112E4,1.0095E4,7.785E3,7.898E3,7.97E2,8.46E2,6.96E2,2E1,1.273E3,1.1E1,2.11E2,2.21E2,1.0053E4,5.9E1,1.0016E4,7.9E1,7.716E3,6.9E1,3.899E3,3.999E3,7.89E2,8E0,4.28E2,4.18E2,6.89E2,7E0,1.26E3,1.3E1,1.01E2,1.1E2,2.18E2,3E0,9.978E3,7.5E1,5.109E3,4.907E3,7.61E3,1.06E2,6.8E1,1E0,3.866E3,3.3E1,3.979E3,2E1],"tree_param":{"num_deleted":"0","num_feature":"48","num_nodes":"55","size_leaf_vector":"1"}},{"base_weights":[1.0823918E-4,4.645672E-2,-5.2150944E-3,5.6564033E-2,3.2886695E-2,6.245193E-3,-1.9833593E-2,6.37402E-2,4.0101063E-2,3.7453625E-2,1.8406387E-2,5.6273276E-3,7.1844295E-2,-1.3292193E-2,-2.6310354E-2,7.0922814E-2,5.7039175E-2,3.9212994E-2,5.280273E-3,3.6963813E-2,5.7009794E-3,1.6919311E-2,3.6283021E-3,5.138143E-3,4.372172E-3,6.50733E-2,4.431217E-3,-6.933257E-3,-1.9597547E-2,-2.6930625E-2,4.0537912E-2,3.506538E-3,6.575572E-3,3.1780198E-3,2.5199824E-3,2.331313E-3,1.5802322E-3,1.8254854E-3,5.8689746E-3,8.048601E-4,4.039204E-3,2.2997362E-4,4.0273047E-3,3.6270984E-3,2.8093744E-3,-3.6759683E-4,4.1838633E-3,-1.0222591E-3,1.7229117E-3,-1.375887E-3,2.2348075E-3,2.5204825E-3,1.5319616E-3],"categories":[],"categories_nodes":[],"categories_segments":[],"categories_sizes":[],"default_left":[0,0,0,0,0,0,0,0,0,0,0,0,0,0,0,0,0,0,0,0,0,0,0,0,0,0,0,0,0,0,0,0,0,0,0,0,0,0,0,0,0,0,0,0,0,0,0,0,0,0,0,0,0],"id":28,"left_children":[1,3,5,7,9,11,13,15,17,19,21,23,25,27,29,31,33,35,-1,37,-1,39,-1,41,-1,43,-1,45,47,49,51,-1,-1,-1,-1,-1,-1,-1,-1,-1,-1,-1,-1,-1,-1,-1,-1,-1,-1,-1,-1,-1,-1],"loss_changes":[9.838292E0,5.615778E-1,5.992247E0,2.7542973E-1,1.1543596E-1,8.1225044E-1,6.65576E-1,7.47447E-2,3.756857E-2,4.5814276E-2,3.284046E-2,7.9457116E-1,1.5479386E-2,3.134898E-1,3.285327E-1,2.849698E-2,3.36864E-2,3.8515925E-2,0E0,4.4172764E-2,0E0,2.0383716E-2,0E0,8.0175334E-1,0E0,5.016148E-3,0E0,1.4841667E-1,1.8063784E-1,3.3029604E-1,5.588837E-3,0E0,0E0,0E0,0E0,0E0,0E0,0E0,0E0,0E0,0E0,0E0,0E0,0E0,0E0,0E0,0E0,0E0,0E0,0E0,0E0,0E0,0E0],"parents":[2147483647,0,0,1,1,2,2,3,3,4,4,5,5,6,6,7,7,8,8,9,9,10,10,11,11,12,12,13,13,14,14,15,15,16,16,17,17,19,19,21,21,23,23,25,25,27,27,28,28,29,29,30,30],"right_children":[2,4,6,8,10,12,14,16,18,20,22,24,26,28,30,32,34,36,-1,38,-1,40,-1,42,-1,44,-1,46,48,50,52,-1,-1,-1,-1,-1,-1,-1,-1,-1,-1,-1,-1,-1,-1,-1,-1,-1,-1,-1,-1,-1,-1],"split_conditions":[3.4119618E-1,1E0,1E0,1.6351022E0,1.6351022E0,1E0,1E0,1E0,1E0,1E0,1E0,1E0,1E0,1E0,1E0,1E0,1E0,1E0,5.280273E-3,1E0,5.7009794E-3,1E0,3.6283021E-3,1E0,4.372172E-3,1E0,4.431217E-3,1E0,1E0,1E0,1E0,3.506538E-3,6.575572E-3,3.1780198E-3,2.5199824E-3,2.331313E-3,1.5802322E-3,1.8254854E-3,5.8689746E-3,8.048601E-4,4.039204E-3,2.2997362E-4,4.0273047E-3,3.6270984E-3,2.8093744E-3,-3.6759683E-4,4.1838633E-3,-1.0222591E-3,1.7229117E-3,-1.375887E-3,2.2348075E-3,2.5204825E-3,1.5319616E-3],"split_indices":[3,5,5,27,27,35,7,7,36,38,38,45,30,4,38,46,4,7,0,36,0,42,0,36,0,7,0,46,35,45,4,0,0,0,0,0,0,0,0,0,0,0,0,0,0,0,0,0,0,0,0,0,0],"split_type":[0,0,0,0,0,0,0,0,0,0,0,0,0,0,0,0,0,0,0,0,0,0,0,0,0,0,0,0,0,0,0,0,0,0,0,0,0,0,0,0,0,0,0,0,0,0,0,0,0,0,0,0,0],"sum_hessian":[3.9873E4,4.107E3,3.5766E4,2.352E3,1.755E3,2.0049E4,1.5717E4,1.636E3,7.16E2,1.333E3,4.22E2,1.9863E4,1.86E2,7.821E3,7.896E3,7.85E2,8.51E2,7.08E2,8E0,1.326E3,7E0,4.12E2,1E1,1.9746E4,1.17E2,1.36E2,5E1,3.895E3,3.926E3,7.824E3,7.2E1,7.77E2,8E0,4.25E2,4.26E2,3.56E2,3.52E2,1.32E3,6E0,4.08E2,4E0,1.9607E4,1.39E2,7E1,6.6E1,3.878E3,1.7E1,3.866E3,6E1,7.761E3,6.3E1,3.4E1,3.8E1],"tree_param":{"num_deleted":"0","num_feature":"48","num_nodes":"53","size_leaf_vector":"1"}},{"base_weights":[-9.176024E-5,4.384892E-2,-5.072132E-3,5.640156E-2,2.7513588E-2,7.299248E-3,-2.1426704E-2,6.745929E-2,4.2163078E-2,3.697116E-2,1.44837415E-2,1.855482E-2,-6.8586357E-3,-1.0420293E-2,-3.5721105E-2,7.3584676E-2,5.2468017E-2,4.7681164E-2,2.576683E-2,4.395667E-2,2.2173392E-2,1.8271003E-2,3.154675E-4,2.482712E-2,1.2018234E-2,-7.511776E-3,5.1338784E-2,-1.0886797E-2,4.117698E-3,-3.6579385E-2,2.0594075E-2,3.631347E-3,6.5153823E-3,2.5497626E-3,5.0930474E-3,2.7128037E-3,2.0568136E-3,1.2345643E-3,3.7517976E-3,2.1606346E-3,5.56126E-3,9.904485E-4,3.723229E-3,8.6990895E-4,4.430206E-3,-8.957738E-5,3.278492E-3,1.2129676E-3,4.7863848E-3,5.652677E-4,3.9388495E-3,-7.1229355E-5,-6.75429E-4,2.843416E-3,2.1745558E-3,-5.6702323E-4,4.0503573E-3,-1.861381E-3,1.6455641E-3,1.2936655E-3,7.2931027E-4],"categories":[],"categories_nodes":[],"categories_segments":[],"categories_sizes":[],"default_left":[0,0,0,0,0,0,0,0,0,0,0,0,0,0,0,0,0,0,0,0,0,0,0,0,0,0,0,0,0,0,0,0,0,0,0,0,0,0,0,0,0,0,0,0,0,0,0,0,0,0,0,0,0,0,0,0,0,0,0,0,0],"id":29,"left_children":[1,3,5,7,9,11,13,15,17,19,21,23,25,27,29,31,33,35,37,39,41,43,45,47,49,51,53,55,-1,57,59,-1,-1,-1,-1,-1,-1,-1,-1,-1,-1,-1,-1,-1,-1,-1,-1,-1,-1,-1,-1,-1,-1,-1,-1,-1,-1,-1,-1,-1,-1],"loss_changes":[8.781216E0,8.360839E-1,7.292282E0,3.606968E-1,