{"learner":{"attributes":{"scikit_learn":"{\"_estimator_type\": \"regressor\"}"},"feature_names":[],"feature_types":[],"gradient_booster":{"model":{"gbtree_model_param":{"num_parallel_tree":"1","num_trees":"100"},"iteration_indptr":[0,1,2,3,4,5,6,7,8,9,10,11,12,13,14,15,16,17,18,19,20,21,22,23,24,25,26,27,28,29,30,31,32,33,34,35,36,37,38,39,40,41,42,43,44,45,46,47,48,49,50,51,52,53,54,55,56,57,58,59,60,61,62,63,64,65,66,67,68,69,70,71,72,73,74,75,76,77,78,79,80,81,82,83,84,85,86,87,88,89,90,91,92,93,94,95,96,97,98,99,100],"tree_info":[0,0,0,0,0,0,0,0,0,0,0,0,0,0,0,0,0,0,0,0,0,0,0,0,0,0,0,0,0,0,0,0,0,0,0,0,0,0,0,0,0,0,0,0,0,0,0,0,0,0,0,0,0,0,0,0,0,0,0,0,0,0,0,0,0,0,0,0,0,0,0,0,0,0,0,0,0,0,0,0,0,0,0,0,0,0,0,0,0,0,0,0,0,0,0,0,0,0,0,0],"trees":[{"base_weights":[-3.390066E-4,5.9348023E-3,-1.550581E-2,1.3961561E-2,-1.5201356E-2,-6.9190827E-3,-3.9242808E-2,2.4601907E-2,-1.2929885E-2,-7.5519853E-3,-3.5090175E-2,1.638046E-3,-3.1816475E-2,-3.3351175E-2,-6.2176395E-2,3.638413E-2,-5.111053E-3,-5.962133E-3,-2.82183E-2,-3.4709054E-4,-3.1677313E-2,-3.996973E-2,3.5932695E-3,1.2270014E-2,-2.7238507E-2,-2.9494537E-2,-8.271787E-2,-2.5723362E-2,-4.557415E-2,-6.523928E-2,1.9806833E-3,4.323707E-3,1.9952354E-3,-3.0129086E-4,-6.100059E-3,8.012927E-4,-2.1070729E-3,-2.0402467E-3,-4.325924E-3,1.1735798E-3,-2.8599792E-3,-1.5535721E-3,-4.9416535E-3,-5.3669717E-3,-2.4325028E-3,3.6462024E-3,-1.4019206E-3,2.5320305E-3,-2.2867143E-3,-2.1676838E-3,-4.9174787E-3,-2.4710728E-3,-4.9958755E-3,-9.297675E-3,-3.2344462E-5,-4.4601564E-3,-9.6518866E-4,-2.0405084E-3,-6.8272175E-3,-7.1344483E-3,-1.663746E-3],"categories":[],"categories_nodes":[],"categories_segments":[],"categories_sizes":[],"default_left":[0,0,0,0,0,0,0,0,0,0,0,0,0,0,0,0,0,0,0,0,0,0,0,0,0,0,0,0,0,0,0,0,0,0,0,0,0,0,0,0,0,0,0,0,0,0,0,0,0,0,0,0,0,0,0,0,0,0,0,0,0],"id":0,"left_children":[1,3,5,7,9,11,13,15,17,19,21,23,25,27,29,31,33,35,37,39,41,43,45,47,49,51,53,55,57,59,-1,-1,-1,-1,-1,-1,-1,-1,-1,-1,-1,-1,-1,-1,-1,-1,-1,-1,-1,-1,-1,-1,-1,-1,-1,-1,-1,-1,-1,-1,-1],"loss_changes":[3.78518E-1,4.7762096E-1,2.3697859E-1,5.84032E-1,1.17641136E-1,1.8242308E-1,3.9677262E-2,5.120099E-1,6.1510243E-2,9.750228E-2,4.0726632E-2,1.9620952E-1,2.3443878E-2,2.1949857E-2,1.6860709E-2,1.1703563E-1,4.8598167E-2,8.44151E-2,2.0395294E-2,1.4815067E-1,3.617005E-2,3.9631963E-2,1.4983672E-2,2.1472192E-1,1.9918442E-2,1.9421741E-2,7.5773858E-3,4.6596594E-2,5.2307963E-2,1.6616404E-2,0E0,0E0,0E0,0E0,0E0,0E0,0E0,0E0,0E0,0E0,0E0,0E0,0E0,0E0,0E0,0E0,0E0,0E0,0E0,0E0,0E0,0E0,0E0,0E0,0E0,0E0,0E0,0E0,0E0,0E0,0E0],"parents":[2147483647,0,0,1,1,2,2,3,3,4,4,5,5,6,6,7,7,8,8,9,9,10,10,11,11,12,12,13,13,14,14,15,15,16,16,17,17,18,18,19,19,20,20,21,21,22,22,23,23,24,24,25,25,26,26,27,27,28,28,29,29],"right_children":[2,4,6,8,10,12,14,16,18,20,22,24,26,28,30,32,34,36,38,40,42,44,46,48,50,52,54,56,58,60,-1,-1,-1,-1,-1,-1,-1,-1,-1,-1,-1,-1,-1,-1,-1,-1,-1,-1,-1,-1,-1,-1,-1,-1,-1,-1,-1,-1,-1,-1,-1],"split_conditions":[1E0,1E0,1E0,1E0,1E0,1E0,1E0,1E0,1E0,1E0,1E0,1E0,8.894737E-1,1E0,8.473684E-1,1E0,1E0,1E0,1E0,1E0,1E0,7.526316E-1,7.2105265E-1,1E0,1E0,1E0,1E0,1E0,1E0,1E0,1.9806833E-3,4.323707E-3,1.9952354E-3,-3.0129086E-4,-6.100059E-3,8.012927E-4,-2.1070729E-3,-2.0402467E-3,-4.325924E-3,1.1735798E-3,-2.8599792E-3,-1.5535721E-3,-4.9416535E-3,-5.3669717E-3,-2.4325028E-3,3.6462024E-3,-1.4019206E-3,2.5320305E-3,-2.2867143E-3,-2.1676838E-3,-4.9174787E-3,-2.4710728E-3,-4.9958755E-3,-9.297675E-3,-3.2344462E-5,-4.4601564E-3,-9.6518866E-4,-2.0405084E-3,-6.8272175E-3,-7.1344483E-3,-1.663746E-3],"split_indices":[48,136,3,92,47,91,31,4,135,135,157,135,1,2,133,91,41,90,4,91,134,1,133,47,171,21,47,134,90,107,0,0,0,0,0,0,0,0,0,0,0,0,0,0,0,0,0,0,0,0,0,0,0,0,0,0,0,0,0,0,0],"split_type":[0,0,0,0,0,0,0,0,0,0,0,0,0,0,0,0,0,0,0,0,0,0,0,0,0,0,0,0,0,0,0,0,0,0,0,0,0,0,0,0,0,0,0,0,0,0,0,0,0,0,0,0,0,0,0,0,0,0,0,0,0],"sum_hessian":[3.976E3,2.813E3,1.163E3,2.039E3,7.74E2,8.55E2,3.08E2,1.461E3,5.78E2,5.6E2,2.14E2,6.37E2,2.18E2,2.47E2,6.1E1,1.046E3,4.15E2,3.98E2,1.8E2,4.32E2,1.28E2,1.9E2,2.4E1,4.66E2,1.71E2,2.1E2,8E0,1.54E2,9.3E1,5.9E1,2E0,7.37E2,3.09E2,4.01E2,1.4E1,2.07E2,1.91E2,1.2E2,6E1,3.03E2,1.29E2,6.8E1,6E1,1E2,9E1,8E0,1.6E1,3.4E2,1.26E2,1.38E2,3.3E1,1.72E2,3.8E1,7E0,1E0,7E1,8.4E1,4.5E1,4.8E1,5.2E1,7E0],"tree_param":{"num_deleted":"0","num_feature":"176","num_nodes":"61","size_leaf_vector":"1"}},{"base_weights":[-3.6417245E-4,5.3173015E-3,-1.5112045E-2,1.269737E-2,-1.3704713E-2,-6.688524E-3,-3.5964392E-2,2.171511E-2,-1.1113397E-2,-4.788818E-3,-3.052506E-2,2.3201676E-3,-3.0904962E-2,-2.9838534E-2,-5.9349056E-2,3.5345E-2,1.3165551E-2,-2.3486093E-3,-3.0833269E-2,4.240857E-3,-2.7664175E-2,1.1412787E-4,-5.3796053E-2,1.2582973E-2,-2.444177E-2,-4.261675E-2,-1.9015457E-2,-3.684447E-2,-1.8860789E-2,-6.1439108E-2,4.3250324E-4,1.5498672E-3,4.7231857E-3,4.531873E-3,-6.071347E-4,5.189219E-4,-2.8323492E-3,-3.6259633E-3,-1.0498613E-4,1.4428366E-3,-2.2036792E-3,-5.1128673E-3,-1.9170666E-3,1.3862014E-3,-1.7200139E-3,-4.837539E-3,-8.685581E-3,1.9692758E-3,-1.5010419E-3,-4.3202466E-3,-1.2445761E-3,-2.5828623E-3,-6.0544335E-3,-1.4967486E-3,-6.7744157E-3,-5.1946826E-3,-2.1849235E-3,-6.982473E-3,-1.4322785E-3,-2.521091E-3,-6.625029E-3],"categories":[],"categories_nodes":[],"categories_segments":[],"categories_sizes":[],"default_left":[0,0,0,0,0,0,0,0,0,0,0,0,0,0,0,0,0,0,0,0,0,0,0,0,0,0,0,0,0,0,0,0,0,0,0,0,0,0,0,0,0,0,0,0,0,0,0,0,0,0,0,0,0,0,0,0,0,0,0,0,0],"id":1,"left_children":[1,3,5,7,9,11,13,15,17,19,21,23,25,27,29,31,33,35,37,39,41,43,45,47,49,51,53,55,57,59,-1,-1,-1,-1,-1,-1,-1,-1,-1,-1,-1,-1,-1,-1,-1,-1,-1,-1,-1,-1,-1,-1,-1,-1,-1,-1,-1,-1,-1,-1,-1],"loss_changes":[3.3322802E-1,4.032158E-1,1.9402859E-1,4.444955E-1,1.2027851E-1,1.7219868E-1,4.378295E-2,1.7444557E-1,9.827381E-2,1.08766325E-1,1.982213E-1,1.5850742E-1,2.8988555E-2,1.884006E-2,8.916065E-3,1.3562423E-1,5.7179445E-1,7.748568E-2,2.8244674E-2,1.0150997E-1,2.8714918E-2,2.904061E-2,2.411285E-2,8.210394E-2,3.547085E-2,3.064008E-2,2.0289298E-2,3.374034E-2,2.2358648E-2,9.310678E-3,0E0,0E0,0E0,0E0,0E0,0E0,0E0,0E0,0E0,0E0,0E0,0E0,0E0,0E0,0E0,0E0,0E0,0E0,0E0,0E0,0E0,0E0,0E0,0E0,0E0,0E0,0E0,0E0,0E0,0E0,0E0],"parents":[2147483647,0,0,1,1,2,2,3,3,4,4,5,5,6,6,7,7,8,8,9,9,10,10,11,11,12,12,13,13,14,14,15,15,16,16,17,17,18,18,19,19,20,20,21,21,22,22,23,23,24,24,25,25,26,26,27,27,28,28,29,29],"right_children":[2,4,6,8,10,12,14,16,18,20,22,24,26,28,30,32,34,36,38,40,42,44,46,48,50,52,54,56,58,60,-1,-1,-1,-1,-1,-1,-1,-1,-1,-1,-1,-1,-1,-1,-1,-1,-1,-1,-1,-1,-1,-1,-1,-1,-1,-1,-1,-1,-1,-1,-1],"split_conditions":[1E0,1E0,1E0,1E0,1E0,1E0,1E0,1E0,1E0,1E0,1E0,1E0,1E0,4E-1,1E0,1E0,1E0,1E0,1E0,1E0,6.9473684E-1,4E-1,1E0,1E0,1E0,1E0,1E0,1E0,1E-1,7E-1,4.3250324E-4,1.5498672E-3,4.7231857E-3,4.531873E-3,-6.071347E-4,5.189219E-4,-2.8323492E-3,-3.6259633E-3,-1.0498613E-4,1.4428366E-3,-2.2036792E-3,-5.1128673E-3,-1.9170666E-3,1.3862014E-3,-1.7200139E-3,-4.837539E-3,-8.685581E-3,1.9692758E-3,-1.5010419E-3,-4.3202466E-3,-1.2445761E-3,-2.5828623E-3,-6.0544335E-3,-1.4967486E-3,-6.7744157E-3,-5.1946826E-3,-2.1849235E-3,-6.982473E-3,-1.4322785E-3,-2.521091E-3,-6.625029E-3],"split_indices":[3,135,48,91,134,136,31,134,136,92,90,92,93,0,57,90,90,92,104,48,1,44,78,4,93,5,143,134,1,45,0,0,0,0,0,0,0,0,0,0,0,0,0,0,0,0,0,0,0,0,0,0,0,0,0,0,0,0,0,0,0],"split_type":[0,0,0,0,0,0,0,0,0,0,0,0,0,0,0,0,0,0,0,0,0,0,0,0,0,0,0,0,0,0,0,0,0,0,0,0,0,0,0,0,0,0,0,0,0,0,0,0,0,0,0,0,0,0,0,0,0,0,0,0,0],"sum_hessian":[3.975E3,2.87E3,1.105E3,2.068E3,8.02E2,7.88E2,3.17E2,1.5E3,5.68E2,5.25E2,2.77E2,5.75E2,2.13E2,2.53E2,6.4E1,5.77E2,9.23E2,3.94E2,1.74E2,3.77E2,1.48E2,1.2E2,1.57E2,4.16E2,1.59E2,1.06E2,1.07E2,1.53E2,1E2,6.2E1,2E0,2.17E2,3.6E2,3.45E2,5.78E2,3.06E2,8.8E1,1.47E2,2.7E1,2.72E2,1.05E2,3.8E1,1.1E2,6.7E1,5.3E1,1.37E2,2E1,3.31E2,8.5E1,6.1E1,9.8E1,5.6E1,5E1,1E2,7E0,7.5E1,7.8E1,7E0,9.3E1,8E0,5.4E1],"tree_param":{"num_deleted":"0","num_feature":"176","num_nodes":"61","size_leaf_vector":"1"}},{"base_weights":[-5.9702754E-4,4.58971E-3,-1.3543002E-2,1.1735594E-2,-1.2750532E-2,-6.109073E-3,-3.3773385E-2,2.049713E-2,-1.0932008E-2,-6.006145E-3,-2.8356547E-2,1.3101904E-3,-2.6642686E-2,-3.899172E-2,-1.0110343E-2,3.0618358E-2,-6.292031E-3,-2.2523599E-3,-1.9603698E-2,1.6460461E-3,-2.4542129E-2,-2.9740347E-2,3.333598E-2,8.942064E-3,-2.1349218E-2,-3.0685507E-2,2.6085866E-3,-3.1923298E-2,-6.208396E-2,-4.2060907E-3,-5.1682703E-2,3.5148996E-3,2.0724337E-3,1.2605287E-4,-2.1406559E-3,-2.2339325E-3,1.2369993E-3,3.2149398E-4,-3.7419584E-3,1.1969579E-3,-2.2127528E-3,-2.7432775E-3,1.6044967E-3,-2.6295094E-3,-5.5748033E-3,3.702753E-3,7.4391067E-4,1.9819378E-3,-1.9991768E-3,-1.7442976E-3,-6.6770534E-3,-3.3483305E-3,8.0775254E-4,2.4969326E-3,-2.1535677E-3,-2.5906905E-3,-5.3223334E-3,-3.6679895E-3,-7.773006E-3,-9.789945E-4,2.293967E-3,-7.3056007E-3,1.1670292E-4],"categories":[],"categories_nodes":[],"categories_segments":[],"categories_sizes":[],"default_left":[0,0,0,0,0,0,0,0,0,0,0,0,0,0,0,0,0,0,0,0,0,0,0,0,0,0,0,0,0,0,0,0,0,0,0,0,0,0,0,0,0,0,0,0,0,0,0,0,0,0,0,0,0,0,0,0,0,0,0,0,0,0,0],"id":2,"left_children":[1,3,5,7,9,11,13,15,17,19,21,23,25,27,29,31,33,35,37,39,41,43,45,47,49,51,53,55,57,59,61,-1,-1,-1,-1,-1,-1,-1,-1,-1,-1,-1,-1,-1,-1,-1,-1,-1,-1,-1,-1,-1,-1,-1,-1,-1,-1,-1,-1,-1,-1,-1,-1],"loss_changes":[2.69256E-1,3.5490787E-1,1.7229244E-1,4.0299094E-1,8.78212E-2,1.2800409E-1,3.7638098E-2,3.968693E-1,4.255709E-2,8.301731E-2,2.2504672E-2,1.0706395E-1,2.6451498E-2,3.9150923E-2,1.3773479E-2,4.6877146E-2,4.591663E-2,8.369245E-2,1.1516948E-1,1.02117166E-1,2.0502366E-2,2.0666063E-2,2.9814616E-4,1.4611268E-1,2.6513875E-2,2.1526903E-2,1.565447E-2,2.3610294E-2,2.0202413E-2,7.955055E-3,7.992273E-3,0E0,0E0,0E0,0E0,0E0,0E0,0E0,0E0,0E0,0E0,0E0,0E0,0E0,0E0,0E0,0E0,0E0,0E0,0E0,0E0,0E0,0E0,0E0,0E0,0E0,0E0,0E0,0E0,0E0,0E0,0E0,0E0],"parents":[2147483647,0,0,1,1,2,2,3,3,4,4,5,5,6,6,7,7,8,8,9,9,10,10,11,11,12,12,13,13,14,14,15,15,16,16,17,17,18,18,19,19,20,20,21,21,22,22,23,23,24,24,25,25,26,26,27,27,28,28,29,29,30,30],"right_children":[2,4,6,8,10,12,14,16,18,20,22,24,26,28,30,32,34,36,38,40,42,44,46,48,50,52,54,56,58,60,62,-1,-1,-1,-1,-1,-1,-1,-1,-1,-1,-1,-1,-1,-1,-1,-1,-1,-1,-1,-1,-1,-1,-1,-1,-1,-1,-1,-1,-1,-1,-1,-1],"split_conditions":[1E0,1E0,1E0,1E0,1E0,1E0,1E0,1E0,1E0,1E0,1E0,1E0,1E0,1E0,1E0,1E0,1E0,1E0,1E0,1E0,1E0,1E0,1E0,1E0,1E0,1E0,1E0,1E0,7.368421E-1,1E0,6.9473684E-1,3.5148996E-3,2.0724337E-3,1.2605287E-4,-2.1406559E-3,-2.2339325E-3,1.2369993E-3,3.2149398E-4,-3.7419584E-3,1.1969579E-3,-2.2127528E-3,-2.7432775E-3,1.6044967E-3,-2.6295094E-3,-5.5748033E-3,3.702753E-3,7.4391067E-4,1.9819378E-3,-1.9991768E-3,-1.7442976E-3,-6.6770534E-3,-3.3483305E-3,8.0775254E-4,2.4969326E-3,-2.1535677E-3,-2.5906905E-3,-5.3223334E-3,-3.6679895E-3,-7.773006E-3,-9.789945E-4,2.293967E-3,-7.3056007E-3,1.1670292E-4],"split_indices":[48,4,3,92,135,91,171,136,90,91,88,47,94,91,111,3,3,46,46,47,99,81,57,135,25,139,46,31,133,94,133,0,0,0,0,0,0,0,0,0,0,0,0,0,0,0,0,0,0,0,0,0,0,0,0,0,0,0,0,0,0,0,0],"split_type":[0,0,0,0,0,0,0,0,0,0,0,0,0,0,0,0,0,0,0,0,0,0,0,0,0,0,0,0,0,0,0,0,0,0,0,0,0,0,0,0,0,0,0,0,0,0,0,0,0,0,0,0,0,0,0,0,0,0,0,0,0,0,0],"sum_hessian":[4.008E3,2.862E3,1.146E3,2.027E3,8.35E2,8.39E2,3.07E2,1.462E3,5.65E2,5.84E2,2.51E2,6.17E2,2.22E2,2.51E2,5.6E1,1.061E3,4.01E2,2.83E2,2.82E2,4.14E2,1.7E2,2.46E2,5E0,4.62E2,1.55E2,1.95E2,2.7E1,1.94E2,5.7E1,5E1,6E0,7.26E2,3.35E2,2.68E2,1.33E2,1.19E2,1.64E2,1.24E2,1.58E2,2.89E2,1.25E2,1.59E2,1.1E1,2.19E2,2.7E1,4E0,1E0,3.36E2,1.26E2,1.44E2,1.1E1,1.82E2,1.3E1,1.4E1,1.3E1,1.53E2,4.1E1,2.3E1,3.4E1,4.2E1,8E0,4E0,2E0],"tree_param":{"num_deleted":"0","num_feature":"176","num_nodes":"63","size_leaf_vector":"1"}},{"base_weights":[-2.267386E-4,4.256172E-3,-1.2216474E-2,1.020026E-2,-1.0741498E-2,-6.1059436E-3,-2.9057195E-2,1.8873306E-2,2.3899924E-3,-4.185865E-3,-2.6047492E-2,9.937682E-4,-2.4380285E-2,-2.1305412E-2,-3.876216E-2,6.2550576E-3,2.9707616E-2,2.6217576E-2,-1.7668875E-2,3.6741025E-3,-2.4810588E-2,-2.8188132E-2,1.4981655E-2,8.992296E-3,-1.7417582E-2,-1.8324127E-2,-4.1908536E-2,-3.37849E-2,-1.3388617E-2,-4.857143E-2,-2.29997E-2,1.7227916E-3,-2.4286371E-3,3.2229654E-3,1.1950276E-3,2.3624883E-3,6.6481084E-3,-1.4445352E-3,-4.6439813E-3,1.2981768E-3,-1.9935935E-3,-2.0347706E-3,-6.3983733E-3,-3.324826E-3,-7.571202E-4,2.4164482E-3,-4.7606127E-3,1.6619777E-3,-1.5731782E-3,-2.0216971E-3,2.2525515E-3,-2.0229307E-3,3.6804776E-3,-5.7735057E-3,-1.6002592E-3,-4.9310997E-3,-1.3881511E-3,-4.224515E-3,-3.96808E-4,-5.1422413E-3,1.7027349E-3,-4.0669735E-3,-5.786721E-4],"categories":[],"categories_nodes":[],"categories_segments":[],"categories_sizes":[],"default_left":[0,0,0,0,0,0,0,0,0,0,0,0,0,0,0,0,0,0,0,0,0,0,0,0,0,0,0,0,0,0,0,0,0,0,0,0,0,0,0,0,0,0,0,0,0,0,0,0,0,0,0,0,0,0,0,0,0,0,0,0,0,0,0],"id":3,"left_children":[1,3,5,7,9,11,13,15,17,19,21,23,25,27,29,31,33,35,37,39,41,43,45,47,49,51,53,55,57,59,61,-1,-1,-1,-1,-1,-1,-1,-1,-1,-1,-1,-1,-1,-1,-1,-1,-1,-1,-1,-1,-1,-1,-1,-1,-1,-1,-1,-1,-1,-1,-1,-1],"loss_changes":[2.160689E-1,2.6095507E-1,1.12401456E-1,1.4193545E-1,8.327391E-2,1.0433725E-1,2.1066323E-2,1.3556722E-1,5.281248E-1,9.460109E-2,2.229163E-2,8.556956E-2,2.3116678E-2,1.575046E-2,1.8674001E-2,1.5457672E-1,2.3529887E-2,5.1146835E-2,5.497539E-2,9.3214884E-2,2.6844919E-2,2.4473146E-2,8.621902E-3,7.663734E-2,2.0135079E-2,1.849467E-2,2.2446156E-2,1.8783875E-2,2.7560456E-2,1.5463233E-2,1.5276499E-2,0E0,0E0,0E0,0E0,0E0,0E0,0E0,0E0,0E0,0E0,0E0,0E0,0E0,0E0,0E0,0E0,0E0,0E0,0E0,0E0,0E0,0E0,0E0,0E0,0E0,0E0,0E0,0E0,0E0,0E0,0E0,0E0],"parents":[2147483647,0,0,1,1,2,2,3,3,4,4,5,5,6,6,7,7,8,8,9,9,10,10,11,11,12,12,13,13,14,14,15,15,16,16,17,17,18,18,19,19,20,20,21,21,22,22,23,23,24,24,25,25,26,26,27,27,28,28,29,29,30,30],"right_children":[2,4,6,8,10,12,14,16,18,20,22,24,26,28,30,32,34,36,38,40,42,44,46,48,50,52,54,56,58,60,62,-1,-1,-1,-1,-1,-1,-1,-1,-1,-1,-1,-1,-1,-1,-1,-1,-1,-1,-1,-1,-1,-1,-1,-1,-1,-1,-1,-1,-1,-1,-1,-1],"split_conditions":[1E0,1E0,1E0,1E0,1E0,1E0,4E-1,1E0,1E0,1E0,1E0,1E0,1E0,1E0,1E0,1E0,1E0,1E0,1E0,1E0,1E0,1E0,1E0,1E0,1E0,1E0,1E0,1E0,7.105263E-1,1E0,1E0,1.7227916E-3,-2.4286371E-3,3.2229654E-3,1.1950276E-3,2.3624883E-3,6.6481084E-3,-1.4445352E-3,-4.6439813E-3,1.2981768E-3,-1.9935935E-3,-2.0347706E-3,-6.3983733E-3,-3.324826E-3,-7.571202E-4,2.4164482E-3,-4.7606127E-3,1.6619777E-3,-1.5731782E-3,-2.0216971E-3,2.2525515E-3,-2.0229307E-3,3.6804776E-3,-5.7735057E-3,-1.6002592E-3,-4.9310997E-3,-1.3881511E-3,-4.224515E-3,-3.96808E-4,-5.1422413E-3,1.7027349E-3,-4.0669735E-3,-5.786721E-4],"split_indices":[91,47,48,2,92,136,132,134,134,136,162,4,47,42,84,92,157,156,165,4,68,84,11,92,99,122,134,2,1,155,93,0,0,0,0,0,0,0,0,0,0,0,0,0,0,0,0,0,0,0,0,0,0,0,0,0,0,0,0,0,0,0,0],"split_type":[0,0,0,0,0,0,0,0,0,0,0,0,0,0,0,0,0,0,0,0,0,0,0,0,0,0,0,0,0,0,0,0,0,0,0,0,0,0,0,0,0,0,0,0,0,0,0,0,0,0,0,0,0,0,0,0,0,0,0,0,0,0,0],"sum_hessian":[4.018E3,2.925E3,1.093E3,2.095E3,8.3E2,8.03E2,2.9E2,9.92E2,1.103E3,5.82E2,2.48E2,5.79E2,2.24E2,1.63E2,1.27E2,4.59E2,5.33E2,5.04E2,5.99E2,4.22E2,1.6E2,2.36E2,1.2E1,4.04E2,1.75E2,1.68E2,5.6E1,6.2E1,1.01E2,7.7E1,5E1,3.38E2,1.21E2,4.66E2,6.7E1,4.75E2,2.9E1,5.4E2,5.9E1,3.03E2,1.19E2,1.45E2,1.5E1,1.89E2,4.7E1,1.1E1,1E0,3.09E2,9.5E1,1.64E2,1.1E1,1.63E2,5E0,3.4E1,2.2E1,3.4E1,2.8E1,2.4E1,7.7E1,7.4E1,3E0,2.4E1,2.6E1],"tree_param":{"num_deleted":"0","num_feature":"176","num_nodes":"63","size_leaf_vector":"1"}},{"base_weights":[-2.9852227E-4,4.447813E-3,-1.2477691E-2,9.769135E-3,-8.757801E-3,-7.757902E-3,-2.5530312E-2,1.5074729E-2,-2.0419948E-3,-2.6789315E-3,-2.3502447E-2,-4.7820588E-4,-2.3726234E-2,-9.908775E-3,-3.0763226E-2,2.1539653E-2,-7.1057555E-5,4.969966E-4,-2.0756893E-2,4.782158E-3,-2.2070484E-2,-2.6322648E-2,1.5206244E-2,3.7170537E-3,-2.2754382E-2,-3.2909207E-2,-1.443139E-2,4.4055103E-4,-4.097994E-2,-3.7331276E-2,-1.5011295E-2,3.012548E-3,-1.8545995E-4,8.903264E-4,-9.1726397E-4,-4.6474725E-4,1.0176603E-3,-1.175369E-3,-4.7147884E-3,1.2670227E-3,-1.5075322E-3,-1.9012655E-3,-7.893934E-3,-2.972294E-3,6.403835E-4,2.653631E-3,-9.988259E-4,-1.7002512E-3,6.6751847E-4,-2.7928061E-3,1.6940968E-3,-3.7322359E-3,1.3229192E-3,-2.8635352E-3,-3.9623212E-4,9.405178E-4,-2.3679417E-3,-9.400404E-4,-6.3092294E-3,-2.483128E-3,-5.050019E-3,-9.672497E-4,-7.92779E-3],"categories":[],"categories_nodes":[],"categories_segments":[],"categories_sizes":[],"default_left":[0,0,0,0,0,0,0,0,0,0,0,0,0,0,0,0,0,0,0,0,0,0,0,0,0,0,0,0,0,0,0,0,0,0,0,0,0,0,0,0,0,0,0,0,0,0,0,0,0,0,0,0,0,0,0,0,0,0,0,0,0,0,0],"id":4,"left_children":[1,3,5,7,9,11,13,15,17,19,21,23,25,27,29,31,33,35,37,39,41,43,45,47,49,51,53,55,57,59,61,-1,-1,-1,-1,-1,-1,-1,-1,-1,-1,-1,-1,-1,-1,-1,-1,-1,-1,-1,-1,-1,-1,-1,-1,-1,-1,-1,-1,-1,-1,-1,-1],"loss_changes":[2.3087654E-1,2.0204535E-1,6.880024E-2,1.2843148E-1,7.397205E-2,9.57742E-2,2.3973778E-2,1.3845524E-1,3.0231107E-2,8.4889255E-2,2.6709348E-2,5.307319E-2,2.1546483E-2,2.445704E-2,2.2407621E-2,1.9910711E-1,3.4714207E-2,2.7983094E-2,1.7503697E-2,6.6605166E-2,2.684407E-2,2.5228277E-2,5.1177917E-3,2.9410686E-2,1.8956523E-2,2.676016E-2,1.9217828E-2,1.2763847E-2,1.2674566E-2,2.4425372E-2,2.2221323E-2,0E0,0E0,0E0,0E0,0E0,0E0,0E0,0E0,0E0,0E0,0E0,0E0,0E0,0E0,0E0,0E0,0E0,0E0,0E0,0E0,0E0,0E0,0E0,0E0,0E0,0E0,0E0,0E0,0E0,0E0,0E0,0E0],"parents":[2147483647,0,0,1,1,2,2,3,3,4,4,5,5,6,6,7,7,8,8,9,9,10,10,11,11,12,12,13,13,14,14,15,15,16,16,17,17,18,18,19,19,20,20,21,21,22,22,23,23,24,24,25,25,26,26,27,27,28,28,29,29,30,30],"right_children":[2,4,6,8,10,12,14,16,18,20,22,24,26,28,30,32,34,36,38,40,42,44,46,48,50,52,54,56,58,60,62,-1,-1,-1,-1,-1,-1,-1,-1,-1,-1,-1,-1,-1,-1,-1,-1,-1,-1,-1,-1,-1,-1,-1,-1,-1,-1,-1,-1,-1,-1,-1,-1],"split_conditions":[1E0,1E0,1E0,1E0,1E0,1E0,7.2105265E-1,1E0,1E0,1E0,1E0,1E0,7.526316E-1,1E0,7.631579E-1,1E0,1E0,7.736842E-1,8E-1,1E0,8.3157897E-1,1E0,1E0,6.105263E-1,1E0,1E0,1E0,7.5789475E-1,1E0,7.473684E-1,1E0,3.012548E-3,-1.8545995E-4,8.903264E-4,-9.1726397E-4,-4.6474725E-4,1.0176603E-3,-1.175369E-3,-4.7147884E-3,1.2670227E-3,-1.5075322E-3,-1.9012655E-3,-7.893934E-3,-2.972294E-3,6.403835E-4,2.653631E-3,-9.988259E-4,-1.7002512E-3,6.6751847E-4,-2.7928061E-3,1.6940968E-3,-3.7322359E-3,1.3229192E-3,-2.8635352E-3,-3.9623212E-4,9.405178E-4,-2.3679417E-3,-9.400404E-4,-6.3092294E-3,-2.483128E-3,-5.050019E-3,-9.672497E-4,-7.92779E-3],"split_indices":[91,47,48,48,92,4,89,92,161,48,94,113,89,108,45,4,90,89,45,4,1,157,73,133,155,104,42,1,134,133,103,0,0,0,0,0,0,0,0,0,0,0,0,0,0,0,0,0,0,0,0,0,0,0,0,0,0,0,0,0,0,0,0],"split_type":[0,0,0,0,0,0,0,0,0,0,0,0,0,0,0,0,0,0,0,0,0,0,0,0,0,0,0,0,0,0,0,0,0,0,0,0,0,0,0,0,0,0,0,0,0,0,0,0,0,0,0,0,0,0,0,0,0,0,0,0,0,0,0],"sum_hessian":[3.992E3,2.873E3,1.119E3,2.048E3,8.25E2,8.23E2,2.96E2,1.413E3,6.35E2,5.85E2,2.4E2,5.66E2,2.57E2,7.5E1,2.21E2,9.9E2,4.23E2,5.6E2,7.5E1,4.23E2,1.62E2,2.24E2,1.6E1,4.77E2,8.9E1,1.28E2,1.29E2,5.7E1,1.8E1,1.55E2,6.6E1,7.24E2,2.66E2,2.13E2,2.1E2,3.66E2,1.94E2,5.7E1,1.8E1,3.03E2,1.2E2,1.55E2,7E0,2.03E2,2.1E1,1.1E1,5E0,5.9E1,4.18E2,7.9E1,1E1,1.17E2,1.1E1,5.4E1,7.5E1,4.2E1,1.5E1,8E0,1E1,8.1E1,7.4E1,6.2E1,4E0],"tree_param":{"num_deleted":"0","num_feature":"176","num_nodes":"63","size_leaf_vector":"1"}},{"base_weights":[3.0853564E-4,3.942016E-3,-9.079588E-3,9.689775E-3,-1.03074815E-2,-7.4338457E-3,-3.184531E-2,1.7288279E-2,-8.704094E-3,-7.849505E-3,-2.858696E-2,-9.344401E-3,6.419799E-3,-3.2257168E-3,-5.3068593E-2,2.6301974E-2,-6.328903E-3,-2.3633365E-3,-1.5609076E-2,-1.4339201E-3,-1.4676709E-2,-3.321814E-2,7.3713562E-3,-7.701339E-3,-2.381947E-2,9.852733E-3,-7.931436E-3,-1.5473508E-2,2.267655E-2,-2.3923044E-3,-8.301038E-2,2.4008686E-3,3.7841739E-3,4.2120606E-4,-1.5383426E-3,-2.0900127E-3,1.2972642E-3,4.5791175E-4,-3.1118912E-3,-2.0138116E-3,1.4039906E-3,1.0324477E-3,-3.6442603E-3,-5.041789E-3,-2.1773523E-3,3.2678607E-3,-2.3382332E-3,-1.3072443E-3,-2.7370165E-4,-3.4441256E-3,-3.6568345E-5,1.6433953E-3,-3.5186291E-3,1.3208949E-3,-3.1651414E-3,2.6519976E-3,3.5874147E-4,3.349591E-3,-2.501278E-3,-4.0273373E-3,-1.0578078E-2],"categories":[],"categories_nodes":[],"categories_segments":[],"categories_sizes":[],"default_left":[0,0,0,0,0,0,0,0,0,0,0,0,0,0,0,0,0,0,0,0,0,0,0,0,0,0,0,0,0,0,0,0,0,0,0,0,0,0,0,0,0,0,0,0,0,0,0,0,0,0,0,0,0,0,0,0,0,0,0,0,0],"id":5,"left_children":[1,3,5,7,9,11,13,15,17,19,21,23,25,27,29,31,33,35,37,39,41,43,45,47,49,51,-1,53,55,57,59,-1,-1,-1,-1,-1,-1,-1,-1,-1,-1,-1,-1,-1,-1,-1,-1,-1,-1,-1,-1,-1,-1,-1,-1,-1,-1,-1,-1,-1,-1],"loss_changes":[1.3655028E-1,2.3647104E-1,4.1613333E-2,2.8764886E-1,3.7067942E-2,2.7666263E-2,4.538396E-2,3.1011704E-1,2.6320364E-2,3.208472E-2,1.6564757E-2,2.1625958E-2,3.8160075E-2,1.081999E-2,6.504698E-2,2.6984513E-2,3.8528476E-2,8.9819275E-2,9.031978E-2,1.09974995E-1,1.9355772E-1,1.6027704E-2,1.0103596E-2,2.1961942E-2,2.3155663E-2,3.703689E-2,0E0,1.1090591E-2,7.1190624E-4,1.4638569E-2,2.2014588E-2,0E0,0E0,0E0,0E0,0E0,0E0,0E0,0E0,0E0,0E0,0E0,0E0,0E0,0E0,0E0,0E0,0E0,0E0,0E0,0E0,0E0,0E0,0E0,0E0,0E0,0E0,0E0,0E0,0E0,0E0],"parents":[2147483647,0,0,1,1,2,2,3,3,4,4,5,5,6,6,7,7,8,8,9,9,10,10,11,11,12,12,13,13,14,14,15,15,16,16,17,17,18,18,19,19,20,20,21,21,22,22,23,23,24,24,25,25,27,27,28,28,29,29,30,30],"right_children":[2,4,6,8,10,12,14,16,18,20,22,24,26,28,30,32,34,36,38,40,42,44,46,48,50,52,-1,54,56,58,60,-1,-1,-1,-1,-1,-1,-1,-1,-1,-1,-1,-1,-1,-1,-1,-1,-1,-1,-1,-1,-1,-1,-1,-1,-1,-1,-1,-1,-1,-1],"split_conditions":[1E0,1E0,1E0,1E0,1E0,1E0,1E0,1E0,1E0,1E0,1E0,1E0,1E0,8E-1,1E0,1E0,1E0,1E0,1E0,1E0,1E0,1E0,4E-1,1E0,1E0,1E0,-7.931436E-3,7E-1,1E0,7.368421E-1,1E0,2.4008686E-3,3.7841739E-3,4.2120606E-4,-1.5383426E-3,-2.0900127E-3,1.2972642E-3,4.5791175E-4,-3.1118912E-3,-2.0138116E-3,1.4039906E-3,1.0324477E-3,-3.6442603E-3,-5.041789E-3,-2.1773523E-3,3.2678607E-3,-2.3382332E-3,-1.3072443E-3,-2.7370165E-4,-3.4441256E-3,-3.6568345E-5,1.6433953E-3,-3.5186291E-3,1.3208949E-3,-3.1651414E-3,2.6519976E-3,3.5874147E-4,3.349591E-3,-2.501278E-3,-4.0273373E-3,-1.0578078E-2],"split_indices":[136,48,150,92,161,21,90,4,90,46,14,126,173,1,46,21,2,46,46,2,2,2,44,49,40,125,0,1,66,133,2,0,0,0,0,0,0,0,0,0,0,0,0,0,0,0,0,0,0,0,0,0,0,0,0,0,0,0,0,0,0],"split_type":[0,0,0,0,0,0,0,0,0,0,0,0,0,0,0,0,0,0,0,0,0,0,0,0,0,0,0,0,0,0,0,0,0,0,0,0,0,0,0,0,0,0,0,0,0,0,0,0,0,0,0,0,0,0,0,0,0,0,0,0,0],"sum_hessian":[4.001E3,2.885E3,1.116E3,2.056E3,8.29E2,1.042E3,7.4E1,1.455E3,6.01E2,7.32E2,9.7E1,9.16E2,1.26E2,3.2E1,4.2E1,1.053E3,4.02E2,3.14E2,2.87E2,3.78E2,3.54E2,8.6E1,1.1E1,8.24E2,9.2E1,1.22E2,4E0,2.2E1,1E1,1.6E1,2.6E1,8.81E2,1.72E2,1.86E2,2.16E2,1.42E2,1.72E2,1.25E2,1.62E2,1.71E2,2.07E2,1.65E2,1.89E2,3.3E1,5.3E1,6E0,5E0,3.95E2,4.29E2,6.3E1,2.9E1,1.07E2,1.5E1,8E0,1.4E1,8E0,2E0,6E0,1E1,1E1,1.6E1],"tree_param":{"num_deleted":"0","num_feature":"176","num_nodes":"61","size_leaf_vector":"1"}},{"base_weights":[-1.1072975E-4,4.59511E-3,-1.2163816E-2,1.073018E-2,-1.1251252E-2,-7.670186E-3,-2.3043543E-2,1.869599E-2,-9.620985E-3,-3.7235934E-3,-2.6578635E-2,-2.3807506E-3,-2.1072054E-2,-1.872304E-2,-4.597326E-2,2.688953E-2,-1.69711E-3,-1.2530105E-2,1.2883761E-2,1.7239867E-3,-1.860292E-2,-2.3629257E-2,-7.3766395E-2,-5.98769E-4,-3.226592E-2,-3.2410037E-2,-1.21571375E-2,-2.1279076E-2,7.7907215E-3,-5.1881194E-2,-1.4260752E-3,4.3287682E-3,1.5280381E-3,5.3374763E-5,-2.9181223E-3,-2.306887E-3,-4.2739292E-4,1.9167208E-3,-2.9739244E-3,5.669584E-4,-1.6305555E-3,-1.4988416E-3,-6.0942983E-3,-1.6806461E-3,-4.083603E-3,-8.325098E-3,2.9508905E-3,-5.9640146E-4,8.077083E-4,-3.976002E-3,1.615423E-3,-2.738848E-3,-7.90245E-3,-9.7216386E-4,-6.9638984E-3,-2.465603E-3,4.5322563E-4,-1.2326398E-3,2.4477486E-3,-5.6195403E-3,6.388262E-4,-1.7388726E-3,2.56537E-3],"categories":[],"categories_nodes":[],"categories_segments":[],"categories_sizes":[],"default_left":[0,0,0,0,0,0,0,0,0,0,0,0,0,0,0,0,0,0,0,0,0,0,0,0,0,0,0,0,0,0,0,0,0,0,0,0,0,0,0,0,0,0,0,0,0,0,0,0,0,0,0,0,0,0,0,0,0,0,0,0,0,0,0],"id":6,"left_children":[1,3,5,7,9,11,13,15,17,19,21,23,25,27,29,31,33,35,37,39,41,43,45,47,49,51,53,55,57,59,61,-1,-1,-1,-1,-1,-1,-1,-1,-1,-1,-1,-1,-1,-1,-1,-1,-1,-1,-1,-1,-1,-1,-1,-1,-1,-1,-1,-1,-1,-1,-1,-1],"loss_changes":[2.2563092E-1,2.7826297E-1,5.443281E-2,3.3462006E-1,9.208911E-2,5.6093376E-2,3.1435385E-2,2.4784255E-1,3.819893E-2,4.3559317E-2,3.485985E-2,3.0282672E-2,2.2247277E-2,1.8870331E-2,1.3348281E-2,2.0074862E-1,2.6134975E-2,4.4711508E-2,1.8513914E-2,2.8120542E-2,2.1124084E-2,2.8545856E-2,1.7149493E-2,2.5091035E-2,1.2253985E-2,2.0775199E-2,1.7102608E-2,2.2076994E-2,8.6939605E-3,1.1671379E-2,3.4719403E-3,0E0,0E0,0E0,0E0,0E0,0E0,0E0,0E0,0E0,0E0,0E0,0E0,0E0,0E0,0E0,0E0,0E0,0E0,0E0,0E0,0E0,0E0,0E0,0E0,0E0,0E0,0E0,0E0,0E0,0E0,0E0,0E0],"parents":[2147483647,0,0,1,1,2,2,3,3,4,4,5,5,6,6,7,7,8,8,9,9,10,10,11,11,12,12,13,13,14,14,15,15,16,16,17,17,18,18,19,19,20,20,21,21,22,22,23,23,24,24,25,25,26,26,27,27,28,28,29,29,30,30],"right_children":[2,4,6,8,10,12,14,16,18,20,22,24,26,28,30,32,34,36,38,40,42,44,46,48,50,52,54,56,58,60,62,-1,-1,-1,-1,-1,-1,-1,-1,-1,-1,-1,-1,-1,-1,-1,-1,-1,-1,-1,-1,-1,-1,-1,-1,-1,-1,-1,-1,-1,-1,-1,-1],"split_conditions":[1E0,1E0,1E0,1E0,1E0,1E0,1E0,1E0,1E0,1E0,1E0,1E0,1E0,1E0,1E0,1E0,1E0,7.4210525E-1,1E0,8.105263E-1,1E0,1E0,1E0,7.631579E-1,6E-1,1E0,1E0,1E0,4E-1,1E0,1E0,4.3287682E-3,1.5280381E-3,5.3374763E-5,-2.9181223E-3,-2.306887E-3,-4.2739292E-4,1.9167208E-3,-2.9739244E-3,5.669584E-4,-1.6305555E-3,-1.4988416E-3,-6.0942983E-3,-1.6806461E-3,-4.083603E-3,-8.325098E-3,2.9508905E-3,-5.9640146E-4,8.077083E-4,-3.976002E-3,1.615423E-3,-2.738848E-3,-7.90245E-3,-9.7216386E-4,-6.9638984E-3,-2.465603E-3,4.5322563E-4,-1.2326398E-3,2.4477486E-3,-5.6195403E-3,6.388262E-4,-1.7388726E-3,2.56537E-3],"split_indices":[135,3,4,47,2,48,157,91,94,48,161,106,2,32,77,2,118,45,158,45,10,48,29,89,44,67,62,138,88,103,99,0,0,0,0,0,0,0,0,0,0,0,0,0,0,0,0,0,0,0,0,0,0,0,0,0,0,0,0,0,0,0,0],"split_type":[0,0,0,0,0,0,0,0,0,0,0,0,0,0,0,0,0,0,0,0,0,0,0,0,0,0,0,0,0,0,0,0,0,0,0,0,0,0,0,0,0,0,0,0,0,0,0,0,0,0,0,0,0,0,0,0,0,0,0,0,0,0,0],"sum_hessian":[3.976E3,2.86E3,1.116E3,2.062E3,7.98E2,7.91E2,3.25E2,1.482E3,5.8E2,5.36E2,2.62E2,5.68E2,2.23E2,2.75E2,5E1,1.057E3,4.25E2,5.14E2,6.6E1,3.93E2,1.43E2,2.48E2,1.4E1,5.37E2,3.1E1,9.7E1,1.26E2,2.51E2,2.4E1,4.4E1,6E0,4.37E2,6.2E2,3.94E2,3.1E1,2.25E2,2.89E2,5.8E1,8E0,3.23E2,7E1,1.33E2,1E1,1.79E2,6.9E1,1.3E1,1E0,3.32E2,2.05E2,2.7E1,4E0,8.9E1,8E0,1.22E2,4E0,2.22E2,2.9E1,1.1E1,1.3E1,4.1E1,3E0,4E0,2E0],"tree_param":{"num_deleted":"0","num_feature":"176","num_nodes":"63","size_leaf_vector":"1"}},{"base_weights":[-9.966349E-5,3.9742743E-3,-1.0488833E-2,9.358769E-3,-9.675672E-3,-5.946706E-3,-2.6562348E-2,1.6264498E-2,-9.298438E-3,-3.1816445E-3,-2.274753E-2,-7.0029247E-4,-1.9691592E-2,-3.7245937E-2,-1.6414065E-2,2.6517991E-2,9.339308E-3,-4.08585E-2,-7.504629E-3,-2.289207E-2,7.6541705E-3,1.6719612E-3,-4.3523777E-2,5.9444164E-3,-1.8365199E-2,-2.2571376E-2,5.433168E-3,-4.154753E-2,-4.0781815E-3,-3.1433593E-2,-4.98063E-3,1.1781924E-3,3.8866126E-3,3.1154582E-3,-9.125108E-4,-6.1067133E-3,-4.01123E-5,-1.0189714E-3,1.4660977E-3,-6.9836504E-3,9.0011145E-4,1.2615508E-3,-3.8094004E-4,-6.339284E-4,2.7519257E-3,-3.4857058E-4,-6.6734212E-3,1.3554251E-3,-1.4818422E-3,-2.4584853E-3,5.664979E-4,1.5157465E-3,-2.4440165E-3,-1.40385E-3,4.377282E-3,-3.3797657E-3,-5.945698E-3,-4.3330095E-3,1.4134342E-3,-3.638553E-3,1.5896788E-3,-2.886225E-3,1.7804E-3],"categories":[],"categories_nodes":[],"categories_segments":[],"categories_sizes":[],"default_left":[0,0,0,0,0,0,0,0,0,0,0,0,0,0,0,0,0,0,0,0,0,0,0,0,0,0,0,0,0,0,0,0,0,0,0,0,0,0,0,0,0,0,0,0,0,0,0,0,0,0,0,0,0,0,0,0,0,0,0,0,0,0,0],"id":7,"left_children":[1,3,5,7,9,11,13,15,17,19,21,23,25,27,29,31,33,35,37,39,41,43,45,47,49,51,53,55,57,59,61,-1,-1,-1,-1,-1,-1,-1,-1,-1,-1,-1,-1,-1,-1,-1,-1,-1,-1,-1,-1,-1,-1,-1,-1,-1,-1,-1,-1,-1,-1,-1,-1],"loss_changes":[1.706954E-1,2.1301448E-1,8.277907E-2,2.6788414E-1,6.9536604E-2,6.394898E-2,2.6493669E-2,1.0747057E-1,3.1509727E-2,1.1742983E-1,1.3807072E-1,7.558333E-2,1.7849326E-2,1.7094135E-2,2.2167668E-2,1.1072141E-1,3.6562955E-1,2.4503164E-2,3.1871706E-2,2.9258406E-1,2.0238552E-2,2.626515E-2,1.3637462E-1,7.4145675E-2,2.6444126E-2,1.5882045E-2,2.0024467E-2,1.2841672E-2,1.1335589E-2,1.3703521E-2,4.1323908E-2,0E0,0E0,0E0,0E0,0E0,0E0,0E0,0E0,0E0,0E0,0E0,0E0,0E0,0E0,0E0,0E0,0E0,0E0,0E0,0E0,0E0,0E0,0E0,0E0,0E0,0E0,0E0,0E0,0E0,0E0,0E0,0E0],"parents":[2147483647,0,0,1,1,2,2,3,3,4,4,5,5,6,6,7,7,8,8,9,9,10,10,11,11,12,12,13,13,14,14,15,15,16,16,17,17,18,18,19,19,20,20,21,21,22,22,23,23,24,24,25,25,26,26,27,27,28,28,29,29,30,30],"right_children":[2,4,6,8,10,12,14,16,18,20,22,24,26,28,30,32,34,36,38,40,42,44,46,48,50,52,54,56,58,60,62,-1,-1,-1,-1,-1,-1,-1,-1,-1,-1,-1,-1,-1,-1,-1,-1,-1,-1,-1,-1,-1,-1,-1,-1,-1,-1,-1,-1,-1,-1,-1,-1],"split_conditions":[1E0,1E0,1E0,1E0,1E0,1E0,1E0,1E0,1.10526316E-1,1E0,1E0,1E0,1E0,1E0,1E0,1E0,1E0,4E-1,1E0,1E0,1E0,8E-1,1E0,1E0,1E0,5.263158E-1,8.0526316E-1,7.6842105E-1,7.4210525E-1,8.2631576E-1,1E0,1.1781924E-3,3.8866126E-3,3.1154582E-3,-9.125108E-4,-6.1067133E-3,-4.01123E-5,-1.0189714E-3,1.4660977E-3,-6.9836504E-3,9.0011145E-4,1.2615508E-3,-3.8094004E-4,-6.339284E-4,2.7519257E-3,-3.4857058E-4,-6.6734212E-3,1.3554251E-3,-1.4818422E-3,-2.4584853E-3,5.664979E-4,1.5157465E-3,-2.4440165E-3,-1.40385E-3,4.377282E-3,-3.3797657E-3,-5.945698E-3,-4.3330095E-3,1.4134342E-3,-3.638553E-3,1.5896788E-3,-2.886225E-3,1.7804E-3],"split_indices":[3,135,4,47,134,136,49,2,45,2,90,48,14,145,93,90,90,132,94,90,92,45,2,92,171,89,1,1,89,133,137,0,0,0,0,0,0,0,0,0,0,0,0,0,0,0,0,0,0,0,0,0,0,0,0,0,0,0,0,0,0,0,0],"split_type":[0,0,0,0,0,0,0,0,0,0,0,0,0,0,0,0,0,0,0,0,0,0,0,0,0,0,0,0,0,0,0,0,0,0,0,0,0,0,0,0,0,0,0,0,0,0,0,0,0,0,0,0,0,0,0,0,0,0,0,0,0,0,0],"sum_hessian":[4.031E3,2.896E3,1.135E3,2.077E3,8.19E2,8.86E2,2.49E2,1.516E3,5.61E2,5.48E2,2.71E2,6.42E2,2.44E2,1.2E2,1.29E2,6.1E2,9.06E2,2.9E1,5.32E2,1.94E2,3.54E2,1.25E2,1.46E2,4.67E2,1.75E2,2.19E2,2.5E1,1.06E2,1.4E1,5.5E1,7.4E1,2.79E2,3.31E2,4.15E2,4.91E2,1.9E1,1E1,4.75E2,5.7E1,7.8E1,1.16E2,2.47E2,1.07E2,9.6E1,2.9E1,5.4E1,9.2E1,3.42E2,1.25E2,1.39E2,3.6E1,1E1,2.09E2,1.7E1,8E0,7.6E1,3E1,4E0,1E1,5E1,5E0,3.6E1,3.8E1],"tree_param":{"num_deleted":"0","num_feature":"176","num_nodes":"63","size_leaf_vector":"1"}},{"base_weights":[4.1697177E-4,4.187806E-3,-9.585356E-3,8.544266E-3,-6.8824603E-3,-1.1144596E-2,1.3561499E-2,1.0296738E-2,-1.1015303E-2,-3.5180266E-3,-1.5691292E-2,-7.6698656E-3,-2.028158E-2,-6.4578275E-3,2.2273004E-2,1.5287478E-2,5.994569E-3,8.970908E-3,-2.3427086E-2,-4.7745087E-4,-1.7655067E-2,-1.1976389E-2,-4.537724E-2,-5.8733863E-3,-3.1671192E-2,-1.8274408E-2,-5.2759554E-2,5.583912E-3,-6.204163E-3,3.9548825E-2,1.3488117E-2,-2.0819623E-4,2.611158E-3,2.9667767E-3,-1.1394275E-3,4.5074997E-4,6.341567E-3,2.7670825E-4,-3.8490908E-3,-3.4916634E-4,2.0199013E-3,2.9568374E-4,-3.4124837E-3,-1.4446361E-3,1.4349222E-3,-5.0795856E-3,4.233481E-3,2.4170242E-3,-7.163091E-4,6.561565E-4,-4.093046E-3,-2.137073E-3,-1.3701991E-6,-7.490217E-3,1.0934634E-3,1.3997712E-3,-1.4978941E-3,5.326058E-3,1.9179505E-3,-2.029705E-4,2.4452077E-3],"categories":[],"categories_nodes":[],"categories_segments":[],"categories_sizes":[],"default_left":[0,0,0,0,0,0,0,0,0,0,0,0,0,0,0,0,0,0,0,0,0,0,0,0,0,0,0,0,0,0,0,0,0,0,0,0,0,0,0,0,0,0,0,0,0,0,0,0,0,0,0,0,0,0,0,0,0,0,0,0,0],"id":8,"left_children":[1,3,5,7,9,11,13,15,17,19,21,23,25,27,29,31,33,35,37,39,41,43,45,47,49,51,53,55,-1,57,59,-1,-1,-1,-1,-1,-1,-1,-1,-1,-1,-1,-1,-1,-1,-1,-1,-1,-1,-1,-1,-1,-1,-1,-1,-1,-1,-1,-1,-1,-1],"loss_changes":[1.5181383E-1,1.4102682E-1,3.992395E-2,7.202782E-2,2.4424732E-2,3.264071E-2,1.2351728E-2,4.1261524E-2,4.312532E-2,2.5739433E-2,2.4600469E-2,3.215239E-2,1.75495E-2,1.5071601E-2,6.903099E-3,1.6757E-1,4.26807E-1,1.599577E-2,4.2327017E-2,3.0858215E-2,3.6085077E-2,1.3472088E-2,1.40323825E-2,2.7257577E-2,1.8676944E-2,1.5209235E-2,2.3384724E-2,3.4968941E-3,0E0,3.4472719E-3,5.834281E-3,0E0,0E0,0E0,0E0,0E0,0E0,0E0,0E0,0E0,0E0,0E0,0E0,0E0,0E0,0E0,0E0,0E0,0E0,0E0,0E0,0E0,0E0,0E0,0E0,0E0,0E0,0E0,0E0,0E0,0E0],"parents":[2147483647,0,0,1,1,2,2,3,3,4,4,5,5,6,6,7,7,8,8,9,9,10,10,11,11,12,12,13,13,14,14,15,15,16,16,17,17,18,18,19,19,20,20,21,21,22,22,23,23,24,24,25,25,26,26,27,27,29,29,30,30],"right_children":[2,4,6,8,10,12,14,16,18,20,22,24,26,28,30,32,34,36,38,40,42,44,46,48,50,52,54,56,-1,58,60,-1,-1,-1,-1,-1,-1,-1,-1,-1,-1,-1,-1,-1,-1,-1,-1,-1,-1,-1,-1,-1,-1,-1,-1,-1,-1,-1,-1,-1,-1],"split_conditions":[1E0,1E0,1E0,1E0,1E0,1E0,7.2105265E-1,1E0,1E0,1E0,1E0,1E0,1E0,1E0,1E0,1E0,1E0,1E0,1E0,1E0,1E0,1E0,1E0,5.263158E-1,6.6842103E-1,1E0,1E0,1E0,-6.204163E-3,7.631579E-1,1E0,-2.0819623E-4,2.611158E-3,2.9667767E-3,-1.1394275E-3,4.5074997E-4,6.341567E-3,2.7670825E-4,-3.8490908E-3,-3.4916634E-4,2.0199013E-3,2.9568374E-4,-3.4124837E-3,-1.4446361E-3,1.4349222E-3,-5.0795856E-3,4.233481E-3,2.4170242E-3,-7.163091E-4,6.561565E-4,-4.093046E-3,-2.137073E-3,-1.3701991E-6,-7.490217E-3,1.0934634E-3,1.3997712E-3,-1.4978941E-3,5.326058E-3,1.9179505E-3,-2.029705E-4,2.4452077E-3],"split_indices":[3,135,35,113,48,48,133,46,2,165,72,17,10,124,49,2,2,69,46,138,90,155,11,89,133,50,46,172,0,133,137,0,0,0,0,0,0,0,0,0,0,0,0,0,0,0,0,0,0,0,0,0,0,0,0,0,0,0,0,0,0],"split_type":[0,0,0,0,0,0,0,0,0,0,0,0,0,0,0,0,0,0,0,0,0,0,0,0,0,0,0,0,0,0,0,0,0,0,0,0,0,0,0,0,0,0,0,0,0,0,0,0,0,0,0,0,0,0,0,0,0,0,0,0,0],"sum_hessian":[4.023E3,2.922E3,1.101E3,2.097E3,8.25E2,1.032E3,6.9E1,1.925E3,1.72E2,5.98E2,2.27E2,7.49E2,2.83E2,2.1E1,4.8E1,8.9E2,1.035E3,6.6E1,1.06E2,4.93E2,1.05E2,2.03E2,2.4E1,6.98E2,5.1E1,2.68E2,1.5E1,1.8E1,3E0,1.5E1,3.3E1,3.42E2,5.48E2,4.38E2,5.97E2,6.2E1,4E0,3.9E1,6.7E1,4.31E2,6.2E1,4.7E1,5.8E1,1.86E2,1.7E1,2.3E1,1E0,2.8E1,6.7E2,1E1,4.1E1,2.29E2,3.9E1,1.1E1,4E0,1.3E1,5E0,8E0,7E0,1.4E1,1.9E1],"tree_param":{"num_deleted":"0","num_feature":"176","num_nodes":"61","size_leaf_vector":"1"}},{"base_weights":[-1.4980791E-4,3.074459E-3,-8.020765E-3,7.5988844E-3,-9.035566E-3,-4.805344E-3,-1.6281296E-2,1.36864865E-2,-7.2440444E-3,-1.0021697E-2,3.293868E-2,-1.0345527E-3,-1.9232428E-2,-1.4966522E-2,-7.405933E-2,2.1105988E-2,-5.529022E-3,-3.047197E-3,-1.6935393E-2,-1.1384575E-2,1.5361152E-2,4.0102713E-2,-1.6249052E-3,7.2797136E-3,-8.676882E-3,-3.38007E-2,-3.932327E-3,-1.2584318E-2,-4.141975E-2,-1.0301626E-2,-1.1113485E-3,1.8580047E-3,3.4892422E-3,6.647761E-4,-1.0241187E-3,4.993237E-4,-9.845437E-4,-1.9018727E-3,2.522408E-3,-1.3268539E-3,2.6365617E-4,4.1427603E-3,-8.954261E-4,4.4049644E-3,-9.5506164E-4,-7.566987E-4,1.978078E-3,1.6802893E-3,-2.4710025E-3,-1.3419557E-3,-4.615596E-3,-1.3772232E-3,3.9978023E-3,-9.0391265E-4,-3.1098542E-3,-4.933837E-3,1.4467248E-3,-1.671733E-3,1.5050307E-3],"categories":[],"categories_nodes":[],"categories_segments":[],"categories_sizes":[],"default_left":[0,0,0,0,0,0,0,0,0,0,0,0,0,0,0,0,0,0,0,0,0,0,0,0,0,0,0,0,0,0,0,0,0,0,0,0,0,0,0,0,0,0,0,0,0,0,0,0,0,0,0,0,0,0,0,0,0,0,0],"id":9,"left_children":[1,3,5,7,9,11,13,15,17,19,21,23,25,27,29,31,33,35,37,39,41,43,-1,45,47,49,51,53,55,-1,57,-1,-1,-1,-1,-1,-1,-1,-1,-1,-1,-1,-1,-1,-1,-1,-1,-1,-1,-1,-1,-1,-1,-1,-1,-1,-1,-1,-1],"loss_changes":[1.0173996E-1,1.55894E-1,3.0865423E-2,1.8723023E-1,3.236758E-2,4.567739E-2,2.3656197E-2,2.0955124E-1,2.4474286E-2,2.6362345E-2,6.9945175E-3,4.244459E-2,3.865099E-2,1.96442E-2,1.4671959E-2,3.6264867E-2,2.3593476E-2,2.3116017E-2,1.6465187E-2,1.902759E-2,2.5089795E-2,3.556354E-3,0E0,5.954154E-2,1.4258045E-1,2.1792084E-2,3.7708916E-2,1.9081663E-2,1.2220029E-2,0E0,1.0082563E-3,0E0,0E0,0E0,0E0,0E0,0E0,0E0,0E0,0E0,0E0,0E0,0E0,0E0,0E0,0E0,0E0,0E0,0E0,0E0,0E0,0E0,0E0,0E0,0E0,0E0,0E0,0E0,0E0],"parents":[2147483647,0,0,1,1,2,2,3,3,4,4,5,5,6,6,7,7,8,8,9,9,10,10,11,11,12,12,13,13,14,14,15,15,16,16,17,17,18,18,19,19,20,20,21,21,23,23,24,24,25,25,26,26,27,27,28,28,30,30],"right_children":[2,4,6,8,10,12,14,16,18,20,22,24,26,28,30,32,34,36,38,40,42,44,-1,46,48,50,52,54,56,-1,58,-1,-1,-1,-1,-1,-1,-1,-1,-1,-1,-1,-1,-1,-1,-1,-1,-1,-1,-1,-1,-1,-1,-1,-1,-1,-1,-1,-1],"split_conditions":[1E0,1E0,1E0,1E0,1E0,1E0,8.6315787E-1,1E0,1E0,8.3157897E-1,1E0,1E0,1E0,1E0,1E0,1E0,1E0,1E0,1E0,1E0,7.3157895E-1,1E0,-1.6249052E-3,1E0,1E0,1E0,1E0,1E0,1E0,-1.0301626E-2,4E-1,1.8580047E-3,3.4892422E-3,6.647761E-4,-1.0241187E-3,4.993237E-4,-9.845437E-4,-1.9018727E-3,2.522408E-3,-1.3268539E-3,2.6365617E-4,4.1427603E-3,-8.954261E-4,4.4049644E-3,-9.5506164E-4,-7.566987E-4,1.978078E-3,1.6802893E-3,-2.4710025E-3,-1.3419557E-3,-4.615596E-3,-1.3772232E-3,3.9978023E-3,-9.0391265E-4,-3.1098542E-3,-4.933837E-3,1.4467248E-3,-1.671733E-3,1.5050307E-3],"split_indices":[4,92,47,48,97,3,133,136,3,89,71,2,49,61,90,65,130,46,18,6,1,28,0,90,46,90,38,125,29,0,0,0,0,0,0,0,0,0,0,0,0,0,0,0,0,0,0,0,0,0,0,0,0,0,0,0,0,0,0],"split_type":[0,0,0,0,0,0,0,0,0,0,0,0,0,0,0,0,0,0,0,0,0,0,0,0,0,0,0,0,0,0,0,0,0,0,0,0,0,0,0,0,0,0,0,0,0,0,0,0,0,0,0,0,0,0,0,0,0,0,0],"sum_hessian":[4.007E3,2.843E3,1.164E3,2.07E3,7.73E2,8.39E2,3.25E2,1.468E3,6.02E2,7.56E2,1.7E1,6.66E2,1.73E2,3.19E2,6E0,1.059E3,4.09E2,4.21E2,1.81E2,7.18E2,3.8E1,1.5E1,2E0,3.19E2,3.47E2,8.8E1,8.5E1,2.94E2,2.5E1,4E0,2E0,8.97E2,1.62E2,1.14E2,2.95E2,1.93E2,2.28E2,1.73E2,8E0,6.33E2,8.5E1,1.8E1,2E1,1.4E1,1E0,1.46E2,1.73E2,1.34E2,2.13E2,3.4E1,5.4E1,7E1,1.5E1,2.48E2,4.6E1,2.2E1,3E0,1E0,1E0],"tree_param":{"num_deleted":"0","num_feature":"176","num_nodes":"59","size_leaf_vector":"1"}},{"base_weights":[1.3186749E-4,3.7988347E-3,-9.128399E-3,8.975066E-3,-9.473656E-3,-5.588933E-3,-1.7479649E-2,1.463358E-2,-5.794712E-3,-4.399298E-3,-2.0344231E-2,-3.556255E-2,-4.281813E-3,-1.8793907E-2,1.3996846E-2,2.1912834E-2,-3.8073757E-3,-8.011709E-3,1.589897E-2,-2.4831638E-2,9.571098E-3,7.3528737E-3,-3.837711E-2,-4.3096557E-2,2.9833154E-3,-6.101062E-4,-1.4304021E-2,-2.1019608E-2,2.033357E-3,1.8312266E-2,-2.1051809E-3,3.6800944E-3,1.2306394E-3,2.452227E-4,-1.7040257E-3,-3.874463E-4,-2.3977715E-3,5.8359357E-5,5.8521554E-3,-6.646283E-3,1.3097747E-3,8.093496E-4,3.2942283E-3,1.2014135E-3,-1.8160957E-3,2.74252E-4,-6.537754E-3,-4.944193E-3,-9.4747497E-4,4.7834823E-4,-1.1510605E-3,-1.1201453E-3,-3.7106553E-3,-2.8619564E-3,-1.444104E-3,9.643036E-4,-4.098752E-3,2.5079905E-3,-1.2606492E-3],"categories":[],"categories_nodes":[],"categories_segments":[],"categories_sizes":[],"default_left":[0,0,0,0,0,0,0,0,0,0,0,0,0,0,0,0,0,0,0,0,0,0,0,0,0,0,0,0,0,0,0,0,0,0,0,0,0,0,0,0,0,0,0,0,0,0,0,0,0,0,0,0,0,0,0,0,0,0,0],"id":10,"left_children":[1,3,5,7,9,11,13,15,17,19,21,23,25,27,29,31,33,35,37,39,41,43,45,47,-1,49,51,53,55,57,-1,-1,-1,-1,-1,-1,-1,-1,-1,-1,-1,-1,-1,-1,-1,-1,-1,-1,-1,-1,-1,-1,-1,-1,-1,-1,-1,-1,-1],"loss_changes":[1.3491227E-1,1.9560944E-1,3.321527E-2,1.7124635E-1,4.3984286E-2,3.0916762E-2,1.4121428E-2,1.9888762E-1,2.7445244E-2,1.560922E-1,1.2714463E-1,1.7544534E-2,2.7995016E-2,1.4969125E-2,2.503002E-3,1.5143609E-1,3.483147E-2,3.399163E-2,3.4563236E-2,3.5141858E-1,1.09567065E-2,1.2229776E-2,1.7115743E-1,5.9318356E-3,0E0,3.2861445E-2,1.4016613E-2,1.4135793E-2,1.0871246E-2,3.0363798E-3,0E0,0E0,0E0,0E0,0E0,0E0,0E0,0E0,0E0,0E0,0E0,0E0,0E0,0E0,0E0,0E0,0E0,0E0,0E0,0E0,0E0,0E0,0E0,0E0,0E0,0E0,0E0,0E0,0E0],"parents":[2147483647,0,0,1,1,2,2,3,3,4,4,5,5,6,6,7,7,8,8,9,9,10,10,11,11,12,12,13,13,14,14,15,15,16,16,17,17,18,18,19,19,20,20,21,21,22,22,23,23,25,25,26,26,27,27,28,28,29,29],"right_children":[2,4,6,8,10,12,14,16,18,20,22,24,26,28,30,32,34,36,38,40,42,44,46,48,-1,50,52,54,56,58,-1,-1,-1,-1,-1,-1,-1,-1,-1,-1,-1,-1,-1,-1,-1,-1,-1,-1,-1,-1,-1,-1,-1,-1,-1,-1,-1,-1,-1],"split_conditions":[1E0,1E0,1E0,1E0,1E0,2E-1,6E-1,1E0,1E0,1E0,1E0,1E0,1E0,1E0,1E0,1E0,1E0,1E0,1E0,1E0,1E0,1E0,1E0,1E0,2.9833154E-3,1E0,1E0,1E0,1E0,1E0,-2.1051809E-3,3.6800944E-3,1.2306394E-3,2.452227E-4,-1.7040257E-3,-3.874463E-4,-2.3977715E-3,5.8359357E-5,5.8521554E-3,-6.646283E-3,1.3097747E-3,8.093496E-4,3.2942283E-3,1.2014135E-3,-1.8160957E-3,2.74252E-4,-6.537754E-3,-4.944193E-3,-9.4747497E-4,4.7834823E-4,-1.1510605E-3,-1.1201453E-3,-3.7106553E-3,-2.8619564E-3,-1.444104E-3,9.643036E-4,-4.098752E-3,2.5079905E-3,-1.2606492E-3],"split_indices":[135,91,4,3,90,132,88,47,38,134,134,79,92,51,150,134,46,4,84,46,101,165,46,73,0,134,168,90,99,70,0,0,0,0,0,0,0,0,0,0,0,0,0,0,0,0,0,0,0,0,0,0,0,0,0,0,0,0,0],"split_type":[0,0,0,0,0,0,0,0,0,0,0,0,0,0,0,0,0,0,0,0,0,0,0,0,0,0,0,0,0,0,0,0,0,0,0,0,0,0,0,0,0,0,0,0,0,0,0,0,0,0,0,0,0,0,0,0,0,0,0],"sum_hessian":[3.971E3,2.845E3,1.126E3,2.047E3,7.98E2,7.92E2,3.34E2,1.48E3,5.67E2,5.45E2,2.53E2,3.2E1,7.6E2,3.21E2,1.3E1,1.061E3,4.19E2,5.15E2,5.2E1,2.21E2,3.24E2,1E2,1.53E2,2.9E1,3E0,5.57E2,2.03E2,2.9E2,3.1E1,1.2E1,1E0,4.15E2,6.46E2,2.85E2,1.34E2,4.1E2,1.05E2,3.9E1,1.3E1,1.05E2,1.16E2,3.06E2,1.8E1,8.5E1,1.5E1,6.1E1,9.2E1,2.4E1,5E0,3.73E2,1.84E2,1.8E2,2.3E1,1.33E2,1.57E2,2.7E1,4E0,1E1,2E0],"tree_param":{"num_deleted":"0","num_feature":"176","num_nodes":"59","size_leaf_vector":"1"}},{"base_weights":[3.1525546E-5,3.156265E-3,-7.772128E-3,7.1118595E-3,-6.903922E-3,-4.441813E-3,-1.5562392E-2,1.2262099E-2,-6.163342E-3,-1.1823466E-3,-1.8152695E-2,-1.8403148E-4,-1.4616409E-2,-1.72782E-2,3.4931435E-3,2.45889E-2,4.2283554E-3,1.3555981E-3,-2.3088658E-2,-1.5775E-2,1.0080139E-2,7.58567E-3,-4.0240925E-2,5.2559976E-3,-1.4480364E-2,-5.5652848E-3,-2.475898E-2,-1.51611455E-2,-4.599338E-2,1.4325693E-2,-2.6733011E-2,1.1453697E-3,3.1773963E-3,3.0466195E-3,-1.1958502E-3,-1.2011154E-3,1.2164355E-3,2.7967826E-4,-3.8271998E-3,-5.818029E-3,1.7112229E-3,2.2267005E-3,9.871173E-5,-4.4902615E-4,1.7003509E-3,-3.9730534E-5,-6.882991E-3,7.651066E-4,-1.772404E-3,-2.3641814E-3,1.8463969E-4,7.8133604E-4,-1.6379821E-3,-3.7160076E-3,-8.886439E-4,-1.6820006E-3,1.4609139E-3,-6.399063E-3,-8.7490305E-4,2.3470894E-3,-3.2695427E-3,-4.6064993E-3,2.0841956E-3],"categories":[],"categories_nodes":[],"categories_segments":[],"categories_sizes":[],"default_left":[0,0,0,0,0,0,0,0,0,0,0,0,0,0,0,0,0,0,0,0,0,0,0,0,0,0,0,0,0,0,0,0,0,0,0,0,0,0,0,0,0,0,0,0,0,0,0,0,0,0,0,0,0,0,0,0,0,0,0,0,0,0,0],"id":11,"left_children":[1,3,5,7,9,11,13,15,17,19,21,23,25,27,29,31,33,35,37,39,41,43,45,47,49,51,53,55,57,59,61,-1,-1,-1,-1,-1,-1,-1,-1,-1,-1,-1,-1,-1,-1,-1,-1,-1,-1,-1,-1,-1,-1,-1,-1,-1,-1,-1,-1,-1,-1,-1,-1],"loss_changes":[9.722069E-2,1.1334267E-1,2.950707E-2,1.3982481E-1,5.1724546E-2,3.4654275E-2,1.120957E-2,1.4576775E-1,7.282427E-2,8.792168E-2,1.5437281E-1,4.4017546E-2,2.1527406E-2,1.8330462E-2,9.878332E-3,5.4469228E-2,3.7962872E-1,5.7503857E-2,6.9279864E-2,3.259356E-1,3.3444274E-2,1.4406225E-2,1.6627958E-1,2.2701498E-2,2.3377635E-2,1.8358145E-2,2.1518685E-2,1.471547E-2,1.3516355E-2,1.0227777E-2,8.317832E-3,0E0,0E0,0E0,0E0,0E0,0E0,0E0,0E0,0E0,0E0,0E0,0E0,0E0,0E0,0E0,0E0,0E0,0E0,0E0,0E0,0E0,0E0,0E0,0E0,0E0,0E0,0E0,0E0,0E0,0E0,0E0,0E0],"parents":[2147483647,0,0,1,1,2,2,3,3,4,4,5,5,6,6,7,7,8,8,9,9,10,10,11,11,12,12,13,13,14,14,15,15,16,16,17,17,18,18,19,19,20,20,21,21,22,22,23,23,24,24,25,25,26,26,27,27,28,28,29,29,30,30],"right_children":[2,4,6,8,10,12,14,16,18,20,22,24,26,28,30,32,34,36,38,40,42,44,46,48,50,52,54,56,58,60,62,-1,-1,-1,-1,-1,-1,-1,-1,-1,-1,-1,-1,-1,-1,-1,-1,-1,-1,-1,-1,-1,-1,-1,-1,-1,-1,-1,-1,-1,-1,-1,-1],"split_conditions":[1E0,1E0,1E0,1E0,1E0,1E0,1E0,1E0,1E0,1E0,1E0,1E0,7.526316E-1,1E0,1E0,1E0,1E0,1E0,1E0,1E0,1E0,1E0,1E0,1E0,4E-1,1E0,1E0,1E0,1E0,1E0,1E0,1.1453697E-3,3.1773963E-3,3.0466195E-3,-1.1958502E-3,-1.2011154E-3,1.2164355E-3,2.7967826E-4,-3.8271998E-3,-5.818029E-3,1.7112229E-3,2.2267005E-3,9.871173E-5,-4.4902615E-4,1.7003509E-3,-3.9730534E-5,-6.882991E-3,7.651066E-4,-1.772404E-3,-2.3641814E-3,1.8463969E-4,7.8133604E-4,-1.6379821E-3,-3.7160076E-3,-8.886439E-4,-1.6820006E-3,1.4609139E-3,-6.399063E-3,-8.7490305E-4,2.3470894E-3,-3.2695427E-3,-4.6064993E-3,2.0841956E-3],"split_indices":[135,3,4,91,2,48,123,2,90,46,90,92,89,72,172,90,90,46,2,90,90,137,46,55,88,46,90,156,90,68,64,0,0,0,0,0,0,0,0,0,0,0,0,0,0,0,0,0,0,0,0,0,0,0,0,0,0,0,0,0,0,0,0],"split_type":[0,0,0,0,0,0,0,0,0,0,0,0,0,0,0,0,0,0,0,0,0,0,0,0,0,0,0,0,0,0,0,0,0,0,0,0,0,0,0,0,0,0,0,0,0,0,0,0,0,0,0,0,0,0,0,0,0,0,0,0,0,0,0],"sum_hessian":[3.985E3,2.846E3,1.139E3,2.043E3,8.03E2,7.99E2,3.4E2,1.472E3,5.71E2,5.33E2,2.7E2,5.64E2,2.35E2,3.12E2,2.8E1,5.8E2,8.92E2,3.96E2,1.75E2,2.32E2,3.01E2,1.25E2,1.45E2,4.09E2,1.55E2,1.25E2,1.1E2,2.92E2,2E1,2.1E1,7E0,2.06E2,3.74E2,3.4E2,5.52E2,1.77E2,2.19E2,6.5E1,1.1E2,1.01E2,1.31E2,1.28E2,1.73E2,5.5E1,7E1,6.1E1,8.4E1,3.71E2,3.8E1,9.9E1,5.6E1,5.6E1,6.9E1,6.1E1,4.9E1,2.77E2,1.5E1,1.3E1,7E0,1.8E1,3E0,5E0,2E0],"tree_param":{"num_deleted":"0","num_feature":"176","num_nodes":"63","size_leaf_vector":"1"}},{"base_weights":[-6.206192E-4,2.1093066E-3,-7.1910117E-3,6.2074563E-3,-7.712024E-3,-4.1047945E-3,-1.4546823E-2,1.0659071E-2,-5.1306495E-3,-5.9635052E-3,-1.8769307E-2,3.0471217E-3,-1.0876835E-2,-1.6581576E-2,1.3443701E-2,1.6686046E-2,5.2486127E-3,2.957995E-3,-1.3002624E-2,1.3871187E-3,-1.2344013E-2,-3.332043E-2,-7.1079712E-3,-1.5917659E-2,1.7673237E-2,1.5963929E-2,-2.763641E-2,-2.4622772E-2,-9.975126E-3,-1.8015675E-2,2.7457308E-2,-4.2383024E-4,3.12231E-3,2.8319694E-3,-1.0975319E-3,-1.1769127E-3,1.3266903E-3,5.4010696E-4,-3.0316303E-3,-1.6564757E-3,1.404663E-3,8.47463E-4,-2.8844683E-3,-6.474039E-3,1.7046527E-3,5.815243E-4,-2.503294E-3,-5.488795E-3,1.2234952E-3,2.7444083E-3,4.1946323E-4,2.0890369E-3,-1.6783556E-3,5.2581093E-4,-5.1105437E-3,-2.8124526E-3,2.0591738E-3,-1.9536398E-3,8.283529E-5,8.45743E-4,-3.5591025E-3,-2.4781704E-3,3.2271103E-3],"categories":[],"categories_nodes":[],"categories_segments":[],"categories_sizes":[],"default_left":[0,0,0,0,0,0,0,0,0,0,0,0,0,0,0,0,0,0,0,0,0,0,0,0,0,0,0,0,0,0,0,0,0,0,0,0,0,0,0,0,0,0,0,0,0,0,0,0,0,0,0,0,0,0,0,0,0,0,0,0,0,0,0],"id":12,"left_children":[1,3,5,7,9,11,13,15,17,19,21,23,25,27,29,31,33,35,37,39,41,43,45,47,49,51,53,55,57,59,61,-1,-1,-1,-1,-1,-1,-1,-1,-1,-1,-1,-1,-1,-1,-1,-1,-1,-1,-1,-1,-1,-1,-1,-1,-1,-1,-1,-1,-1,-1,-1,-1],"loss_changes":[7.161841E-2,1.135911E-1,2.6546601E-2,1.00546174E-1,1.5954517E-2,4.008729E-2,1.9928947E-2,4.6542868E-2,3.5823025E-2,3.373873E-2,1.8937629E-2,1.120659E-1,1.916231E-1,1.6913354E-2,1.1075284E-2,2.0575689E-1,2.8291008E-1,4.2362254E-2,9.09749E-2,7.636543E-2,1.3250023E-1,8.022998E-2,1.4971057E-2,1.9376388E-1,2.9911883E-2,2.6808482E-2,2.025333E-1,2.3537003E-2,1.8505985E-2,4.0232018E-3,5.0746864E-3,0E0,0E0,0E0,0E0,0E0,0E0,0E0,0E0,0E0,0E0,0E0,0E0,0E0,0E0,0E0,0E0,0E0,0E0,0E0,0E0,0E0,0E0,0E0,0E0,0E0,0E0,0E0,0E0,0E0,0E0,0E0,0E0],"parents":[2147483647,0,0,1,1,2,2,3,3,4,4,5,5,6,6,7,7,8,8,9,9,10,10,11,11,12,12,13,13,14,14,15,15,16,16,17,17,18,18,19,19,20,20,21,21,22,22,23,23,24,24,25,25,26,26,27,27,28,28,29,29,30,30],"right_children":[2,4,6,8,10,12,14,16,18,20,22,24,26,28,30,32,34,36,38,40,42,44,46,48,50,52,54,56,58,60,62,-1,-1,-1,-1,-1,-1,-1,-1,-1,-1,-1,-1,-1,-1,-1,-1,-1,-1,-1,-1,-1,-1,-1,-1,-1,-1,-1,-1,-1,-1,-1,-1],"split_conditions":[1E0,1E0,1E0,1E0,8.1578946E-1,1E0,1E0,1E0,1E0,1E0,1E0,1E0,1E0,1E0,1E0,1E0,1E0,1E0,1E0,1E0,1E0,1E0,1E0,1E0,1E0,1E0,1E0,1E0,1E0,1E0,5.842105E-1,-4.2383024E-4,3.12231E-3,2.8319694E-3,-1.0975319E-3,-1.1769127E-3,1.3266903E-3,5.4010696E-4,-3.0316303E-3,-1.6564757E-3,1.404663E-3,8.47463E-4,-2.8844683E-3,-6.474039E-3,1.7046527E-3,5.815243E-4,-2.503294E-3,-5.488795E-3,1.2234952E-3,2.7444083E-3,4.1946323E-4,2.0890369E-3,-1.6783556E-3,5.2581093E-4,-5.1105437E-3,-2.8124526E-3,2.0591738E-3,-1.9536398E-3,8.283529E-5,8.45743E-4,-3.5591025E-3,-2.4781704E-3,3.2271103E-3],"split_indices":[4,48,91,92,1,46,156,134,90,46,134,134,90,42,130,46,46,2,134,2,90,46,90,2,47,163,134,69,2,42,1,0,0,0,0,0,0,0,0,0,0,0,0,0,0,0,0,0,0,0,0,0,0,0,0,0,0,0,0,0,0,0,0],"split_type":[0,0,0,0,0,0,0,0,0,0,0,0,0,0,0,0,0,0,0,0,0,0,0,0,0,0,0,0,0,0,0,0,0,0,0,0,0,0,0,0,0,0,0,0,0,0,0,0,0,0,0,0,0,0,0,0,0,0,0,0,0,0,0],"sum_hessian":[3.991E3,2.82E3,1.171E3,1.99E3,8.3E2,8.26E2,3.45E2,1.429E3,5.61E2,7.18E2,1.12E2,4.02E2,4.24E2,3.22E2,2.3E1,6.75E2,7.54E2,2.77E2,2.84E2,3.34E2,3.84E2,4.9E1,6.3E1,1.75E2,2.27E2,1.63E2,2.61E2,1.44E2,1.78E2,7E0,1.6E1,2.77E2,3.98E2,3.11E2,4.43E2,1.14E2,1.63E2,1.38E2,1.46E2,1.38E2,1.96E2,1.7E2,2.14E2,3E1,1.9E1,3.7E1,2.6E1,7.3E1,1.02E2,1.31E2,9.6E1,1.42E2,2.1E1,1.09E2,1.52E2,1.34E2,1E1,9.4E1,8.4E1,3E0,4E0,1E0,1.5E1],"tree_param":{"num_deleted":"0","num_feature":"176","num_nodes":"63","size_leaf_vector":"1"}},{"base_weights":[4.0596616E-4,3.4981E-3,-7.442393E-3,7.9994835E-3,-7.3790494E-3,-3.136629E-3,-1.877128E-2,1.2635441E-2,-3.3560572E-3,-4.517936E-3,-1.4597E-2,2.0963799E-3,-1.759703E-2,-2.0808894E-2,3.0421827E-4,1.6041327E-2,4.509891E-3,3.8486093E-3,-9.852672E-3,5.964057E-4,-9.754415E-3,-1.9219683E-2,1.9014168E-3,7.713458E-3,-1.9017342E-2,-2.082892E-2,8.186305E-3,-2.2676406E-2,2.2075712E-3,3.175844E-2,-5.5319048E-3,2.042093E-3,6.377792E-4,6.3374726E-4,-2.6442306E-3,-1.6212197E-3,1.772297E-3,1.0611725E-3,-3.0122728E-3,-2.0041482E-3,1.2954533E-3,1.1723657E-3,-2.7857758E-3,-7.2349963E-4,-2.7073538E-3,-1.2390126E-3,1.968662E-3,1.4497238E-3,-9.759182E-4,-1.3389286E-3,-6.7341127E-3,-4.0422785E-3,-1.5796938E-3,4.220486E-3,-2.1557196E-3,-1.9324832E-3,-5.209732E-3,1.2531615E-3,-6.7355237E-3,3.7036077E-3,5.323947E-4,1.6704459E-3,-1.9594736E-3],"categories":[],"categories_nodes":[],"categories_segments":[],"categories_sizes":[],"default_left":[0,0,0,0,0,0,0,0,0,0,0,0,0,0,0,0,0,0,0,0,0,0,0,0,0,0,0,0,0,0,0,0,0,0,0,0,0,0,0,0,0,0,0,0,0,0,0,0,0,0,0,0,0,0,0,0,0,0,0,0,0,0,0],"id":13,"left_children":[1,3,5,7,9,11,13,15,17,19,21,23,25,27,29,31,33,35,37,39,41,43,45,47,49,51,53,55,57,59,61,-1,-1,-1,-1,-1,-1,-1,-1,-1,-1,-1,-1,-1,-1,-1,-1,-1,-1,-1,-1,-1,-1,-1,-1,-1,-1,-1,-1,-1,-1,-1,-1],"loss_changes":[9.702593E-2,1.404827E-1,5.5061966E-2,1.06856674E-1,1.7281204E-2,6.208745E-2,1.2094438E-2,3.9806888E-2,2.7606618E-2,1.6154848E-2,1.8188082E-2,7.166095E-2,1.8336207E-2,1.212842E-2,5.8663767E-3,4.282707E-2,2.432197E-2,7.821997E-2,1.2891212E-1,7.830358E-2,1.1619641E-1,1.7311558E-2,1.3715353E-2,5.6680556E-2,3.363841E-2,1.8489063E-2,2.6205594E-2,2.4630904E-2,1.6643798E-2,5.0038006E-4,8.770387E-3,0E0,0E0,0E0,0E0,0E0,0E0,0E0,0E0,0E0,0E0,0E0,0E0,0E0,0E0,0E0,0E0,0E0,0E0,0E0,0E0,0E0,0E0,0E0,0E0,0E0,0E0,0E0,0E0,0E0,0E0,0E0,0E0],"parents":[2147483647,0,0,1,1,2,2,3,3,4,4,5,5,6,6,7,7,8,8,9,9,10,10,11,11,12,12,13,13,14,14,15,15,16,16,17,17,18,18,19,19,20,20,21,21,22,22,23,23,24,24,25,25,26,26,27,27,28,28,29,29,30,30],"right_children":[2,4,6,8,10,12,14,16,18,20,22,24,26,28,30,32,34,36,38,40,42,44,46,48,50,52,54,56,58,60,62,-1,-1,-1,-1,-1,-1,-1,-1,-1,-1,-1,-1,-1,-1,-1,-1,-1,-1,-1,-1,-1,-1,-1,-1,-1,-1,-1,-1,-1,-1,-1,-1],"split_conditions":[1E0,1E0,1E0,1E0,1E0,1E0,1E0,1E0,1E0,1E0,1E0,1E0,1E0,1E0,1.3157895E-1,1E0,1E0,1E0,1E0,1E0,1E0,7.2105265E-1,1E0,1E0,1E0,7.105263E-1,7.7894735E-1,1E0,1E0,8.1578946E-1,7.263158E-1,2.042093E-3,6.377792E-4,6.3374726E-4,-2.6442306E-3,-1.6212197E-3,1.772297E-3,1.0611725E-3,-3.0122728E-3,-2.0041482E-3,1.2954533E-3,1.1723657E-3,-2.7857758E-3,-7.2349963E-4,-2.7073538E-3,-1.2390126E-3,1.968662E-3,1.4497238E-3,-9.759182E-4,-1.3389286E-3,-6.7341127E-3,-4.0422785E-3,-1.5796938E-3,4.220486E-3,-2.1557196E-3,-1.9324832E-3,-5.209732E-3,1.2531615E-3,-6.7355237E-3,3.7036077E-3,5.323947E-4,1.6704459E-3,-1.9594736E-3],"split_indices":[136,48,3,4,3,47,60,135,2,46,47,135,157,71,1,3,106,90,46,2,90,45,135,91,121,45,45,143,138,45,89,0,0,0,0,0,0,0,0,0,0,0,0,0,0,0,0,0,0,0,0,0,0,0,0,0,0,0,0,0,0,0,0],"split_type":[0,0,0,0,0,0,0,0,0,0,0,0,0,0,0,0,0,0,0,0,0,0,0,0,0,0,0,0,0,0,0,0,0,0,0,0,0,0,0,0,0,0,0,0,0,0,0,0,0,0,0,0,0,0,0,0,0,0,0,0,0,0,0],"sum_hessian":[3.996E3,2.867E3,1.129E3,2.028E3,8.39E2,8.19E2,3.1E2,1.44E3,5.88E2,6.02E2,2.37E2,6.02E2,2.17E2,2.8E2,3E1,1.014E3,4.26E2,2.79E2,3.09E2,3.05E2,2.97E2,1.85E2,5.2E1,4.76E2,1.26E2,1.93E2,2.4E1,2.59E2,2.1E1,4E0,2.6E1,6.97E2,3.17E2,4.03E2,2.3E1,1.14E2,1.65E2,1.54E2,1.55E2,1.14E2,1.91E2,1.36E2,1.61E2,7.4E1,1.11E2,2.9E1,2.3E1,3.43E2,1.33E2,1.14E2,1.2E1,3.8E1,1.55E2,1.1E1,1.3E1,2.34E2,2.5E1,1.9E1,2E0,3E0,1E0,1E1,1.6E1],"tree_param":{"num_deleted":"0","num_feature":"176","num_nodes":"63","size_leaf_vector":"1"}},{"base_weights":[-3.5925E-4,2.6835343E-3,-8.143299E-3,6.883111E-3,-8.462232E-3,-5.003145E-3,-1.6453635E-2,1.2107434E-2,-5.0864457E-3,-1.3610863E-2,-3.6437693E-3,-5.455413E-4,-1.6424598E-2,-1.8985964E-2,1.7559871E-2,1.7193811E-2,-8.466168E-4,4.642418E-3,-8.048245E-3,-7.344658E-4,-2.3884352E-2,-1.3798131E-2,5.6774067E-3,4.330448E-3,-1.41140865E-2,-2.7291732E-2,-9.7910445E-3,-1.747688E-2,-7.728382E-2,3.4660038E-2,-1.0991484E-2,2.1573964E-3,7.587573E-4,-8.58257E-4,5.817731E-4,4.1809246E-5,3.2079634E-3,-9.910673E-4,1.1097575E-3,1.2337173E-3,-1.0597393E-3,-2.623985E-3,6.757714E-4,-1.5528895E-3,2.9032303E-3,-7.580381E-4,2.2190502E-3,1.6589983E-3,-3.1673955E-4,-6.3070294E-4,-3.0216854E-3,-4.639955E-3,-3.6800638E-4,-1.6431175E-3,2.2738825E-3,-2.0734477E-3,4.0716815E-4,-9.308874E-3,-2.5181025E-3,4.877687E-3,-5.0563216E-5,-4.073319E-3,1.0668234E-3],"categories":[],"categories_nodes":[],"categories_segments":[],"categories_sizes":[],"default_left":[0,0,0,0,0,0,0,0,0,0,0,0,0,0,0,0,0,0,0,0,0,0,0,0,0,0,0,0,0,0,0,0,0,0,0,0,0,0,0,0,0,0,0,0,0,0,0,0,0,0,0,0,0,0,0,0,0,0,0,0,0,0,0],"id":14,"left_children":[1,3,5,7,9,11,13,15,17,19,21,23,25,27,29,31,33,35,37,39,41,43,45,47,49,51,53,55,57,59,61,-1,-1,-1,-1,-1,-1,-1,-1,-1,-1,-1,-1,-1,-1,-1,-1,-1,-1,-1,-1,-1,-1,-1,-1,-1,-1,-1,-1,-1,-1,-1,-1],"loss_changes":[9.5402084E-2,1.3561276E-1,2.945806E-2,1.3163066E-1,1.9623537E-2,4.1891873E-2,2.7034745E-2,9.654221E-2,1.8478923E-2,5.064781E-2,3.8979728E-2,3.929405E-2,1.6385049E-2,2.4074502E-2,1.1122089E-2,4.410112E-2,2.1393735E-2,1.7372148E-2,1.7617919E-2,2.2176849E-2,1.5551083E-2,1.5054334E-2,4.7237538E-2,4.0221617E-2,1.954671E-2,3.9080806E-2,3.1693995E-2,1.9950032E-2,3.4202896E-3,6.9746524E-3,6.232323E-3,0E0,0E0,0E0,0E0,0E0,0E0,0E0,0E0,0E0,0E0,0E0,0E0,0E0,0E0,0E0,0E0,0E0,0E0,0E0,0E0,0E0,0E0,0E0,0E0,0E0,0E0,0E0,0E0,0E0,0E0,0E0,0E0],"parents":[2147483647,0,0,1,1,2,2,3,3,4,4,5,5,6,6,7,7,8,8,9,9,10,10,11,11,12,12,13,13,14,14,15,15,16,16,17,17,18,18,19,19,20,20,21,21,22,22,23,23,24,24,25,25,26,26,27,27,28,28,29,29,30,30],"right_children":[2,4,6,8,10,12,14,16,18,20,22,24,26,28,30,32,34,36,38,40,42,44,46,48,50,52,54,56,58,60,62,-1,-1,-1,-1,-1,-1,-1,-1,-1,-1,-1,-1,-1,-1,-1,-1,-1,-1,-1,-1,-1,-1,-1,-1,-1,-1,-1,-1,-1,-1,-1,-1],"split_conditions":[1E0,1E0,1E0,1E0,1E0,1E0,1E0,1E0,6.894737E-1,1E0,1E0,1E0,1E0,1E0,7.526316E-1,1E0,1E0,1E0,1E0,1E0,1E0,1E0,1E0,1E0,1E0,1E0,1E0,1E0,7.526316E-1,1E0,1E0,2.1573964E-3,7.587573E-4,-8.58257E-4,5.817731E-4,4.1809246E-5,3.2079634E-3,-9.910673E-4,1.1097575E-3,1.2337173E-3,-1.0597393E-3,-2.623985E-3,6.757714E-4,-1.5528895E-3,2.9032303E-3,-7.580381E-4,2.2190502E-3,1.6589983E-3,-3.1673955E-4,-6.3070294E-4,-3.0216854E-3,-4.639955E-3,-3.6800638E-4,-1.6431175E-3,2.2738825E-3,-2.0734477E-3,4.0716815E-4,-9.308874E-3,-2.5181025E-3,4.877687E-3,-5.0563216E-5,-4.073319E-3,1.0668234E-3],"split_indices":[136,92,47,48,137,91,121,4,89,5,5,3,46,9,133,3,42,38,11,49,72,76,49,90,2,134,168,139,133,38,172,0,0,0,0,0,0,0,0,0,0,0,0,0,0,0,0,0,0,0,0,0,0,0,0,0,0,0,0,0,0,0,0],"split_type":[0,0,0,0,0,0,0,0,0,0,0,0,0,0,0,0,0,0,0,0,0,0,0,0,0,0,0,0,0,0,0,0,0,0,0,0,0,0,0,0,0,0,0,0,0,0,0,0,0,0,0,0,0,0,0,0,0,0,0,0,0,0,0],"sum_hessian":[4.026E3,2.895E3,1.131E3,2.103E3,7.92E2,8.22E2,3.09E2,1.464E3,6.39E2,3.82E2,4.1E2,5.92E2,2.3E2,2.88E2,2.1E1,1.051E3,4.13E2,1.49E2,4.9E2,1.7E2,2.12E2,1.96E2,2.14E2,4.36E2,1.56E2,8.6E1,1.44E2,2.82E2,6E0,1.3E1,8E0,7.21E2,3.3E2,1.91E2,2.22E2,1.3E2,1.9E1,4.47E2,4.3E1,7.3E1,9.7E1,1.97E2,1.5E1,1.89E2,7E0,1.19E2,9.5E1,1.65E2,2.71E2,1.06E2,5E1,4.7E1,3.9E1,1.2E2,2.4E1,2.45E2,3.7E1,4E0,2E0,9E0,4E0,3E0,5E0],"tree_param":{"num_deleted":"0","num_feature":"176","num_nodes":"63","size_leaf_vector":"1"}},{"base_weights":[-6.479796E-5,2.3394667E-3,-6.1819744E-3,5.5826674E-3,-6.0592936E-3,-2.74552E-3,-1.3416526E-2,9.842974E-3,-5.179029E-3,-2.3699873E-3,-1.297817E-2,-1.9438101E-2,1.1345445E-2,6.8523185E-3,-3.1305417E-2,2.0236844E-2,2.5655162E-3,3.2543004E-3,-2.0487575E-2,-1.5658304E-2,8.9545855E-3,4.9832934E-3,-3.4065694E-2,-5.9087444E-2,1.2953829E-2,1.859786E-2,4.9852924E-3,4.0476797E-3,3.2020945E-2,2.257367E-3,-5.830221E-2,6.9285405E-4,2.830866E-3,2.7397347E-3,-1.2548274E-3,-6.1143487E-4,1.0948813E-3,4.902852E-4,-4.2521274E-3,-5.1434413E-3,1.3293026E-3,1.9596973E-3,3.9601136E-6,1.5969493E-3,-3.2820657E-4,6.6971675E-6,-5.9783002E-3,-8.901901E-3,-2.9534984E-3,-2.527468E-3,4.299693E-3,-2.1050947E-3,4.3763504E-3,4.48011E-3,-2.6588708E-3,-7.038929E-4,1.3024599E-3,5.0325613E-3,-2.1975369E-3,4.422096E-3,-2.4205956E-3,-2.5831575E-3,-7.97148E-3],"categories":[],"categories_nodes":[],"categories_segments":[],"categories_sizes":[],"default_left":[0,0,0,0,0,0,0,0,0,0,0,0,0,0,0,0,0,0,0,0,0,0,0,0,0,0,0,0,0,0,0,0,0,0,0,0,0,0,0,0,0,0,0,0,0,0,0,0,0,0,0,0,0,0,0,0,0,0,0,0,0,0,0],"id":15,"left_children":[1,3,5,7,9,11,13,15,17,19,21,23,25,27,29,31,33,35,37,39,41,43,45,47,49,51,53,55,57,59,61,-1,-1,-1,-1,-1,-1,-1,-1,-1,-1,-1,-1,-1,-1,-1,-1,-1,-1,-1,-1,-1,-1,-1,-1,-1,-1,-1,-1,-1,-1,-1,-1],"loss_changes":[5.8799583E-2,7.820936E-2,2.8006602E-2,9.500245E-2,2.0389926E-2,1.8039489E-1,1.3183364E-1,1.1219928E-1,7.597865E-2,7.8843616E-2,1.05465814E-1,4.5156127E-1,1.909589E-2,1.1941092E-2,1.7500652E-1,6.543881E-2,3.2835865E-1,2.7460076E-2,1.1713249E-1,2.503033E-1,2.6849333E-2,1.3763948E-2,1.12362415E-1,1.3713002E-1,2.238963E-1,1.9449207E-1,2.8153437E-1,1.55178355E-2,1.7908458E-2,9.768358E-2,7.233581E-2,0E0,0E0,0E0,0E0,0E0,0E0,0E0,0E0,0E0,0E0,0E0,0E0,0E0,0E0,0E0,0E0,0E0,0E0,0E0,0E0,0E0,0E0,0E0,0E0,0E0,0E0,0E0,0E0,0E0,0E0,0E0,0E0],"parents":[2147483647,0,0,1,1,2,2,3,3,4,4,5,5,6,6,7,7,8,8,9,9,10,10,11,11,12,12,13,13,14,14,15,15,16,16,17,17,18,18,19,19,20,20,21,21,22,22,23,23,24,24,25,25,26,26,27,27,28,28,29,29,30,30],"right_children":[2,4,6,8,10,12,14,16,18,20,22,24,26,28,30,32,34,36,38,40,42,44,46,48,50,52,54,56,58,60,62,-1,-1,-1,-1,-1,-1,-1,-1,-1,-1,-1,-1,-1,-1,-1,-1,-1,-1,-1,-1,-1,-1,-1,-1,-1,-1,-1,-1,-1,-1,-1,-1],"split_conditions":[1E0,1E0,1E0,1E0,1E0,1E0,1E0,1E0,1E0,1E0,1E0,1E0,1E0,1E0,1E0,1E0,1E0,1E0,1E0,1E0,1E0,1E0,1E0,1E0,1E0,1E0,1E0,1E0,4E-1,1E0,1E0,6.9285405E-4,2.830866E-3,2.7397347E-3,-1.2548274E-3,-6.1143487E-4,1.0948813E-3,4.902852E-4,-4.2521274E-3,-5.1434413E-3,1.3293026E-3,1.9596973E-3,3.9601136E-6,1.5969493E-3,-3.2820657E-4,6.6971675E-6,-5.9783002E-3,-8.901901E-3,-2.9534984E-3,-2.527468E-3,4.299693E-3,-2.1050947E-3,4.3763504E-3,4.48011E-3,-2.6588708E-3,-7.038929E-4,1.3024599E-3,5.0325613E-3,-2.1975369E-3,4.422096E-3,-2.4205956E-3,-2.5831575E-3,-7.97148E-3],"split_indices":[3,91,2,135,90,134,90,2,134,46,134,90,90,161,134,134,134,46,46,134,134,46,46,46,46,46,46,137,0,46,46,0,0,0,0,0,0,0,0,0,0,0,0,0,0,0,0,0,0,0,0,0,0,0,0,0,0,0,0,0,0,0,0],"split_type":[0,0,0,0,0,0,0,0,0,0,0,0,0,0,0,0,0,0,0,0,0,0,0,0,0,0,0,0,0,0,0,0,0,0,0,0,0,0,0,0,0,0,0,0,0,0,0,0,0,0,0,0,0,0,0,0,0,0,0,0,0,0,0],"sum_hessian":[3.996E3,2.869E3,1.127E3,2.07E3,7.99E2,7.65E2,3.62E2,1.483E3,5.87E2,5.22E2,2.77E2,3.5E2,4.15E2,1.7E2,1.92E2,6.1E2,8.73E2,3.79E2,2.08E2,2.4E2,2.82E2,1.5E2,1.27E2,1.57E2,1.93E2,1.93E2,2.22E2,1.54E2,1.6E1,8.6E1,1.06E2,2.31E2,3.79E2,3.3E2,5.43E2,1.71E2,2.08E2,9.7E1,1.11E2,1.07E2,1.33E2,1.28E2,1.54E2,6.4E1,8.6E1,5.5E1,7.2E1,7.7E1,8E1,8.5E1,1.08E2,7.5E1,1.18E2,9.8E1,1.24E2,6.9E1,8.5E1,1.2E1,4E0,3.3E1,5.3E1,4.3E1,6.3E1],"tree_param":{"num_deleted":"0","num_feature":"176","num_nodes":"63","size_leaf_vector":"1"}},{"base_weights":[2.5526862E-4,2.6626496E-3,-6.0067596E-3,6.2139225E-3,-5.8342917E-3,-2.3460423E-3,-1.87579E-2,1.0112015E-2,-3.85794E-3,-3.2324586E-3,-1.3698457E-2,2.5061646E-3,-1.5004749E-2,-2.7181925E-2,-9.318229E-3,1.3275409E-2,2.5345052E-3,-1.7384064E-4,-1.2778628E-2,1.7029131E-3,-8.021212E-3,-1.1256244E-2,-3.141827E-2,8.228237E-3,-1.0909738E-2,-1.1976181E-2,-3.834106E-2,-3.0503772E-2,2.7289212E-2,-2.2284037E-2,4.948408E-3,1.7533932E-3,3.0393523E-4,3.3728982E-4,-4.2426735E-3,5.82657E-4,-6.2330917E-4,-2.0781297E-3,-9.3976174E-5,-1.4521421E-3,1.282651E-3,8.6027663E-4,-2.3800803E-3,-4.29721E-4,-1.8395495E-3,-4.241379E-3,1.0469834E-3,1.913336E-3,2.2475245E-4,-1.4234575E-3,1.2264549E-3,-1.3283908E-3,3.5354395E-3,-1.1478589E-3,-5.3467304E-3,-4.429804E-3,-2.1977618E-3,6.012307E-3,-2.0575412E-3,-9.0168294E-4,-3.613516E-3,-1.6891997E-3,2.2539098E-3],"categories":[],"categories_nodes":[],"categories_segments":[],"categories_sizes":[],"default_left":[0,0,0,0,0,0,0,0,0,0,0,0,0,0,0,0,0,0,0,0,0,0,0,0,0,0,0,0,0,0,0,0,0,0,0,0,0,0,0,0,0,0,0,0,0,0,0,0,0,0,0,0,0,0,0,0,0,0,0,0,0,0,0],"id":16,"left_children":[1,3,5,7,9,11,13,15,17,19,21,23,25,27,29,31,33,35,37,39,41,43,45,47,49,51,53,55,57,59,61,-1,-1,-1,-1,-1,-1,-1,-1,-1,-1,-1,-1,-1,-1,-1,-1,-1,-1,-1,-1,-1,-1,-1,-1,-1,-1,-1,-1,-1,-1,-1,-1],"loss_changes":[6.015052E-2,8.700048E-2,5.1675577E-2,7.9856716E-2,1.734778E-2,5.298394E-2,1.9388162E-2,3.510733E-2,1.8664924E-2,1.5139598E-2,8.777488E-3,4.7992222E-2,1.6432289E-2,2.4355248E-2,2.1937728E-2,4.501927E-2,1.6465118E-2,1.4688588E-2,1.5707733E-2,5.721571E-2,8.5458614E-2,9.21154E-3,1.1958601E-2,2.852353E-2,1.4583064E-2,1.3653381E-2,1.0357138E-2,1.3492726E-2,1.3809698E-2,1.1067649E-2,2.2279436E-2,0E0,0E0,0E0,0E0,0E0,0E0,0E0,0E0,0E0,0E0,0E0,0E0,0E0,0E0,0E0,0E0,0E0,0E0,0E0,0E0,0E0,0E0,0E0,0E0,0E0,0E0,0E0,0E0,0E0,0E0,0E0,0E0],"parents":[2147483647,0,0,1,1,2,2,3,3,4,4,5,5,6,6,7,7,8,8,9,9,10,10,11,11,12,12,13,13,14,14,15,15,16,16,17,17,18,18,19,19,20,20,21,21,22,22,23,23,24,24,25,25,26,26,27,27,28,28,29,29,30,30],"right_children":[2,4,6,8,10,12,14,16,18,20,22,24,26,28,30,32,34,36,38,40,42,44,46,48,50,52,54,56,58,60,62,-1,-1,-1,-1,-1,-1,-1,-1,-1,-1,-1,-1,-1,-1,-1,-1,-1,-1,-1,-1,-1,-1,-1,-1,-1,-1,-1,-1,-1,-1,-1,-1],"split_conditions":[1E0,1E0,1E0,1E0,1E0,1E0,7.4210525E-1,1E0,1E0,1E0,1E0,1E0,8.2631576E-1,1E0,1E0,1E0,1E0,1E0,1E0,1E0,1E0,4E-1,1E0,1E0,1E0,1E0,7.263158E-1,1E0,1E0,7.4210525E-1,1E0,1.7533932E-3,3.0393523E-4,3.3728982E-4,-4.2426735E-3,5.82657E-4,-6.2330917E-4,-2.0781297E-3,-9.3976174E-5,-1.4521421E-3,1.282651E-3,8.6027663E-4,-2.3800803E-3,-4.29721E-4,-1.8395495E-3,-4.241379E-3,1.0469834E-3,1.913336E-3,2.2475245E-4,-1.4234575E-3,1.2264549E-3,-1.3283908E-3,3.5354395E-3,-1.1478589E-3,-5.3467304E-3,-4.429804E-3,-2.1977618E-3,6.012307E-3,-2.0575412E-3,-9.0168294E-4,-3.613516E-3,-1.6891997E-3,2.2539098E-3],"split_indices":[136,48,135,92,91,47,89,135,47,46,145,91,45,129,49,47,87,90,49,90,2,132,94,46,104,152,89,86,33,1,5,0,0,0,0,0,0,0,0,0,0,0,0,0,0,0,0,0,0,0,0,0,0,0,0,0,0,0,0,0,0,0,0],"split_type":[0,0,0,0,0,0,0,0,0,0,0,0,0,0,0,0,0,0,0,0,0,0,0,0,0,0,0,0,0,0,0,0,0,0,0,0,0,0,0,0,0,0,0,0,0,0,0,0,0,0,0,0,0,0,0,0,0,0,0,0,0,0,0],"sum_hessian":[3.988E3,2.881E3,1.107E3,2.032E3,8.49E2,8.61E2,2.46E2,1.465E3,5.67E2,6.39E2,2.1E2,6.23E2,2.38E2,1.29E2,1.17E2,1.033E3,4.32E2,4.02E2,1.65E2,3.15E2,3.24E2,1.86E2,2.4E1,4.37E2,1.86E2,2.12E2,2.6E1,1.22E2,7E0,6.1E1,5.6E1,7.29E2,3.04E2,4.25E2,7E0,2.02E2,2E2,9.8E1,6.7E1,1.28E2,1.87E2,1.58E2,1.66E2,9.5E1,9.1E1,1.9E1,5E0,1.54E2,2.83E2,1.63E2,2.3E1,2.07E2,5E0,1E1,1.6E1,4.5E1,7.7E1,4E0,3E0,3.2E1,2.9E1,2.5E1,3.1E1],"tree_param":{"num_deleted":"0","num_feature":"176","num_nodes":"63","size_leaf_vector":"1"}},{"base_weights":[2.0699101E-4,2.3740313E-3,-5.4440354E-3,5.9823035E-3,-7.221941E-3,-7.702685E-3,7.245992E-4,1.0452524E-2,-5.734308E-3,-1.2955699E-2,-2.1567615E-3,-3.9870976E-3,-1.5064047E-2,-5.0398554E-3,1.6900124E-2,1.4834866E-2,-4.567317E-4,1.2011954E-3,-1.8421289E-2,-1.5275375E-2,3.0457042E-2,-1.756497E-2,1.3335489E-2,-2.164547E-2,6.556878E-3,3.96546E-3,-3.302686E-2,-1.4864097E-2,7.213206E-4,7.731008E-3,4.7034346E-2,2.6628939E-3,7.5561256E-4,6.9382176E-4,-1.5872747E-3,-1.1144303E-3,9.704168E-4,9.324501E-4,-3.4286776E-3,-1.0839215E-3,-3.1959992E-3,3.80582E-3,-2.2768537E-3,-9.92489E-4,-3.3373297E-3,-6.141504E-4,2.7551332E-3,-5.444607E-3,1.1369446E-3,1.3166723E-3,2.4457445E-4,-9.804799E-4,1.1950904E-3,4.5534872E-4,-4.8795715E-3,-3.5753355E-3,1.2240623E-3,1.788564E-3,-1.293136E-3,1.2831319E-3,-1.9563711E-3,5.623545E-3,7.7161196E-5],"categories":[],"categories_nodes":[],"categories_segments":[],"categories_sizes":[],"default_left":[0,0,0,0,0,0,0,0,0,0,0,0,0,0,0,0,0,0,0,0,0,0,0,0,0,0,0,0,0,0,0,0,0,0,0,0,0,0,0,0,0,0,0,0,0,0,0,0,0,0,0,0,0,0,0,0,0,0,0,0,0,0,0],"id":17,"left_children":[1,3,5,7,9,11,13,15,17,19,21,23,25,27,29,31,33,35,37,39,41,43,45,47,49,51,53,55,57,59,61,-1,-1,-1,-1,-1,-1,-1,-1,-1,-1,-1,-1,-1,-1,-1,-1,-1,-1,-1,-1,-1,-1,-1,-1,-1,-1,-1,-1,-1,-1,-1,-1],"loss_changes":[4.8641797E-2,9.945124E-2,1.5345577E-2,1.093683E-1,2.2770435E-2,2.1985471E-2,2.7685124E-2,7.224481E-2,5.07927E-2,3.752412E-2,1.0001409E-1,1.0012565E-1,9.24233E-2,1.2405945E-2,2.1188103E-2,9.234075E-2,4.9586408E-2,3.936821E-2,9.012059E-2,2.5559038E-2,8.553475E-3,2.5031917E-2,5.8037523E-2,2.1828374E-1,9.125421E-3,1.4632111E-2,8.259347E-2,4.629964E-2,3.2804403E-2,8.742933E-3,7.6186396E-3,0E0,0E0,0E0,0E0,0E0,0E0,0E0,0E0,0E0,0E0,0E0,0E0,0E0,0E0,0E0,0E0,0E0,0E0,0E0,0E0,0E0,0E0,0E0,0E0,0E0,0E0,0E0,0E0,0E0,0E0,0E0,0E0],"parents":[2147483647,0,0,1,1,2,2,3,3,4,4,5,5,6,6,7,7,8,8,9,9,10,10,11,11,12,12,13,13,14,14,15,15,16,16,17,17,18,18,19,19,20,20,21,21,22,22,23,23,24,24,25,25,26,26,27,27,28,28,29,29,30,30],"right_children":[2,4,6,8,10,12,14,16,18,20,22,24,26,28,30,32,34,36,38,40,42,44,46,48,50,52,54,56,58,60,62,-1,-1,-1,-1,-1,-1,-1,-1,-1,-1,-1,-1,-1,-1,-1,-1,-1,-1,-1,-1,-1,-1,-1,-1,-1,-1,-1,-1,-1,-1,-1,-1],"split_conditions":[1E0,1E0,1E0,1E0,1E0,1E0,1E0,1E0,1E0,1E0,1E0,1E0,1E0,1E0,1E0,1E0,1E0,1E0,1E0,1E0,1E0,1E0,1E0,1E0,1E0,1E0,1E0,1E0,1E0,1E0,1E0,2.6628939E-3,7.5561256E-4,6.9382176E-4,-1.5872747E-3,-1.1144303E-3,9.704168E-4,9.324501E-4,-3.4286776E-3,-1.0839215E-3,-3.1959992E-3,3.80582E-3,-2.2768537E-3,-9.92489E-4,-3.3373297E-3,-6.141504E-4,2.7551332E-3,-5.444607E-3,1.1369446E-3,1.3166723E-3,2.4457445E-4,-9.804799E-4,1.1950904E-3,4.5534872E-4,-4.8795715E-3,-3.5753355E-3,1.2240623E-3,1.788564E-3,-1.293136E-3,1.2831319E-3,-1.9563711E-3,5.623545E-3,7.7161196E-5],"split_indices":[3,47,47,135,137,2,135,91,134,79,5,46,90,134,91,46,90,46,46,84,169,4,49,134,174,93,46,2,90,6,102,0,0,0,0,0,0,0,0,0,0,0,0,0,0,0,0,0,0,0,0,0,0,0,0,0,0,0,0,0,0,0,0],"split_type":[0,0,0,0,0,0,0,0,0,0,0,0,0,0,0,0,0,0,0,0,0,0,0,0,0,0,0,0,0,0,0,0,0,0,0,0,0,0,0,0,0,0,0,0,0,0,0,0,0,0,0,0,0,0,0,0,0,0,0,0,0,0,0],"sum_hessian":[3.97E3,2.87E3,1.1E3,2.086E3,7.84E2,8.05E2,2.95E2,1.51E3,5.76E2,3.67E2,4.17E2,5.36E2,2.69E2,2.18E2,7.7E1,1.077E3,4.33E2,3.73E2,2.03E2,3.49E2,1.8E1,2.09E2,2.08E2,2E2,3.36E2,1.31E2,1.38E2,8E1,1.38E2,6E1,1.7E1,4.1E2,6.67E2,2.93E2,1.4E2,1.52E2,2.21E2,7.4E1,1.29E2,2.77E2,7.2E1,1.6E1,2E0,1.42E2,6.7E1,8.8E1,1.2E2,1E2,1E2,1.28E2,2.08E2,4.8E1,8.3E1,4.1E1,9.7E1,4.5E1,3.5E1,6.1E1,7.7E1,5.1E1,9E0,1.4E1,3E0],"tree_param":{"num_deleted":"0","num_feature":"176","num_nodes":"63","size_leaf_vector":"1"}},{"base_weights":[2.602645E-4,2.6828733E-3,-5.705062E-3,6.156708E-3,-6.604847E-3,-3.7895998E-3,-1.2398245E-2,1.0072557E-2,-4.5599374E-3,-9.739528E-4,-1.2745037E-2,-2.025766E-3,-1.2906958E-2,-2.405584E-3,-1.7615546E-2,1.4817739E-2,-1.5779627E-3,-4.9337577E-2,-3.9859237E-3,-1.6320635E-2,1.1402333E-2,9.266721E-3,-2.9426537E-2,-1.1165917E-3,-2.878356E-2,-1.6416973E-2,1.3160201E-2,-2.0398764E-2,7.3942016E-3,-2.0473802E-2,1.1174789E-2,1.8020045E-3,7.5031415E-4,-1.226292E-5,-2.1657476E-3,-6.1324853E-3,1.129304E-3,-4.8600323E-4,1.5519813E-3,-4.9408823E-3,1.2882475E-3,1.6147167E-3,-3.729643E-4,5.8829575E-4,2.5967655E-3,1.6015097E-4,-5.348662E-3,4.147254E-5,-1.1121262E-3,4.458651E-5,-5.1781386E-3,-1.8963836E-3,1.2859443E-3,-1.8261661E-3,3.4816083E-3,-2.7454111E-3,3.585218E-3,-2.7591966E-3,1.4243551E-3,-2.3186596E-3,1.0941804E-3,-2.0839185E-3,2.3582713E-3],"categories":[],"categories_nodes":[],"categories_segments":[],"categories_sizes":[],"default_left":[0,0,0,0,0,0,0,0,0,0,0,0,0,0,0,0,0,0,0,0,0,0,0,0,0,0,0,0,0,0,0,0,0,0,0,0,0,0,0,0,0,0,0,0,0,0,0,0,0,0,0,0,0,0,0,0,0,0,0,0,0,0,0],"id":18,"left_children":[1,3,5,7,9,11,13,15,17,19,21,23,25,27,29,31,33,35,37,39,41,43,45,47,49,51,53,55,57,59,61,-1,-1,-1,-1,-1,-1,-1,-1,-1,-1,-1,-1,-1,-1,-1,-1,-1,-1,-1,-1,-1,-1,-1,-1,-1,-1,-1,-1,-1,-1,-1,-1],"loss_changes":[5.8342177E-2,9.267062E-2,1.4901761E-2,8.775228E-2,2.7025048E-2,1.457586E-2,1.3460513E-2,8.4662944E-2,1.4197005E-2,7.786948E-2,1.376014E-1,1.8505413E-2,1.3665974E-2,1.602047E-2,1.4218122E-2,2.5349662E-2,1.2972085E-2,5.7801157E-3,9.521201E-3,1.774654E-1,1.6358534E-2,9.002179E-3,1.5909815E-1,1.131101E-2,1.682842E-2,9.937059E-3,1.2884225E-2,1.3684124E-2,1.4531324E-2,1.3463415E-2,6.8470743E-3,0E0,0E0,0E0,0E0,0E0,0E0,0E0,0E0,0E0,0E0,0E0,0E0,0E0,0E0,0E0,0E0,0E0,0E0,0E0,0E0,0E0,0E0,0E0,0E0,0E0,0E0,0E0,0E0,0E0,0E0,0E0,0E0],"parents":[2147483647,0,0,1,1,2,2,3,3,4,4,5,5,6,6,7,7,8,8,9,9,10,10,11,11,12,12,13,13,14,14,15,15,16,16,17,17,18,18,19,19,20,20,21,21,22,22,23,23,24,24,25,25,26,26,27,27,28,28,29,29,30,30],"right_children":[2,4,6,8,10,12,14,16,18,20,22,24,26,28,30,32,34,36,38,40,42,44,46,48,50,52,54,56,58,60,62,-1,-1,-1,-1,-1,-1,-1,-1,-1,-1,-1,-1,-1,-1,-1,-1,-1,-1,-1,-1,-1,-1,-1,-1,-1,-1,-1,-1,-1,-1,-1,-1],"split_conditions":[1E0,1E0,1E0,1E0,1E0,8.105263E-1,1E0,1E0,1E-1,1E0,1E0,1E0,1E0,1E0,1E0,1E0,1E0,1E0,1E0,1E0,1E0,1E0,1E0,1E0,4E-1,1E0,1E0,1E0,2E-1,1E0,1E0,1.8020045E-3,7.5031415E-4,-1.226292E-5,-2.1657476E-3,-6.1324853E-3,1.129304E-3,-4.8600323E-4,1.5519813E-3,-4.9408823E-3,1.2882475E-3,1.6147167E-3,-3.729643E-4,5.8829575E-4,2.5967655E-3,1.6015097E-4,-5.348662E-3,4.147254E-5,-1.1121262E-3,4.458651E-5,-5.1781386E-3,-1.8963836E-3,1.2859443E-3,-1.8261661E-3,3.4816083E-3,-2.7454111E-3,3.585218E-3,-2.7591966E-3,1.4243551E-3,-2.3186596E-3,1.0941804E-3,-2.0839185E-3,2.3582713E-3],"split_indices":[4,136,3,92,134,133,174,48,133,90,90,25,65,137,159,135,17,15,87,46,135,31,46,153,88,74,130,71,0,117,93,0,0,0,0,0,0,0,0,0,0,0,0,0,0,0,0,0,0,0,0,0,0,0,0,0,0,0,0,0,0,0,0],"split_type":[0,0,0,0,0,0,0,0,0,0,0,0,0,0,0,0,0,0,0,0,0,0,0,0,0,0,0,0,0,0,0,0,0,0,0,0,0,0,0,0,0,0,0,0,0,0,0,0,0,0,0,0,0,0,0,0,0,0,0,0,0,0,0],"sum_hessian":[4.035E3,2.87E3,1.165E3,2.089E3,7.81E2,9.07E2,2.58E2,1.53E3,5.59E2,4.08E2,3.73E2,7.61E2,1.46E2,8.9E1,1.69E2,1.087E3,4.43E2,6E0,5.53E2,1.82E2,2.26E2,1.61E2,2.12E2,7.37E2,2.4E1,1.29E2,1.7E1,3.1E1,5.8E1,1.54E2,1.5E1,7.55E2,3.32E2,4.14E2,2.9E1,5E0,1E0,5.3E2,2.3E1,8.5E1,9.7E1,1.72E2,5.4E1,1.35E2,2.6E1,9.3E1,1.19E2,6.4E2,9.7E1,1.1E1,1.3E1,1.19E2,1E1,7E0,1E1,2.8E1,3E0,9E0,4.9E1,1.42E2,1.2E1,4E0,1.1E1],"tree_param":{"num_deleted":"0","num_feature":"176","num_nodes":"63","size_leaf_vector":"1"}},{"base_weights":[4.03217E-4,2.3961042E-3,-4.685328E-3,5.2568247E-3,-5.1349616E-3,1.7319713E-2,-5.4118005E-3,9.350323E-3,-5.3584897E-3,-2.3278747E-2,-3.441801E-3,2.4278075E-2,-6.731495E-3,-7.5513325E-3,1.5023799E-3,1.3400005E-2,-1.7313547E-3,-2.5016055E-4,-1.5927052E-2,-1.4500809E-2,-4.057449E-2,-5.8634086E-3,1.47465E-2,2.8787056E-2,-1.673605E-2,-6.74617E-3,-2.803417E-2,4.062709E-3,-1.2913376E-2,2.46027E-3,6.711066E-4,4.4270302E-4,-1.3630922E-3,-1.2880918E-3,8.046524E-4,9.240284E-4,-2.7226636E-3,-4.831166E-4,-3.232944E-3,-4.407915E-3,1.6511634E-3,-3.6244918E-4,-1.8758167E-3,3.7086493E-4,3.5933089E-3,3.5266385E-3,-1.1958724E-3,2.1463202E-3,-3.6623534E-3,-3.6347914E-4,-1.2851318E-3,-3.1095285E-3,3.189966E-3,5.2252715E-4,-3.8079123E-3,-3.131343E-3,1.0292989E-3],"categories":[],"categories_nodes":[],"categories_segments":[],"categories_sizes":[],"default_left":[0,0,0,0,0,0,0,0,0,0,0,0,0,0,0,0,0,0,0,0,0,0,0,0,0,0,0,0,0,0,0,0,0,0,0,0,0,0,0,0,0,0,0,0,0,0,0,0,0,0,0,0,0,0,0,0,0],"id":19,"left_children":[1,3,5,7,9,11,13,15,17,19,21,23,-1,25,27,29,31,33,35,37,39,41,43,45,47,49,51,53,55,-1,-1,-1,-1,-1,-1,-1,-1,-1,-1,-1,-1,-1,-1,-1,-1,-1,-1,-1,-1,-1,-1,-1,-1,-1,-1,-1,-1],"loss_changes":[4.0321287E-2,6.157898E-2,1.7982129E-2,9.004286E-2,2.4096783E-2,2.283534E-2,1.6047075E-2,6.7114726E-2,3.114692E-2,9.583641E-3,3.1842854E-2,6.769467E-3,0E0,1.3466254E-2,9.538096E-3,8.188777E-2,2.9446471E-2,4.0973075E-2,5.37151E-2,7.7740485E-3,5.1292963E-3,1.8322382E-2,1.974436E-2,8.605905E-3,3.8248058E-3,1.511164E-2,6.6793263E-3,1.0928331E-2,1.6975245E-2,0E0,0E0,0E0,0E0,0E0,0E0,0E0,0E0,0E0,0E0,0E0,0E0,0E0,0E0,0E0,0E0,0E0,0E0,0E0,0E0,0E0,0E0,0E0,0E0,0E0,0E0,0E0,0E0],"parents":[2147483647,0,0,1,1,2,2,3,3,4,4,5,5,6,6,7,7,8,8,9,9,10,10,11,11,13,13,14,14,15,15,16,16,17,17,18,18,19,19,20,20,21,21,22,22,23,23,24,24,25,25,26,26,27,27,28,28],"right_children":[2,4,6,8,10,12,14,16,18,20,22,24,-1,26,28,30,32,34,36,38,40,42,44,46,48,50,52,54,56,-1,-1,-1,-1,-1,-1,-1,-1,-1,-1,-1,-1,-1,-1,-1,-1,-1,-1,-1,-1,-1,-1,-1,-1,-1,-1,-1,-1],"split_conditions":[1E0,1E0,2.263158E-1,1E0,6E-1,1E0,8E-1,1E0,1E0,1E0,1E0,1E0,-6.731495E-3,1E0,1E0,1E0,1E0,1E0,1E0,7.9473686E-1,1E0,1E0,7.7894735E-1,1E0,2E-1,1E0,1E0,1E0,7.7894735E-1,2.46027E-3,6.711066E-4,4.4270302E-4,-1.3630922E-3,-1.2880918E-3,8.046524E-4,9.240284E-4,-2.7226636E-3,-4.831166E-4,-3.232944E-3,-4.407915E-3,1.6511634E-3,-3.6244918E-4,-1.8758167E-3,3.7086493E-4,3.5933089E-3,3.5266385E-3,-1.1958724E-3,2.1463202E-3,-3.6623534E-3,-3.6347914E-4,-1.2851318E-3,-3.1095285E-3,3.189966E-3,5.2252715E-4,-3.8079123E-3,-3.131343E-3,1.0292989E-3],"split_indices":[135,47,45,3,133,173,45,91,2,92,94,8,0,166,125,90,90,134,134,89,33,69,1,151,88,134,58,9,133,0,0,0,0,0,0,0,0,0,0,0,0,0,0,0,0,0,0,0,0,0,0,0,0,0,0,0,0],"split_type":[0,0,0,0,0,0,0,0,0,0,0,0,0,0,0,0,0,0,0,0,0,0,0,0,0,0,0,0,0,0,0,0,0,0,0,0,0,0,0,0,0,0,0,0,0,0,0,0,0,0,0,0,0,0,0,0,0],"sum_hessian":[3.974E3,2.856E3,1.118E3,2.07E3,7.86E2,3.5E1,1.083E3,1.494E3,5.76E2,6.6E1,7.2E2,3.3E1,2E0,8.27E2,2.56E2,1.094E3,4E2,3.89E2,1.87E2,4.5E1,2.1E1,6.36E2,8.4E1,3E1,3E0,7.97E2,3E1,2.18E2,3.8E1,4.08E2,6.86E2,2.64E2,1.36E2,1.54E2,2.35E2,5.8E1,1.29E2,3E1,1.5E1,2E1,1E0,5.43E2,9.3E1,5.6E1,2.8E1,2.6E1,4E0,1E0,2E0,5.29E2,2.68E2,2.9E1,1E0,2.13E2,5E0,2.1E1,1.7E1],"tree_param":{"num_deleted":"0","num_feature":"176","num_nodes":"57","size_leaf_vector":"1"}},{"base_weights":[5.1055267E-4,2.7693927E-3,-5.335006E-3,6.0731354E-3,-5.896577E-3,-2.5880928E-3,-1.2615743E-2,1.023993E-2,-3.6767502E-3,-4.15062E-2,-5.529439E-3,-6.1414083E-3,6.2834285E-3,-2.9801901E-2,-1.0639705E-2,1.5283633E-2,5.5340407E-3,-4.7278423E-3,1.2318663E-2,-5.1158573E-2,1.3030202E-3,-4.502341E-3,-1.8449908E-2,-4.9870886E-4,-1.1686114E-2,-1.2865327E-3,2.1636682E-2,-3.6190774E-2,1.0658386E-2,-1.8533766E-2,-4.4485433E-3,2.7973548E-4,2.3838994E-3,2.4049627E-3,-9.797881E-4,-2.507279E-4,-1.2643909E-3,-8.709605E-4,2.3167783E-3,-5.469699E-3,-1.4964044E-3,-5.90688E-4,7.576793E-4,-2.4095124E-3,2.6121673E-3,-1.5304278E-3,8.5519097E-4,1.5172249E-3,-2.6991775E-3,1.0899275E-3,-7.2523387E-4,2.5499535E-3,-2.8323666E-3,-4.042213E-3,1.1134078E-3,3.146074E-3,-3.6275515E-3,-5.453521E-4,-2.7359854E-3,-1.6917143E-3,6.721636E-4],"categories":[],"categories_nodes":[],"categories_segments":[],"categories_sizes":[],"default_left":[0,0,0,0,0,0,0,0,0,0,0,0,0,0,0,0,0,0,0,0,0,0,0,0,0,0,0,0,0,0,0,0,0,0,0,0,0,0,0,0,0,0,0,0,0,0,0,0,0,0,0,0,0,0,0,0,0,0,0,0,0],"id":20,"left_children":[1,3,5,7,9,11,13,15,17,19,21,23,25,27,29,31,33,35,37,39,-1,41,43,45,47,49,51,53,55,57,59,-1,-1,-1,-1,-1,-1,-1,-1,-1,-1,-1,-1,-1,-1,-1,-1,-1,-1,-1,-1,-1,-1,-1,-1,-1,-1,-1,-1,-1,-1],"loss_changes":[5.2963544E-2,8.286278E-2,2.232685E-2,8.514865E-2,1.0216346E-2,2.5667045E-2,1.0074832E-2,3.4758553E-2,1.0616587E-2,4.8778504E-3,1.0427233E-2,1.8171981E-2,2.710792E-2,8.399101E-3,1.340661E-2,7.5565115E-2,2.1626796E-1,1.0339394E-2,9.0991715E-3,7.800944E-5,0E0,1.251448E-2,1.5223142E-2,3.885676E-2,1.2085743E-1,1.1492657E-2,1.5582431E-2,5.856756E-3,6.022932E-3,1.3819929E-2,2.1840844E-2,0E0,0E0,0E0,0E0,0E0,0E0,0E0,0E0,0E0,0E0,0E0,0E0,0E0,0E0,0E0,0E0,0E0,0E0,0E0,0E0,0E0,0E0,0E0,0E0,0E0,0E0,0E0,0E0,0E0,0E0],"parents":[2147483647,0,0,1,1,2,2,3,3,4,4,5,5,6,6,7,7,8,8,9,9,10,10,11,11,12,12,13,13,14,14,15,15,16,16,17,17,18,18,19,19,21,21,22,22,23,23,24,24,25,25,26,26,27,27,28,28,29,29,30,30],"right_children":[2,4,6,8,10,12,14,16,18,20,22,24,26,28,30,32,34,36,38,40,-1,42,44,46,48,50,52,54,56,58,60,-1,-1,-1,-1,-1,-1,-1,-1,-1,-1,-1,-1,-1,-1,-1,-1,-1,-1,-1,-1,-1,-1,-1,-1,-1,-1,-1,-1,-1,-1],"split_conditions":[1E0,1E0,1E0,1E0,1E-1,1E0,6E-1,1E0,1E0,8.105263E-1,1E0,1E0,1E0,1E0,1E0,1E0,1E0,8E-1,1E0,1E0,1.3030202E-3,1E0,1E0,1E0,1E0,1E0,1E0,1E0,4E-1,1E0,1E0,2.7973548E-4,2.3838994E-3,2.4049627E-3,-9.797881E-4,-2.507279E-4,-1.2643909E-3,-8.709605E-4,2.3167783E-3,-5.469699E-3,-1.4964044E-3,-5.90688E-4,7.576793E-4,-2.4095124E-3,2.6121673E-3,-1.5304278E-3,8.5519097E-4,1.5172249E-3,-2.6991775E-3,1.0899275E-3,-7.2523387E-4,2.5499535E-3,-2.8323666E-3,-4.042213E-3,1.1134078E-3,3.146074E-3,-3.6275515E-3,-5.453521E-4,-2.7359854E-3,-1.6917143E-3,6.721636E-4],"split_indices":[136,92,91,48,133,48,1,2,70,1,147,134,92,21,137,90,134,1,5,22,0,21,31,90,90,90,58,94,44,5,93,0,0,0,0,0,0,0,0,0,0,0,0,0,0,0,0,0,0,0,0,0,0,0,0,0,0,0,0,0,0],"split_type":[0,0,0,0,0,0,0,0,0,0,0,0,0,0,0,0,0,0,0,0,0,0,0,0,0,0,0,0,0,0,0,0,0,0,0,0,0,0,0,0,0,0,0,0,0,0,0,0,0,0,0,0,0,0,0,0,0,0,0,0,0],"sum_hessian":[4.009E3,2.892E3,1.117E3,2.094E3,7.98E2,8.12E2,3.05E2,1.467E3,6.27E2,7E0,7.91E2,5.8E2,2.32E2,3E1,2.75E2,7.07E2,7.6E2,5.89E2,3.8E1,6E0,1E0,7.34E2,5.7E1,2.88E2,2.92E2,1.56E2,7.6E1,2.6E1,4E0,1.2E2,1.55E2,2.88E2,4.19E2,3.44E2,4.16E2,4.61E2,1.28E2,1.3E1,2.5E1,5E0,1E0,6.58E2,7.6E1,5.1E1,6E0,1.09E2,1.79E2,1.06E2,1.86E2,5.1E1,1.05E2,7.1E1,5E0,2.4E1,2E0,3E0,1E0,4.9E1,7.1E1,7.3E1,8.2E1],"tree_param":{"num_deleted":"0","num_feature":"176","num_nodes":"61","size_leaf_vector":"1"}},{"base_weights":[-6.641285E-4,1.7237739E-3,-6.406432E-3,4.7892146E-3,-6.3376687E-3,-7.373399E-3,3.8340855E-3,7.7731484E-3,-2.6685868E-3,-1.8452499E-3,-1.1252342E-2,-5.5143666E-3,-1.3864524E-2,1.43733965E-2,-5.9821466E-3,3.4544687E-3,1.1710735E-2,-3.9852927E-3,2.0778408E-2,-1.4176737E-2,7.735971E-3,6.9859466E-3,-2.6607433E-2,-3.0912089E-3,-1.0855873E-2,-4.6667214E-3,-1.9011188E-2,-1.1430731E-3,3.692943E-2,5.822407E-4,-3.1099102E-2,1.0716746E-3,-1.9053405E-4,1.4653675E-4,1.9971996E-3,-1.2229134E-3,-6.608345E-5,2.5694454E-3,-3.3669514E-3,-5.166933E-3,1.0255285E-3,1.7671155E-5,1.4906066E-3,1.6539373E-3,1.8450634E-4,-5.875184E-5,-5.4230774E-3,3.510921E-4,-9.500552E-4,-8.648497E-4,-3.980709E-3,-9.4970065E-4,2.3187727E-3,-2.466451E-3,-2.6684545E-5,-1.3377675E-3,1.5885074E-3,4.3179425E-3,1.1345893E-4,-2.857733E-4,3.483642E-3,-4.853162E-3,3.1564813E-3],"categories":[],"categories_nodes":[],"categories_segments":[],"categories_sizes":[],"default_left":[0,0,0,0,0,0,0,0,0,0,0,0,0,0,0,0,0,0,0,0,0,0,0,0,0,0,0,0,0,0,0,0,0,0,0,0,0,0,0,0,0,0,0,0,0,0,0,0,0,0,0,0,0,0,0,0,0,0,0,0,0,0,0],"id":21,"left_children":[1,3,5,7,9,11,13,15,17,19,21,23,25,27,29,31,33,35,37,39,41,43,45,47,49,51,53,55,57,59,61,-1,-1,-1,-1,-1,-1,-1,-1,-1,-1,-1,-1,-1,-1,-1,-1,-1,-1,-1,-1,-1,-1,-1,-1,-1,-1,-1,-1,-1,-1,-1,-1],"loss_changes":[5.4297093E-2,6.914947E-2,1.1544574E-2,4.5128755E-2,1.7001968E-2,1.2750994E-2,1.0535071E-2,2.4583042E-2,1.7989032E-2,4.7842547E-2,1.0324448E-1,1.0683507E-2,1.1083052E-2,1.7191723E-2,8.756611E-3,2.6956119E-2,6.4042956E-2,1.5065385E-2,9.162844E-3,1.626654E-1,1.2355105E-2,8.269588E-3,1.4371952E-1,2.4195401E-2,1.6143532E-2,1.1791078E-2,1.5994549E-2,6.462483E-3,4.4253618E-3,5.166393E-3,1.3548179E-2,0E0,0E0,0E0,0E0,0E0,0E0,0E0,0E0,0E0,0E0,0E0,0E0,0E0,0E0,0E0,0E0,0E0,0E0,0E0,0E0,0E0,0E0,0E0,0E0,0E0,0E0,0E0,0E0,0E0,0E0,0E0,0E0],"parents":[2147483647,0,0,1,1,2,2,3,3,4,4,5,5,6,6,7,7,8,8,9,9,10,10,11,11,12,12,13,13,14,14,15,15,16,16,17,17,18,18,19,19,20,20,21,21,22,22,23,23,24,24,25,25,26,26,27,27,28,28,29,29,30,30],"right_children":[2,4,6,8,10,12,14,16,18,20,22,24,26,28,30,32,34,36,38,40,42,44,46,48,50,52,54,56,58,60,62,-1,-1,-1,-1,-1,-1,-1,-1,-1,-1,-1,-1,-1,-1,-1,-1,-1,-1,-1,-1,-1,-1,-1,-1,-1,-1,-1,-1,-1,-1,-1,-1],"split_conditions":[1E0,1E0,1E0,1E0,1E0,1E0,1E0,1E0,6E-1,1E0,1E0,1E0,1E0,7.6842105E-1,1E0,1E0,1E0,7.157895E-1,1E0,1E0,1E0,1E0,1E0,1E0,1E0,1E0,7.9473686E-1,1E0,1E0,1E0,1E0,1.0716746E-3,-1.9053405E-4,1.4653675E-4,1.9971996E-3,-1.2229134E-3,-6.608345E-5,2.5694454E-3,-3.3669514E-3,-5.166933E-3,1.0255285E-3,1.7671155E-5,1.4906066E-3,1.6539373E-3,1.8450634E-4,-5.875184E-5,-5.4230774E-3,3.510921E-4,-9.500552E-4,-8.648497E-4,-3.980709E-3,-9.4970065E-4,2.3187727E-3,-2.466451E-3,-2.6684545E-5,-1.3377675E-3,1.5885074E-3,4.3179425E-3,1.1345893E-4,-2.857733E-4,3.483642E-3,-4.853162E-3,3.1564813E-3],"split_indices":[4,136,51,48,134,3,2,137,88,46,46,91,174,89,69,93,5,1,162,2,5,86,2,46,6,50,89,136,154,159,136,0,0,0,0,0,0,0,0,0,0,0,0,0,0,0,0,0,0,0,0,0,0,0,0,0,0,0,0,0,0,0,0],"split_type":[0,0,0,0,0,0,0,0,0,0,0,0,0,0,0,0,0,0,0,0,0,0,0,0,0,0,0,0,0,0,0,0,0,0,0,0,0,0,0,0,0,0,0,0,0,0,0,0,0,0,0,0,0,0,0,0,0,0,0,0,0,0,0],"sum_hessian":[3.958E3,2.796E3,1.162E3,2.026E3,7.7E2,1.062E3,1E2,1.447E3,5.79E2,4.03E2,3.67E2,8.27E2,2.35E2,4.8E1,5.2E1,6.91E2,7.56E2,5.49E2,3E1,1.76E2,2.27E2,1.68E2,1.99E2,5.7E2,2.57E2,8.5E1,1.5E2,2.9E1,1.9E1,4.2E1,1E1,2.93E2,3.98E2,3.38E2,4.18E2,1.57E2,3.92E2,2.8E1,2E0,6.9E1,1.07E2,1.11E2,1.16E2,5.8E1,1.1E2,1.03E2,9.6E1,2.81E2,2.89E2,2.4E2,1.7E1,7.3E1,1.2E1,1.15E2,3.5E1,1.7E1,1.2E1,1.6E1,3E0,3.9E1,3E0,8E0,2E0],"tree_param":{"num_deleted":"0","num_feature":"176","num_nodes":"63","size_leaf_vector":"1"}},{"base_weights":[9.6097274E-4,2.6604438E-3,-3.4948133E-3,5.4808916E-3,-4.2416835E-3,-2.6103652E-3,-1.3472664E-2,1.07795345E-2,4.550966E-4,-2.7247218E-3,-1.9335529E-2,-5.89206E-4,-7.837389E-3,-2.5321102E-2,3.8918355E-4,-1.472302E-4,1.683309E-2,2.0484181E-2,-1.2708496E-2,-8.7352446E-4,-1.297857E-2,-2.357188E-2,2.579021E-2,-1.7444415E-3,1.8321175E-2,-1.9032016E-2,-4.840436E-3,-4.4186376E-2,-4.614729E-3,-1.568333E-2,1.7208522E-2,-3.798548E-3,1.9581034E-3,2.270896E-3,8.0679124E-4,2.7071757E-3,1.088753E-3,2.2262174E-3,-3.3694133E-3,-7.873038E-4,3.5298904E-4,-1.4989796E-3,2.0480505E-3,-6.9497543E-4,-3.6606141E-3,3.3848349E-3,-1.1279315E-3,3.0790472E-3,-2.5164863E-4,2.5820672E-3,-1.6779263E-3,1.1928002E-3,-2.804089E-3,-8.8054E-5,-1.8178115E-3,-7.004601E-3,-1.0334604E-3,-9.883015E-4,3.555761E-3,-5.763701E-4,-4.825733E-3,2.5085076E-3,-2.2538097E-3],"categories":[],"categories_nodes":[],"categories_segments":[],"categories_sizes":[],"default_left":[0,0,0,0,0,0,0,0,0,0,0,0,0,0,0,0,0,0,0,0,0,0,0,0,0,0,0,0,0,0,0,0,0,0,0,0,0,0,0,0,0,0,0,0,0,0,0,0,0,0,0,0,0,0,0,0,0,0,0,0,0,0,0],"id":22,"left_children":[1,3,5,7,9,11,13,15,17,19,21,23,25,27,29,31,33,35,37,39,41,43,45,47,49,51,53,55,57,59,61,-1,-1,-1,-1,-1,-1,-1,-1,-1,-1,-1,-1,-1,-1,-1,-1,-1,-1,-1,-1,-1,-1,-1,-1,-1,-1,-1,-1,-1,-1,-1,-1],"loss_changes":[3.0056896E-2,5.59522E-2,9.6369125E-3,5.4320075E-2,1.904323E-2,1.0644546E-2,1.4627323E-2,6.568522E-2,2.765705E-1,1.4395921E-2,1.51367355E-2,1.5935807E-2,9.335361E-3,1.8546399E-2,1.1623707E-2,2.6574522E-1,3.2727256E-2,2.6004195E-2,4.6529728E-1,1.9877004E-2,8.113079E-3,1.4911592E-2,2.4727662E-3,1.7333832E-2,1.1489146E-2,1.6790455E-2,1.1761922E-2,2.116096E-2,5.4307603E-3,6.830542E-3,7.1397624E-3,0E0,0E0,0E0,0E0,0E0,0E0,0E0,0E0,0E0,0E0,0E0,0E0,0E0,0E0,0E0,0E0,0E0,0E0,0E0,0E0,0E0,0E0,0E0,0E0,0E0,0E0,0E0,0E0,0E0,0E0,0E0,0E0],"parents":[2147483647,0,0,1,1,2,2,3,3,4,4,5,5,6,6,7,7,8,8,9,9,10,10,11,11,12,12,13,13,14,14,15,15,16,16,17,17,18,18,19,19,20,20,21,21,22,22,23,23,24,24,25,25,26,26,27,27,28,28,29,29,30,30],"right_children":[2,4,6,8,10,12,14,16,18,20,22,24,26,28,30,32,34,36,38,40,42,44,46,48,50,52,54,56,58,60,62,-1,-1,-1,-1,-1,-1,-1,-1,-1,-1,-1,-1,-1,-1,-1,-1,-1,-1,-1,-1,-1,-1,-1,-1,-1,-1,-1,-1,-1,-1,-1,-1],"split_conditions":[1E0,1E0,1E0,1E0,1E0,1E0,1E0,1E0,1E0,1E0,1E0,1E0,7E-1,1E0,1E0,1E0,1E0,1E0,1E0,1E0,1E0,1E0,1E0,2.263158E-1,1E0,1E0,1E0,1E0,1E0,7.9473686E-1,1E0,-3.798548E-3,1.9581034E-3,2.270896E-3,8.0679124E-4,2.7071757E-3,1.088753E-3,2.2262174E-3,-3.3694133E-3,-7.873038E-4,3.5298904E-4,-1.4989796E-3,2.0480505E-3,-6.9497543E-4,-3.6606141E-3,3.3848349E-3,-1.1279315E-3,3.0790472E-3,-2.5164863E-4,2.5820672E-3,-1.6779263E-3,1.1928002E-3,-2.804089E-3,-8.8054E-5,-1.8178115E-3,-7.004601E-3,-1.0334604E-3,-9.883015E-4,3.555761E-3,-5.763701E-4,-4.825733E-3,2.5085076E-3,-2.2538097E-3],"split_indices":[91,135,55,2,152,136,93,134,134,157,123,98,1,134,5,90,3,136,90,90,43,2,26,1,163,130,154,2,23,89,72,0,0,0,0,0,0,0,0,0,0,0,0,0,0,0,0,0,0,0,0,0,0,0,0,0,0,0,0,0,0,0,0],"split_type":[0,0,0,0,0,0,0,0,0,0,0,0,0,0,0,0,0,0,0,0,0,0,0,0,0,0,0,0,0,0,0,0,0,0,0,0,0,0,0,0,0,0,0,0,0,0,0,0,0,0,0,0,0,0,0,0,0,0,0,0,0,0,0],"sum_hessian":[3.967E3,2.872E3,1.095E3,2.039E3,8.33E2,1.007E3,8.8E1,9.92E2,1.047E3,7.58E2,7.5E1,7.27E2,2.8E2,4.7E1,4.1E1,3.54E2,6.38E2,4.15E2,6.32E2,6.43E2,1.15E2,6.9E1,6E0,6.86E2,4.1E1,5.8E1,2.22E2,2.4E1,2.3E1,2.1E1,2E1,1.21E2,2.33E2,3.81E2,2.57E2,2.45E2,1.7E2,2.37E2,3.95E2,2.48E2,3.95E2,1.09E2,6E0,3.1E1,3.8E1,5E0,1E0,1.5E1,6.71E2,3.4E1,7E0,1.3E1,4.5E1,1.72E2,5E1,1.3E1,1.1E1,2.1E1,2E0,1.7E1,4E0,1.7E1,3E0],"tree_param":{"num_deleted":"0","num_feature":"176","num_nodes":"63","size_leaf_vector":"1"}},{"base_weights":[3.758626E-4,2.208126E-3,-4.568392E-3,5.0945617E-3,-5.2233557E-3,-8.814043E-3,-8.2814146E-4,1.0881251E-2,-2.6196294E-5,7.6573496E-3,-6.471778E-3,-2.5344735E-2,5.5690627E-3,9.044597E-3,-1.9020893E-2,-4.0609876E-4,2.0027217E-2,2.132309E-2,-1.3986516E-2,2.9998475E-3,3.363601E-2,-4.1161967E-3,-1.3236476E-2,-4.5584768E-2,1.49461385E-2,-2.78946E-2,6.6845487E-3,1.1819541E-2,-1.0631498E-2,9.055084E-3,-4.7742482E-2,-4.24679E-3,2.3356553E-3,2.8989424E-3,6.5336114E-4,2.4038588E-3,9.042003E-4,1.3421596E-3,-3.470122E-3,-2.1229124E-4,3.3972287E-3,3.9507593E-3,-1.2539908E-3,-9.743047E-4,1.1243459E-5,-1.6683377E-3,3.65001E-5,-5.012222E-3,-1.6772671E-3,1.0334889E-3,3.7916824E-3,-4.2402158E-3,1.5254568E-3,1.2840881E-3,1.096103E-4,1.3372508E-3,-8.5379736E-4,-1.6191837E-3,1.4644581E-3,5.147645E-5,3.1124367E-3,-5.477022E-3,-3.1601395E-3],"categories":[],"categories_nodes":[],"categories_segments":[],"categories_sizes":[],"default_left":[0,0,0,0,0,0,0,0,0,0,0,0,0,0,0,0,0,0,0,0,0,0,0,0,0,0,0,0,0,0,0,0,0,0,0,0,0,0,0,0,0,0,0,0,0,0,0,0,0,0,0,0,0,0,0,0,0,0,0,0,0,0,0],"id":23,"left_children":[1,3,5,7,9,11,13,15,17,19,21,23,25,27,29,31,33,35,37,39,41,43,45,47,49,51,53,55,57,59,61,-1,-1,-1,-1,-1,-1,-1,-1,-1,-1,-1,-1,-1,-1,-1,-1,-1,-1,-1,-1,-1,-1,-1,-1,-1,-1,-1,-1,-1,-1,-1,-1],"loss_changes":[3.641892E-2,6.294091E-2,1.7254047E-2,6.2613204E-2,1.3251694E-2,1.21162355E-1,1.0416754E-1,1.0241599E-1,3.3470234E-1,8.731781E-3,1.1880681E-2,1.9395211E-1,1.0377076E-2,2.0655287E-2,1.649352E-1,4.4576937E-1,6.608158E-2,1.4589712E-2,3.8596863E-1,1.0067975E-2,3.4778053E-3,1.3254284E-2,9.054497E-3,1.9815177E-2,8.082021E-3,6.2807286E-3,9.103075E-3,1.0546975E-2,6.8426696E-3,1.9585766E-2,9.726152E-3,0E0,0E0,0E0,0E0,0E0,0E0,0E0,0E0,0E0,0E0,0E0,0E0,0E0,0E0,0E0,0E0,0E0,0E0,0E0,0E0,0E0,0E0,0E0,0E0,0E0,0E0,0E0,0E0,0E0,0E0,0E0,0E0],"parents":[2147483647,0,0,1,1,2,2,3,3,4,4,5,5,6,6,7,7,8,8,9,9,10,10,11,11,12,12,13,13,14,14,15,15,16,16,17,17,18,18,19,19,20,20,21,21,22,22,23,23,24,24,25,25,26,26,27,27,28,28,29,29,30,30],"right_children":[2,4,6,8,10,12,14,16,18,20,22,24,26,28,30,32,34,36,38,40,42,44,46,48,50,52,54,56,58,60,62,-1,-1,-1,-1,-1,-1,-1,-1,-1,-1,-1,-1,-1,-1,-1,-1,-1,-1,-1,-1,-1,-1,-1,-1,-1,-1,-1,-1,-1,-1,-1,-1],"split_conditions":[1E0,1E0,1E0,1E0,6.105263E-1,1E0,1E0,1E0,1E0,1E0,1E0,1E0,2E-1,8.1578946E-1,1E0,1E0,1E0,1E0,1E0,1E0,1E0,1E0,1E0,1E0,1E0,1E0,7.5789475E-1,1E0,1E0,1E0,1E0,-4.24679E-3,2.3356553E-3,2.8989424E-3,6.5336114E-4,2.4038588E-3,9.042003E-4,1.3421596E-3,-3.470122E-3,-2.1229124E-4,3.3972287E-3,3.9507593E-3,-1.2539908E-3,-9.743047E-4,1.1243459E-5,-1.6683377E-3,3.65001E-5,-5.012222E-3,-1.6772671E-3,1.0334889E-3,3.7916824E-3,-4.2402158E-3,1.5254568E-3,1.2840881E-3,1.096103E-4,1.3372508E-3,-8.5379736E-4,-1.6191837E-3,1.4644581E-3,5.147645E-5,3.1124367E-3,-5.477022E-3,-3.1601395E-3],"split_indices":[47,3,134,134,45,90,46,90,46,38,48,46,0,89,90,46,135,135,90,6,106,93,171,25,20,8,133,25,84,172,3,0,0,0,0,0,0,0,0,0,0,0,0,0,0,0,0,0,0,0,0,0,0,0,0,0,0,0,0,0,0,0,0],"split_type":[0,0,0,0,0,0,0,0,0,0,0,0,0,0,0,0,0,0,0,0,0,0,0,0,0,0,0,0,0,0,0,0,0,0,0,0,0,0,0,0,0,0,0,0,0,0,0,0,0,0,0,0,0,0,0,0,0,0,0,0,0,0,0],"sum_hessian":[4.018E3,2.932E3,1.086E3,2.112E3,8.2E2,5.08E2,5.78E2,9.91E2,1.121E3,7.2E1,7.48E2,2.36E2,2.72E2,3.75E2,2.03E2,4.44E2,5.47E2,4.43E2,6.78E2,6.2E1,1E1,5.56E2,1.92E2,1.57E2,7.9E1,8E0,2.64E2,3.29E2,4.6E1,1.03E2,1E2,1.6E2,2.84E2,3.28E2,2.19E2,3.62E2,8.1E1,2.92E2,3.86E2,5.4E1,8E0,9E0,1E0,2.38E2,3.18E2,1.53E2,3.9E1,1.35E2,2.2E1,6.7E1,1.2E1,6E0,2E0,1.25E2,1.39E2,3.06E2,2.3E1,3.8E1,8E0,7.5E1,2.8E1,6.8E1,3.2E1],"tree_param":{"num_deleted":"0","num_feature":"176","num_nodes":"63","size_leaf_vector":"1"}},{"base_weights":[4.627612E-5,1.5335564E-3,-3.8555148E-3,3.7570489E-3,-4.3333583E-3,-2.385232E-3,-1.3029091E-2,8.985782E-3,3.383123E-4,-3.187647E-3,-2.2919226E-2,1.0154566E-4,-7.2205192E-3,-2.4560388E-2,-3.6507696E-3,-4.439713E-3,1.9351259E-2,1.5027851E-2,-1.362968E-2,-2.186334E-3,-1.88263E-2,-2.9597694E-2,3.7763756E-2,-1.0444797E-2,8.53833E-3,1.4857391E-2,-1.9664457E-2,-3.9024793E-2,1.8793809E-3,-6.6332407E-3,1.9381087E-2,-4.230443E-3,2.2246423E-3,1.1831848E-3,2.5066764E-3,1.3251478E-3,2.9964147E-3,1.9967894E-3,-3.3953262E-3,-1.6292928E-3,-5.8340316E-5,-2.606718E-3,1.7921169E-3,-3.2113977E-3,3.6784918E-3,-5.135387E-4,4.977239E-3,-4.071787E-3,1.2514495E-3,1.5279705E-3,3.1635773E-4,6.510369E-3,1.3417423E-3,5.319443E-4,-3.9697834E-3,-5.302211E-3,-1.1215609E-3,-3.4118787E-4,4.1819247E-3,3.357437E-4,-1.5243756E-3,2.9599187E-3,-1.4327536E-3],"categories":[],"categories_nodes":[],"categories_segments":[],"categories_sizes":[],"default_left":[0,0,0,0,0,0,0,0,0,0,0,0,0,0,0,0,0,0,0,0,0,0,0,0,0,0,0,0,0,0,0,0,0,0,0,0,0,0,0,0,0,0,0,0,0,0,0,0,0,0,0,0,0,0,0,0,0,0,0,0,0,0,0],"id":24,"left_children":[1,3,5,7,9,11,13,15,17,19,21,23,25,27,29,31,33,35,37,39,41,43,45,47,49,51,53,55,57,59,61,-1,-1,-1,-1,-1,-1,-1,-1,-1,-1,-1,-1,-1,-1,-1,-1,-1,-1,-1,-1,-1,-1,-1,-1,-1,-1,-1,-1,-1,-1,-1,-1],"loss_changes":[2.3171715E-2,3.7729494E-2,1.4832424E-2,3.748222E-2,1.6855702E-2,1.1435827E-2,1.6348256E-2,1.1545094E-1,2.605825E-1,1.170323E-2,1.976011E-2,5.6055848E-2,8.9031935E-2,2.6078966E-2,5.967367E-3,3.667287E-1,1.9816756E-2,1.6026497E-2,4.4519573E-1,1.5954494E-2,1.2440935E-2,8.196879E-3,2.8314013E-3,1.9512309E-1,1.263329E-2,7.5917803E-3,1.0381713E-1,1.6532496E-2,5.425987E-3,6.589072E-3,3.8684634E-3,0E0,0E0,0E0,0E0,0E0,0E0,0E0,0E0,0E0,0E0,0E0,0E0,0E0,0E0,0E0,0E0,0E0,0E0,0E0,0E0,0E0,0E0,0E0,0E0,0E0,0E0,0E0,0E0,0E0,0E0,0E0,0E0],"parents":[2147483647,0,0,1,1,2,2,3,3,4,4,5,5,6,6,7,7,8,8,9,9,10,10,11,11,12,12,13,13,14,14,15,15,16,16,17,17,18,18,19,19,20,20,21,21,22,22,23,23,24,24,25,25,26,26,27,27,28,28,29,29,30,30],"right_children":[2,4,6,8,10,12,14,16,18,20,22,24,26,28,30,32,34,36,38,40,42,44,46,48,50,52,54,56,58,60,62,-1,-1,-1,-1,-1,-1,-1,-1,-1,-1,-1,-1,-1,-1,-1,-1,-1,-1,-1,-1,-1,-1,-1,-1,-1,-1,-1,-1,-1,-1,-1,-1],"split_conditions":[1E0,1E0,8.1578946E-1,1E0,1E0,1E0,1E0,1E0,1E0,1E0,1E0,1E0,1E0,1E0,1E0,1E0,1E0,1E0,1E0,6.105263E-1,1E0,1E0,5.7894737E-1,1E0,1E0,1.10526316E-1,1E0,1E0,1E0,1E0,1E0,-4.230443E-3,2.2246423E-3,1.1831848E-3,2.5066764E-3,1.3251478E-3,2.9964147E-3,1.9967894E-3,-3.3953262E-3,-1.6292928E-3,-5.8340316E-5,-2.606718E-3,1.7921169E-3,-3.2113977E-3,3.6784918E-3,-5.135387E-4,4.977239E-3,-4.071787E-3,1.2514495E-3,1.5279705E-3,3.1635773E-4,6.510369E-3,1.3417423E-3,5.319443E-4,-3.9697834E-3,-5.302211E-3,-1.1215609E-3,-3.4118787E-4,4.1819247E-3,3.357437E-4,-1.5243756E-3,2.9599187E-3,-1.4327536E-3],"split_indices":[3,91,45,2,118,2,90,134,46,164,77,90,46,46,40,46,5,8,90,1,121,9,1,134,134,45,134,134,142,5,48,0,0,0,0,0,0,0,0,0,0,0,0,0,0,0,0,0,0,0,0,0,0,0,0,0,0,0,0,0,0,0,0],"split_type":[0,0,0,0,0,0,0,0,0,0,0,0,0,0,0,0,0,0,0,0,0,0,0,0,0,0,0,0,0,0,0,0,0,0,0,0,0,0,0,0,0,0,0,0,0,0,0,0,0,0,0,0,0,0,0,0,0,0,0,0,0,0,0],"sum_hessian":[3.991E3,2.89E3,1.101E3,2.096E3,7.94E2,9.5E2,1.51E2,8.28E2,1.268E3,7.49E2,4.5E1,6.28E2,3.22E2,6.7E1,8.4E1,3.61E2,4.67E2,6.18E2,6.5E2,7.05E2,4.4E1,4.1E1,4E0,2.79E2,3.49E2,1.16E2,2.06E2,4.3E1,2.4E1,7.5E1,9E0,1.49E2,2.12E2,2.03E2,2.64E2,5.54E2,6.4E1,2.45E2,4.05E2,7.1E1,6.34E2,3.7E1,7E0,4E1,1E0,1E0,3E0,1.2E2,1.59E2,1.54E2,1.95E2,2E0,1.14E2,9.2E1,1.14E2,2.8E1,1.5E1,2.2E1,2E0,3.5E1,4E1,7E0,2E0],"tree_param":{"num_deleted":"0","num_feature":"176","num_nodes":"63","size_leaf_vector":"1"}},{"base_weights":[1.4243561E-5,1.8808296E-3,-4.484841E-3,4.549156E-3,-5.32956E-3,-1.7225373E-3,-8.197379E-3,7.5243777E-3,-3.3840467E-3,5.751883E-4,-7.6625496E-3,-6.8724565E-3,2.8599536E-3,-6.2702335E-3,-1.913705E-2,1.0084579E-2,7.935051E-4,-4.3707946E-3,2.130392E-2,-9.112117E-3,7.5334455E-3,-3.6260353E-3,-1.1090901E-2,-7.952719E-3,4.256681E-2,-1.6383176E-3,9.026261E-3,-4.305485E-3,-1.5819684E-2,-2.157983E-2,1.9377839E-2,1.3225434E-3,2.8482484E-4,-1.6423885E-3,2.709518E-4,-5.565126E-4,1.2242019E-3,-1.5128983E-5,3.3574847E-3,1.3069744E-4,-2.1546916E-3,5.163934E-4,5.4852846E-3,-2.139872E-3,9.789179E-4,2.5766305E-4,-2.289525E-3,-9.612233E-4,1.5659177E-3,2.3204496E-3,6.06484E-3,4.1652424E-5,-2.4870445E-3,1.405499E-3,-9.533546E-4,-2.6781668E-4,-2.025095E-3,-1.8422485E-3,7.630889E-4,-2.5550711E-3,2.4023124E-4,3.4096972E-3,-1.9749345E-3],"categories":[],"categories_nodes":[],"categories_segments":[],"categories_sizes":[],"default_left":[0,0,0,0,0,0,0,0,0,0,0,0,0,0,0,0,0,0,0,0,0,0,0,0,0,0,0,0,0,0,0,0,0,0,0,0,0,0,0,0,0,0,0,0,0,0,0,0,0,0,0,0,0,0,0,0,0,0,0,0,0,0,0],"id":25,"left_children":[1,3,5,7,9,11,13,15,17,19,21,23,25,27,29,31,33,35,37,39,41,43,45,47,49,51,53,55,57,59,61,-1,-1,-1,-1,-1,-1,-1,-1,-1,-1,-1,-1,-1,-1,-1,-1,-1,-1,-1,-1,-1,-1,-1,-1,-1,-1,-1,-1,-1,-1,-1,-1],"loss_changes":[3.385209E-2,5.4838076E-2,1.2107478E-2,4.9119774E-2,1.0611709E-2,1.6043685E-2,1.0505501E-2,2.606459E-2,1.39300525E-2,1.4830726E-2,7.5986832E-3,1.7428886E-2,1.0000369E-2,7.999664E-3,7.4744243E-3,2.487252E-2,1.3833794E-2,1.0921266E-2,5.7971375E-3,1.1947618E-2,1.4068596E-2,6.100769E-2,4.813721E-2,1.2454381E-2,1.0433961E-3,9.987673E-3,1.4320492E-2,9.235274E-3,4.596293E-3,6.8227276E-3,3.5529837E-3,0E0,0E0,0E0,0E0,0E0,0E0,0E0,0E0,0E0,0E0,0E0,0E0,0E0,0E0,0E0,0E0,0E0,0E0,0E0,0E0,0E0,0E0,0E0,0E0,0E0,0E0,0E0,0E0,0E0,0E0,0E0,0E0],"parents":[2147483647,0,0,1,1,2,2,3,3,4,4,5,5,6,6,7,7,8,8,9,9,10,10,11,11,12,12,13,13,14,14,15,15,16,16,17,17,18,18,19,19,20,20,21,21,22,22,23,23,24,24,25,25,26,26,27,27,28,28,29,29,30,30],"right_children":[2,4,6,8,10,12,14,16,18,20,22,24,26,28,30,32,34,36,38,40,42,44,46,48,50,52,54,56,58,60,62,-1,-1,-1,-1,-1,-1,-1,-1,-1,-1,-1,-1,-1,-1,-1,-1,-1,-1,-1,-1,-1,-1,-1,-1,-1,-1,-1,-1,-1,-1,-1,-1],"split_conditions":[1E0,1E0,4E-1,1E0,1E0,7.368421E-1,8.105263E-1,1E0,6E-1,1E0,1E0,1E0,7.6842105E-1,8.0526316E-1,1E0,1E0,6E-1,1E0,1E0,7.473684E-1,1E0,1E0,1E0,8.3157897E-1,1E0,1E0,1E0,1E0,1E0,1E0,1E0,1.3225434E-3,2.8482484E-4,-1.6423885E-3,2.709518E-4,-5.565126E-4,1.2242019E-3,-1.5128983E-5,3.3574847E-3,1.3069744E-4,-2.1546916E-3,5.163934E-4,5.4852846E-3,-2.139872E-3,9.789179E-4,2.5766305E-4,-2.289525E-3,-9.612233E-4,1.5659177E-3,2.3204496E-3,6.06484E-3,4.1652424E-5,-2.4870445E-3,1.405499E-3,-9.533546E-4,-2.6781668E-4,-2.025095E-3,-1.8422485E-3,7.630889E-4,-2.5550711E-3,2.4023124E-4,3.4096972E-3,-1.9749345E-3],"split_indices":[4,92,44,136,42,89,133,91,88,137,46,9,45,45,131,135,133,79,49,133,79,2,90,1,69,167,22,52,109,57,14,0,0,0,0,0,0,0,0,0,0,0,0,0,0,0,0,0,0,0,0,0,0,0,0,0,0,0,0,0,0,0,0],"split_type":[0,0,0,0,0,0,0,0,0,0,0,0,0,0,0,0,0,0,0,0,0,0,0,0,0,0,0,0,0,0,0,0,0,0,0,0,0,0,0,0,0,0,0,0,0,0,0,0,0,0,0,0,0,0,0,0,0,0,0,0,0,0,0],"sum_hessian":[4.029E3,2.848E3,1.181E3,2.079E3,7.69E2,6.78E2,5.03E2,1.512E3,5.67E2,2.18E2,5.51E2,3.19E2,3.59E2,4.29E2,7.4E1,1.095E3,4.17E2,5.46E2,2.1E1,9.1E1,1.27E2,2.54E2,2.97E2,3.13E2,6E0,2.08E2,1.51E2,3.57E2,7.2E1,7E1,4E0,7.63E2,3.32E2,4.1E1,3.76E2,5.1E2,3.6E1,8E0,1.3E1,5E1,4.1E1,1.22E2,5E0,1.09E2,1.45E2,1.38E2,1.59E2,2.93E2,2E1,4E0,2E0,1.92E2,1.6E1,1.19E2,3.2E1,3.25E2,3.2E1,6.5E1,7E0,6E1,1E1,3E0,1E0],"tree_param":{"num_deleted":"0","num_feature":"176","num_nodes":"63","size_leaf_vector":"1"}},{"base_weights":[1.5246222E-4,1.9626494E-3,-4.6598422E-3,4.5726933E-3,-4.65591E-3,-6.7829876E-3,9.771424E-4,7.382132E-3,-2.8027103E-3,-3.4204891E-3,-1.5687788E-2,-3.2998673E-3,-1.3657914E-2,-2.9634328E-3,1.3617622E-2,1.5871815E-2,2.2641344E-3,3.4333527E-2,-3.4573455E-3,-1.3374311E-3,-8.364006E-3,2.134918E-2,-1.9429227E-2,-1.7446376E-2,4.513399E-3,4.458591E-3,-2.6148621E-2,1.5456076E-3,-1.5905356E-2,5.7851104E-3,3.635862E-2,7.68456E-5,2.5820003E-3,2.1055231E-3,-1.0035267E-3,-3.3025246E-4,4.415536E-3,-5.075229E-4,9.940239E-4,-1.9745132E-5,-2.132074E-3,-7.426198E-4,-5.668021E-3,-1.3315513E-3,2.8203498E-3,-2.2018177E-3,2.12197E-3,-4.950035E-3,9.1753126E-4,1.4415157E-3,1.3992841E-4,-4.7781187E-4,1.1805152E-3,1.3841224E-4,-5.19989E-3,-3.631369E-4,1.1605138E-3,-3.194072E-3,-7.490038E-4,-3.4579856E-4,3.8424113E-3,1.7045642E-3,5.377764E-3],"categories":[],"categories_nodes":[],"categories_segments":[],"categories_sizes":[],"default_left":[0,0,0,0,0,0,0,0,0,0,0,0,0,0,0,0,0,0,0,0,0,0,0,0,0,0,0,0,0,0,0,0,0,0,0,0,0,0,0,0,0,0,0,0,0,0,0,0,0,0,0,0,0,0,0,0,0,0,0,0,0,0,0],"id":26,"left_children":[1,3,5,7,9,11,13,15,17,19,21,23,25,27,29,31,33,35,37,39,41,43,45,47,49,51,53,55,57,59,61,-1,-1,-1,-1,-1,-1,-1,-1,-1,-1,-1,-1,-1,-1,-1,-1,-1,-1,-1,-1,-1,-1,-1,-1,-1,-1,-1,-1,-1,-1,-1,-1],"loss_changes":[3.460992E-2,4.9893435E-2,1.3004029E-2,4.293335E-2,1.1081247E-2,1.8848475E-2,1.4883961E-2,6.513934E-2,1.4024418E-2,7.5678714E-3,1.17776655E-2,5.810723E-2,6.00829E-2,1.3329672E-2,1.2436119E-2,8.472176E-2,2.1677002E-1,3.8423715E-3,1.2253884E-2,1.1818905E-2,9.456954E-3,2.276366E-3,8.360073E-3,1.6002706E-1,1.0432964E-2,7.4529336E-3,1.11813426E-1,8.895395E-3,7.7223815E-3,1.6423883E-2,5.1387623E-3,0E0,0E0,0E0,0E0,0E0,0E0,0E0,0E0,0E0,0E0,0E0,0E0,0E0,0E0,0E0,0E0,0E0,0E0,0E0,0E0,0E0,0E0,0E0,0E0,0E0,0E0,0E0,0E0,0E0,0E0,0E0,0E0],"parents":[2147483647,0,0,1,1,2,2,3,3,4,4,5,5,6,6,7,7,8,8,9,9,10,10,11,11,12,12,13,13,14,14,15,15,16,16,17,17,18,18,19,19,20,20,21,21,22,22,23,23,24,24,25,25,26,26,27,27,28,28,29,29,30,30],"right_children":[2,4,6,8,10,12,14,16,18,20,22,24,26,28,30,32,34,36,38,40,42,44,46,48,50,52,54,56,58,60,62,-1,-1,-1,-1,-1,-1,-1,-1,-1,-1,-1,-1,-1,-1,-1,-1,-1,-1,-1,-1,-1,-1,-1,-1,-1,-1,-1,-1,-1,-1,-1,-1],"split_conditions":[1E0,1E0,1E0,1E0,1E0,1E0,1E0,1E0,5.263158E-1,1E0,6.105263E-1,1E0,1E0,1E0,1E0,1E0,1E0,7.157895E-1,1E0,1E0,1E0,1E-1,1E0,1E0,7.0526314E-1,1E0,1E0,7.736842E-1,7.3157895E-1,7.9473686E-1,1E0,7.68456E-5,2.5820003E-3,2.1055231E-3,-1.0035267E-3,-3.3025246E-4,4.415536E-3,-5.075229E-4,9.940239E-4,-1.9745132E-5,-2.132074E-3,-7.426198E-4,-5.668021E-3,-1.3315513E-3,2.8203498E-3,-2.2018177E-3,2.12197E-3,-4.950035E-3,9.1753126E-4,1.4415157E-3,1.3992841E-4,-4.7781187E-4,1.1805152E-3,1.3841224E-4,-5.19989E-3,-3.631369E-4,1.1605138E-3,-3.194072E-3,-7.490038E-4,-3.4579856E-4,3.8424113E-3,1.7045642E-3,5.377764E-3],"split_indices":[47,135,3,91,121,46,91,46,45,4,1,2,2,92,135,90,134,133,38,33,9,1,144,134,1,93,90,133,1,89,5,0,0,0,0,0,0,0,0,0,0,0,0,0,0,0,0,0,0,0,0,0,0,0,0,0,0,0,0,0,0,0,0],"split_type":[0,0,0,0,0,0,0,0,0,0,0,0,0,0,0,0,0,0,0,0,0,0,0,0,0,0,0,0,0,0,0,0,0,0,0,0,0,0,0,0,0,0,0,0,0,0,0,0,0,0,0,0,0,0,0,0,0,0,0,0,0,0,0],"sum_hessian":[3.971E3,2.886E3,1.085E3,2.07E3,8.16E2,7.88E2,2.97E2,1.499E3,5.71E2,7.35E2,8.1E1,5.24E2,2.64E2,2.27E2,7E1,5.63E2,9.36E2,9E0,5.62E2,5.18E2,2.17E2,7E0,7.4E1,1.86E2,3.38E2,1.08E2,1.56E2,1.69E2,5.8E1,5.3E1,1.7E1,2.24E2,3.39E2,3.7E2,5.66E2,2E0,7E0,5.02E2,6E1,4.91E2,2.7E1,2.14E2,3E0,1E0,6E0,7E1,4E0,8.4E1,1.02E2,8E1,2.58E2,4.8E1,6E1,7.6E1,8E1,1.12E2,5.7E1,1.9E1,3.9E1,4.2E1,1.1E1,9E0,8E0],"tree_param":{"num_deleted":"0","num_feature":"176","num_nodes":"63","size_leaf_vector":"1"}},{"base_weights":[-1.7297918E-4,1.3218238E-3,-3.7954873E-3,3.438163E-3,-4.103431E-3,-1.1336055E-3,-7.4546346E-3,5.362042E-3,-1.4433077E-3,-5.8915317E-3,5.6709694E-3,-2.5868057E-3,1.9141069E-2,-9.103572E-3,5.992323E-3,1.0860424E-2,8.5002475E-4,-4.268485E-3,5.0246166E-3,-1.172778E-3,-8.802941E-3,9.660883E-3,-1.7097015E-2,-7.469988E-3,2.0091354E-3,2.5069842E-2,-2.4562394E-2,-4.1596623E-4,-1.3061477E-2,1.836531E-2,-7.5191194E-3,-4.1391584E-4,1.8764412E-3,1.5702188E-3,-1.2384502E-3,-1.0815396E-3,1.4571169E-4,-1.1570164E-4,2.5068882E-3,-4.0344102E-4,2.0996272E-3,-1.0747465E-3,1.8190814E-4,1.6519862E-3,-1.7833234E-4,-3.1539642E-3,6.704051E-4,-1.1938968E-3,1.940157E-4,4.954205E-4,-8.4673305E-4,1.6294246E-3,4.752199E-3,-3.333646E-3,-4.676173E-4,7.213356E-4,-1.668261E-3,-1.4773428E-3,4.4022268E-4,1.2966311E-3,6.083454E-3,-1.3055995E-3,2.7581907E-3],"categories":[],"categories_nodes":[],"categories_segments":[],"categories_sizes":[],"default_left":[0,0,0,0,0,0,0,0,0,0,0,0,0,0,0,0,0,0,0,0,0,0,0,0,0,0,0,0,0,0,0,0,0,0,0,0,0,0,0,0,0,0,0,0,0,0,0,0,0,0,0,0,0,0,0,0,0,0,0,0,0,0,0],"id":27,"left_children":[1,3,5,7,9,11,13,15,17,19,21,23,25,27,29,31,33,35,37,39,41,43,45,47,49,51,53,55,57,59,61,-1,-1,-1,-1,-1,-1,-1,-1,-1,-1,-1,-1,-1,-1,-1,-1,-1,-1,-1,-1,-1,-1,-1,-1,-1,-1,-1,-1,-1,-1,-1,-1],"loss_changes":[2.1930093E-2,3.2932084E-2,1.1514228E-2,1.9382114E-2,1.4102889E-2,2.0261243E-2,1.10968E-2,3.6707778E-2,1.0692899E-2,9.345403E-3,1.1520458E-2,1.4400854E-2,1.2534741E-2,1.5261382E-2,9.33282E-3,7.915488E-2,1.6019541E-1,1.5272155E-2,2.2084324E-2,1.6642459E-2,8.715216E-3,8.428486E-3,6.742692E-3,1.3101878E-2,1.0254596E-2,7.303931E-3,8.91011E-4,1.7494824E-2,9.183623E-3,5.86065E-3,5.607559E-3,0E0,0E0,0E0,0E0,0E0,0E0,0E0,0E0,0E0,0E0,0E0,0E0,0E0,0E0,0E0,0E0,0E0,0E0,0E0,0E0,0E0,0E0,0E0,0E0,0E0,0E0,0E0,0E0,0E0,0E0,0E0,0E0],"parents":[2147483647,0,0,1,1,2,2,3,3,4,4,5,5,6,6,7,7,8,8,9,9,10,10,11,11,12,12,13,13,14,14,15,15,16,16,17,17,18,18,19,19,20,20,21,21,22,22,23,23,24,24,25,25,26,26,27,27,28,28,29,29,30,30],"right_children":[2,4,6,8,10,12,14,16,18,20,22,24,26,28,30,32,34,36,38,40,42,44,46,48,50,52,